#include<stdio.h>

#include <iostream>

void run (float input[784]) {

    float l1Weights[][20] = {{ 0.00676003098487854, -0.04716489091515541, 0.05938872694969177, 0.05303454399108887, -0.07228324562311172, 0.06745502352714539, -0.05841131508350372, 0.012879110872745514, -0.013215325772762299, 0.015216700732707977, 0.06998936831951141, -0.02323956787586212, 0.04610840976238251, 0.08568175137042999, 0.06637129187583923, -0.04357745870947838, 0.03224082291126251, 0.007379382848739624, 0.03335196524858475, 0.021364815533161163,},
    { -0.037008993327617645, -0.025612913072109222, 0.05049873888492584, 0.05315099656581879, -0.011620208621025085, -0.008446164429187775, 0.0016517788171768188, 0.019198112189769745, -0.07294465601444244, 0.04645434021949768, 0.016976892948150635, 0.0768137127161026, 0.0792723149061203, -0.011404380202293396, -0.0015436038374900818, 0.01714295893907547, 0.06394830346107483, -0.002835191786289215, -0.05485228821635246, -0.06224942207336426,},
    { -0.005647055804729462, 0.07415933907032013, 0.04270336031913757, -0.07209932059049606, 0.010021612048149109, 0.0243360698223114, -0.07375799864530563, 0.03153239190578461, -0.007414825260639191, 0.0005677118897438049, -0.05253304913640022, -0.04181790351867676, 0.031661614775657654, 0.019092664122581482, -0.06505456566810608, -0.0192185640335083, 0.054448142647743225, 0.025188423693180084, -0.024244602769613266, 0.05534060299396515,},
    { 0.01916804164648056, 0.030206844210624695, 0.020130015909671783, -0.005562938749790192, -0.044646795839071274, 0.0511886328458786, -0.06144314259290695, -0.017731331288814545, 0.07761120796203613, 0.025472261011600494, 0.07983951270580292, 0.054882362484931946, 0.06554193794727325, -0.08088188618421555, -0.04795438423752785, -0.03225221112370491, -0.07479581981897354, 0.033934637904167175, -0.030851051211357117, 0.06647488474845886,},
    { -0.00838247686624527, 0.05609472095966339, 0.0424841046333313, 0.06299594044685364, 0.004535950720310211, 0.08094266057014465, 0.0021715834736824036, 0.008887626230716705, 0.047382429242134094, -0.02797313779592514, 0.020397044718265533, 0.02543766051530838, 0.06981456279754639, 0.07891525328159332, 0.05293230712413788, -0.019897498190402985, -0.07516560703516006, 0.07266299426555634, -0.018231593072414398, -0.027388226240873337,},
    { -0.06681923568248749, 0.019670039415359497, -0.039649222046136856, 0.06886141002178192, -0.024433575570583344, -0.07010801881551743, 0.006985828280448914, -0.01647239178419113, 0.02932979166507721, -0.017429187893867493, 0.030887216329574585, -0.07057073712348938, -0.052306223660707474, 0.04828895628452301, 0.0005807951092720032, -0.07970917969942093, -0.025295361876487732, 0.06050609052181244, 0.06966456770896912, 0.008498623967170715,},
    { -0.06709025800228119, -0.05711657553911209, 0.01947641372680664, 0.0604223906993866, -0.08176583051681519, -0.06673752516508102, 0.006806127727031708, -0.01104186475276947, 0.029461853206157684, -0.06224478781223297, -0.007815569639205933, 0.049812331795692444, 0.0065899863839149475, 0.021915853023529053, -0.0771295577287674, -0.07941285520792007, 0.055021390318870544, 0.04578685760498047, 0.06668509542942047, 0.054226845502853394,},
    { -0.0662682056427002, 0.0254681259393692, -0.0635489672422409, 0.0037545040249824524, -0.0807228833436966, -0.07179319858551025, 0.0779760479927063, -0.03247782215476036, -0.04385388270020485, -0.031161457300186157, -0.06880392879247665, 0.0653054267168045, -0.03577340394258499, 0.06487759947776794, 0.062056541442871094, -0.010124944150447845, 0.057176366448402405, -0.04940979555249214, -0.06618663668632507, 0.06572574377059937,},
    { 0.040798723697662354, 0.04625499248504639, -0.05436057224869728, -0.025422606617212296, -0.04548430070281029, -0.08611349016427994, -0.0704372301697731, -0.072325699031353, 0.038937896490097046, -0.018479742109775543, -0.0054966360330581665, -0.020614251494407654, -0.045801110565662384, 0.033869221806526184, 0.04545000195503235, -0.08602097630500793, -0.019384019076824188, 0.03327557444572449, -0.06728767603635788, 0.06983521580696106,},
    { 0.07721637189388275, 0.0038263052701950073, 0.008743450045585632, -0.037208836525678635, 0.03644624352455139, 0.05745337903499603, 0.08384197950363159, 0.08609767258167267, -0.03310862183570862, 0.07512703537940979, 0.019014723598957062, 0.0212334543466568, -0.06888037919998169, -0.05876507610082626, -0.07757511734962463, -0.05910676717758179, -0.07224592566490173, 0.02499924600124359, 0.03299587965011597, 0.02782774716615677,},
    { 0.06964179873466492, -0.0034699514508247375, -0.05998789519071579, -0.008144572377204895, -0.05951990932226181, 0.010454647243022919, -0.0007893890142440796, -0.059383973479270935, 0.039995357394218445, 0.00043764710426330566, 0.07769840955734253, -0.06323695182800293, 0.07823683321475983, -0.02430124208331108, 0.0039872825145721436, 0.05550193786621094, 0.06371517479419708, -0.029804348945617676, 0.02463335543870926, 0.07366296648979187,},
    { -0.06809364259243011, 0.02143305540084839, 0.029492832720279694, 0.00954272598028183, -0.06953968107700348, 0.05861581861972809, 0.001138433814048767, 0.019893258810043335, 0.017392955720424652, -0.08221513777971268, 0.0772051066160202, -0.07629282027482986, 0.06433533132076263, -0.05727938935160637, -0.0662599429488182, 0.013426952064037323, 0.0781741589307785, -0.021575309336185455, -0.017609238624572754, 0.08597075939178467,},
    { -0.07193222641944885, 0.05781271308660507, -0.04402603209018707, -0.04563499987125397, 0.06609424948692322, 0.04199080914258957, 0.027169791981577873, 0.10915234684944153, -0.023442482575774193, 0.03577301651239395, -0.08126870542764664, -0.07539733499288559, 0.016772029921412468, -0.02659546211361885, 0.023422500118613243, 0.02381853573024273, -0.049794070422649384, 0.013572119176387787, 0.028168607503175735, 0.03175637871026993,},
    { -0.11037185788154602, 0.13696981966495514, -0.08802485466003418, 0.14272244274616241, -0.04489720240235329, 0.09154089540243149, 0.07923003286123276, 0.006898507941514254, 0.026801377534866333, -0.036716580390930176, -0.07978440076112747, 0.05097828805446625, -0.09522426128387451, 0.09761399775743484, 0.041750796139240265, 0.031698115170001984, 0.0589202456176281, 0.07560760527849197, -0.12146148085594177, 0.06252389401197433,},
    { -0.012488621287047863, 0.015744922682642937, -0.026829535141587257, 0.11678837239742279, -0.08071371167898178, -0.061744872480630875, 0.05376558378338814, -0.06247997283935547, 0.040663208812475204, 0.08370615541934967, 0.02959933504462242, 0.033538222312927246, 0.009694891981780529, 0.0071796090342104435, -0.012580429203808308, 0.011543076485395432, 0.0645746961236, -0.06608868390321732, 0.004140280652791262, -0.12741710245609283,},
    { -0.04476750269532204, -0.04106607288122177, 0.026919543743133545, 0.07712532579898834, -0.04071659594774246, 0.009257369674742222, -0.00834937859326601, -0.047489799559116364, 0.04946183040738106, 0.015141394920647144, -0.07675599306821823, 0.012853942811489105, -0.04364016279578209, -0.04234088212251663, 0.04779176041483879, -0.0054799458011984825, 0.025016209110617638, -0.042187027633190155, -0.05714380741119385, -0.03315260633826256,},
    { -0.0688198059797287, -0.03571490943431854, -0.036417510360479355, -0.021353162825107574, 0.04969048500061035, -0.03429702669382095, 0.06438319385051727, 0.06390734016895294, -0.0633910745382309, -0.014943219721317291, 0.054967015981674194, 0.03431191295385361, 0.05705323815345764, -0.021867923438549042, -0.0717775896191597, 0.006950303912162781, -0.035116322338581085, -0.008180759847164154, 0.07886466383934021, -0.07113847136497498,},
    { 0.03841167688369751, 0.02257649600505829, -0.060744211077690125, -0.006125465035438538, -0.06529565155506134, -0.08147390186786652, 0.01233576238155365, -0.06781020015478134, -0.06565554440021515, 0.0002836287021636963, -0.02236657589673996, 0.05628900229930878, -0.03970380499958992, -0.06193341314792633, -0.05610544607043266, 0.034142330288887024, 0.007892146706581116, 0.019923165440559387, 0.0035477429628372192, -0.010225407779216766,},
    { -0.07513217628002167, 0.023076526820659637, -0.08319026976823807, -0.07581789046525955, 0.028783246874809265, -0.019685707986354828, 0.03910604119300842, 0.062095895409584045, 0.034363389015197754, -0.001413680613040924, 0.0006982311606407166, 0.021220311522483826, 0.08633193373680115, -0.045913852751255035, -0.08174210786819458, -0.039633240550756454, 0.07507435977458954, 0.03653441369533539, 0.06244933605194092, 0.005587548017501831,},
    { -0.026503536850214005, -0.030084270983934402, -0.00993724912405014, 0.062495797872543335, 0.06531840562820435, -0.05397828668355942, -0.051700737327337265, -0.04245428368449211, -0.028661072254180908, -0.021502256393432617, 0.023439452052116394, -0.019456475973129272, -0.00016032159328460693, -0.014626450836658478, -0.0017726942896842957, -0.0850960984826088, -0.046196188777685165, -0.052811406552791595, 0.02696530520915985, -0.08044672757387161,},
    { -0.07228051126003265, -0.081886425614357, -0.021184705197811127, -0.0830833911895752, -0.006365202367305756, -0.06860480457544327, 0.02366434782743454, -0.015048548579216003, -0.01783013343811035, 0.016171909868717194, 0.008688457310199738, -0.022947348654270172, 0.06786012649536133, 0.010449722409248352, 0.03952234983444214, -0.06785386800765991, 0.06504862010478973, -0.014527402818202972, 0.060047343373298645, -0.023345492780208588,},
    { -0.04473055899143219, 0.02218078076839447, 0.08323994278907776, -0.0832303911447525, 0.07441622018814087, -0.041801922023296356, -0.028932716697454453, -0.02423004060983658, 0.06600140035152435, 0.0027519017457962036, 0.020093806087970734, -0.028768625110387802, 0.05501079559326172, -0.04626378417015076, -0.07762360572814941, -0.04554161801934242, 0.017410218715667725, -0.058337315917015076, 0.059943899512290955, 0.004803493618965149,},
    { 0.012015573680400848, 0.01565185934305191, 0.0846099853515625, -9.782612323760986e-06, -0.01318640261888504, -0.017894580960273743, 0.01400361955165863, 0.037365593016147614, 0.005895502865314484, 0.0034335777163505554, -0.06887757778167725, -0.018203891813755035, -0.0063528865575790405, -0.026526685804128647, 0.05630335211753845, -0.06794234365224838, 0.014754027128219604, 0.029231920838356018, -0.006003759801387787, 0.039429545402526855,},
    { 0.06553083658218384, 0.028530925512313843, -0.06726907193660736, -0.08421196788549423, -0.01750735193490982, 0.07536648213863373, -0.03572455048561096, 0.06073926389217377, -0.0114169642329216, -0.03602498769760132, -0.051536623388528824, 0.06577087938785553, 0.06412650644779205, -0.045398104935884476, 0.07532627880573273, -0.0675748661160469, 0.043926939368247986, 0.013882659375667572, -0.007695287466049194, 0.025619156658649445,},
    { 0.04396085441112518, 0.0009925514459609985, 0.08110611140727997, -0.00550425797700882, 0.04019172489643097, 0.024299778044223785, -0.07371318340301514, 0.05961601436138153, -0.01890721172094345, -0.030844375491142273, -0.03431490436196327, 0.059395819902420044, -0.062995545566082, 0.04677407443523407, 0.03466532379388809, -0.023131951689720154, -0.02285619080066681, 0.07416604459285736, 0.07289858162403107, 0.012914903461933136,},
    { 0.06462790071964264, -0.05209004506468773, -0.07666196674108505, 0.012350648641586304, -0.06356420367956161, -0.06765103340148926, 0.028563179075717926, -0.05308675765991211, -0.03981434181332588, -0.054486747831106186, -0.0333624929189682, -0.013770513236522675, 0.009264983236789703, -0.07138554006814957, -0.06018254905939102, 0.022040970623493195, 0.07339012622833252, -0.0393654890358448, 0.0775773674249649, 0.08218105137348175,},
    { 0.04086659848690033, 0.029721900820732117, -0.06691446900367737, -0.06641258299350739, 0.011020839214324951, -0.036437612026929855, -0.028401561081409454, -0.038005150854587555, 0.0845291018486023, 0.01814931631088257, -0.02631308138370514, -0.03872933238744736, -0.0659390538930893, -0.04888797178864479, 0.0601029098033905, 0.024516642093658447, 0.02841130644083023, 0.019627921283245087, -0.06472675502300262, 0.0783172994852066,},
    { 0.048553213477134705, 0.05766746401786804, 0.031791821122169495, -0.019288405776023865, -0.009237632155418396, 0.07956430315971375, 0.03196924179792404, 0.04600900411605835, 0.01334363967180252, -0.06364598870277405, 0.035291887819767, 0.05879636108875275, -0.0846320241689682, -0.07720817625522614, 0.08232802152633667, 0.01552051305770874, -0.07448343932628632, -0.028067242354154587, 0.04523518681526184, -0.02472851052880287,},
    { 0.02141927182674408, 0.046814605593681335, 0.06749244034290314, 0.03680655360221863, 0.061633720993995667, 0.08222511410713196, 0.06778107583522797, 0.02018558233976364, 0.06551967561244965, -0.013205766677856445, 0.004226714372634888, 0.07886362075805664, 0.02259000390768051, 0.033088624477386475, 0.0495920330286026, 0.07143346965312958, 0.059873178601264954, -0.06845224648714066, -0.02032046765089035, 0.05698603391647339,},
    { -0.05059138312935829, -0.032023243606090546, -0.04088960960507393, 0.07561814785003662, -0.08509956300258636, 0.022226832807064056, -0.05433589965105057, 0.07085183262825012, -0.05366860330104828, -0.010094806551933289, -0.08443912118673325, 0.02541453391313553, -0.08328355103731155, 0.08125467598438263, -0.06890258193016052, -0.06666803359985352, -0.04154388979077339, 0.017981186509132385, 0.0006862282752990723, -0.0086374431848526,},
    { 0.029795534908771515, -0.08168968558311462, -0.02074262499809265, 0.009214811027050018, -0.06434725224971771, -0.07096695899963379, 0.07809056341648102, 0.04428635537624359, 0.08246204257011414, -0.009151771664619446, -0.07898898422718048, -0.05210909619927406, -0.004670090973377228, -0.05296826735138893, 0.07208576798439026, -0.08268481492996216, 0.007240787148475647, -0.046212952584028244, -0.05315147340297699, -0.08321376889944077,},
    { 0.04527968168258667, -0.00724908709526062, 0.06860676407814026, 0.03441157937049866, 0.06387758255004883, 0.07929185032844543, -0.04533219709992409, 0.011115685105323792, -0.064621202647686, -0.015835262835025787, -0.07349677383899689, 0.0007680356502532959, -0.08340667188167572, -0.05874064937233925, -0.021422281861305237, 0.05255226790904999, 0.025124847888946533, -0.033912185579538345, -0.01704443246126175, 0.006257295608520508,},
    { -0.035489801317453384, 0.024382762610912323, 0.023109234869480133, -0.1501922309398651, 0.09897225350141525, 0.09409035742282867, -0.09486151486635208, -0.02099940925836563, 0.0906912088394165, 0.028447389602661133, -0.09660392254590988, 0.03404449671506882, -0.10654298961162567, 0.07138584554195404, -0.07616975158452988, -0.07855646312236786, 0.10909070074558258, 0.12204832583665848, -0.09052371233701706, 0.13898541033267975,},
    { -0.13812555372714996, 0.06698884069919586, -0.08135135471820831, -0.08616844564676285, 0.14996148645877838, 0.13540948927402496, -0.03708033636212349, -0.0339103527367115, 0.00134819105733186, -0.006586992181837559, -0.0732964277267456, 0.010064288973808289, -0.08225837349891663, 0.015622097998857498, -0.0745043009519577, -0.02221902459859848, 0.14569704234600067, 0.1114523634314537, -0.0200127474963665, 0.13921070098876953,},
    { -0.0378589853644371, 0.10896860063076019, 0.07231031358242035, -0.04834475740790367, 0.06945290416479111, 0.03973078727722168, -0.10213693231344223, 0.12874847650527954, 0.12195154279470444, -0.1655583679676056, -0.16387000679969788, -0.014103787951171398, -0.1275244951248169, -0.08199009299278259, -0.02596498467028141, -0.06116661801934242, 0.06708221882581711, 0.0932752713561058, -0.042137742042541504, 0.09356123954057693,},
    { -0.1731109321117401, 0.19885683059692383, 0.03013983927667141, -0.2105303555727005, 0.18817390501499176, 0.25142183899879456, -0.10097027570009232, 0.08289171010255814, 0.18374420702457428, -0.0888405442237854, -0.17771954834461212, -0.13564682006835938, -0.02996249496936798, -0.051175594329833984, -0.18337558209896088, 0.0027001218404620886, 0.037077516317367554, -0.012412015348672867, -0.18286696076393127, 0.20630313456058502,},
    { -0.08579572290182114, 0.09888578951358795, -0.02839493937790394, -0.27511972188949585, 0.24210838973522186, 0.20384393632411957, 0.024096021428704262, 0.15265803039073944, 0.16707833111286163, -0.20347696542739868, -0.10534635931253433, -0.16753841936588287, -0.02743402309715748, 0.08050945401191711, -0.2037273347377777, 0.1117134764790535, 0.016682898625731468, 0.10778503119945526, -0.10888909548521042, 0.2510059177875519,},
    { -0.08734312653541565, 0.17726732790470123, -0.05649839714169502, -0.18101605772972107, 0.23015664517879486, 0.18146871030330658, -0.05395542457699776, 0.15749461948871613, 0.1567104011774063, -0.21188916265964508, -0.03558391332626343, -0.1699930727481842, -0.10138142108917236, 0.08721855282783508, -0.23080524802207947, 0.07576856017112732, -0.043612949550151825, 0.10147855430841446, -0.21480722725391388, 0.23207062482833862,},
    { -0.11912154406309128, 0.1829923838376999, 0.0456547848880291, -0.2774393856525421, 0.282772421836853, 0.16744333505630493, -0.09783628582954407, 0.27082639932632446, 0.2541086971759796, -0.21758979558944702, -0.20417822897434235, -0.18913127481937408, -0.18949753046035767, 0.0661088153719902, -0.1278054416179657, 0.11376405507326126, 0.035419438034296036, 0.13435904681682587, -0.283467561006546, 0.3080640733242035,},
    { -0.2336980700492859, 0.27195221185684204, 0.03244272619485855, -0.14908817410469055, 0.24679633975028992, 0.12707391381263733, -0.16805540025234222, 0.21515464782714844, 0.2385270744562149, -0.2993948757648468, -0.2930659353733063, 0.058421261608600616, -0.10463272780179977, -0.043528057634830475, -0.301897794008255, 0.11729353666305542, 0.19053055346012115, 0.13136357069015503, -0.24839602410793304, 0.17908042669296265,},
    { -0.20404398441314697, 0.21716968715190887, 0.06945522129535675, -0.06504867970943451, 0.30305179953575134, 0.12303555756807327, -0.09294725209474564, 0.15071198344230652, 0.2579353451728821, -0.21237145364284515, -0.2982172667980194, -0.09439273923635483, -0.18866035342216492, 0.025254016742110252, -0.1766357421875, 0.020473679527640343, 0.31803467869758606, 0.09050071239471436, -0.32582899928092957, 0.1380544900894165,},
    { -0.2639857828617096, 0.1940816342830658, -0.024241993203759193, -0.1432933360338211, 0.3241661489009857, 0.20062540471553802, 0.06370806694030762, 0.1450711488723755, 0.20356938242912292, -0.11710261553525925, -0.18238316476345062, -0.0640067458152771, -0.04728260636329651, -0.15518267452716827, -0.289889931678772, 0.10117083787918091, 0.23742927610874176, 0.04800410941243172, -0.3579092025756836, 0.1613297015428543,},
    { 0.09593044966459274, 0.08973181992769241, 0.08766719698905945, -0.05331163853406906, -0.11479336023330688, 0.0998276025056839, 0.09066678583621979, -0.12397066503763199, 0.2265745848417282, -0.03830600529909134, -0.02133309468626976, -0.22642585635185242, -0.08846151828765869, -0.175977423787117, 0.014065719209611416, 0.09544813632965088, -0.057852327823638916, 0.30028119683265686, -0.12262780219316483, -0.044386621564626694,},
    { -0.10516533255577087, 0.1584162414073944, 0.20170994102954865, -0.02020934410393238, -0.1312333047389984, -0.02619173750281334, 0.0020099636167287827, -0.16709215939044952, 0.3275302052497864, -0.16443565487861633, -0.16196714341640472, -0.27525532245635986, -0.0797160267829895, -0.11997851729393005, -0.15476830303668976, 0.20470809936523438, 0.1642429083585739, 0.0964413657784462, -0.15810267627239227, 0.06342587620019913,},
    { -0.17700791358947754, 0.26132023334503174, 0.033785879611968994, 0.00883594062179327, 0.01675253175199032, -0.11225592344999313, 0.09994726628065109, 0.06356846541166306, 0.3300175666809082, -0.24803903698921204, -0.1502055525779724, -0.27034932374954224, -0.18508870899677277, -0.20915816724300385, -0.020384281873703003, 0.1147003024816513, 0.20943927764892578, -0.04497984051704407, -0.10510867089033127, 0.015286602079868317,},
    { -0.1288132518529892, 0.3530350625514984, 0.07817742228507996, -0.16621343791484833, 0.18834947049617767, 0.025761399418115616, 0.08148087561130524, 0.21044987440109253, 0.3595447838306427, -0.22210924327373505, -0.15391524136066437, -0.3801064193248749, -0.10043530911207199, -0.16904114186763763, -0.18458648025989532, 0.1193825826048851, 0.2324892282485962, 0.010065876878798008, -0.21936605870723724, 0.2662321925163269,},
    { -0.062112390995025635, 0.28554174304008484, 0.07498709112405777, -0.2173529416322708, 0.22954966127872467, 0.12323879450559616, -0.03742734342813492, 0.1333923190832138, 0.35283994674682617, -0.15553925931453705, -0.11560782790184021, -0.21112288534641266, -0.029972031712532043, 0.004356051795184612, -0.2941937744617462, -0.12699729204177856, 0.0998724028468132, 0.2590448260307312, -0.29477986693382263, 0.33378180861473083,},
    { -0.11101923882961273, 0.19943729043006897, 0.26449933648109436, -0.16738449037075043, 0.2826116979122162, 0.257865846157074, -0.20544755458831787, 0.256831556558609, 0.18583780527114868, -0.253053218126297, -0.1287587434053421, -0.14002463221549988, -0.07001505047082901, -0.023985324427485466, -0.12670612335205078, -0.05989249423146248, 0.05775506794452667, 0.19390012323856354, -0.25574421882629395, 0.30033639073371887,},
    { -0.16055941581726074, 0.1414947509765625, 0.21525537967681885, -0.2259039729833603, 0.29406097531318665, 0.207639679312706, -0.025486839935183525, 0.07136757671833038, 0.22767937183380127, -0.25126954913139343, -0.27142930030822754, -0.22425410151481628, -0.1758585423231125, -0.04916753992438316, -0.13979336619377136, -0.08582247048616409, 0.14936897158622742, 0.22722186148166656, -0.17051170766353607, 0.2867453992366791,},
    { -0.19762976467609406, 0.19638247787952423, 0.14045467972755432, -0.12466499209403992, 0.19250336289405823, 0.16880902647972107, -0.07062527537345886, 0.1953657567501068, 0.2827933728694916, -0.24008560180664062, -0.16220995783805847, -0.03203792870044708, -0.26183390617370605, -0.052643027156591415, -0.24859683215618134, -0.026138251647353172, 0.09575572609901428, 0.32397404313087463, -0.1997312605381012, 0.18490095436573029,},
    { -0.06803607940673828, 0.04577219486236572, 0.12291043996810913, -0.17662806808948517, 0.21700571477413177, 0.12822185456752777, -0.10272742807865143, 0.08366915583610535, 0.20539039373397827, -0.15408910810947418, -0.19516268372535706, -0.07893277704715729, -0.06225293502211571, -0.05220847576856613, -0.16838321089744568, -0.03803609311580658, 0.06919147074222565, 0.17140862345695496, -0.12236853688955307, 0.054670486599206924,},
    { -0.106243796646595, 0.08305272459983826, -0.0015827789902687073, -0.036135606467723846, 0.17571283876895905, -0.005978393834084272, -0.030811753123998642, 0.04991133138537407, 0.0686376690864563, -0.13251161575317383, -0.1890821009874344, 0.08417889475822449, -0.16426454484462738, 0.0595526397228241, -0.051359400153160095, -0.043395739048719406, 0.16070088744163513, 0.09675642102956772, -0.13148322701454163, 0.04475850611925125,},
    { -0.034701183438301086, 0.010545246303081512, -0.07320400327444077, -0.07585951685905457, -0.03874576836824417, 0.0656401664018631, -1.5944242477416992e-05, -0.025717440992593765, 0.0501236617565155, 0.0358860045671463, -0.040857911109924316, -0.01424328237771988, 0.07574671506881714, -0.07723705470561981, 0.011057250201702118, -0.019747890532016754, 0.02414333075284958, -0.04865751788020134, -0.03333991765975952, 0.05280281603336334,},
    { 0.03236126899719238, -0.07299591600894928, 0.06421162188053131, -0.015716999769210815, -0.06530151516199112, 0.010124817490577698, -0.06881552189588547, -0.022141173481941223, -0.07849679887294769, -0.0366792269051075, 0.05878588557243347, 0.06429944932460785, -0.06021428853273392, -0.039286233484745026, 0.026931874454021454, -0.056254830211400986, -0.06464023143053055, -0.07732604444026947, 0.02543644607067108, -0.08168130367994308,},
    { 0.01081211119890213, 0.012217476963996887, -0.038105204701423645, 0.06470184028148651, 0.0393466055393219, 0.004961714148521423, 0.05118180811405182, -0.045211851596832275, -0.07265591621398926, -0.0062153637409210205, 0.08042971789836884, 0.05145609378814697, 0.031462036073207855, -0.001817367970943451, -0.008445359766483307, 0.0045809075236320496, 0.0070958733558654785, 0.04440350830554962, 0.03767760843038559, 0.08237187564373016,},
    { -0.0441923588514328, -0.008515492081642151, -0.07366576790809631, -0.0789046660065651, 0.03947998583316803, -0.02588392049074173, -0.03667346015572548, -0.031667836010456085, -0.020048268139362335, 0.002400510013103485, 0.07872997224330902, 0.046884745359420776, 0.06844349205493927, -0.011531047523021698, 0.010671913623809814, 0.0588454008102417, -0.02728615328669548, -0.07119401544332504, -0.019110500812530518, 0.045104071497917175,},
    { 0.07852265238761902, -0.05311721935868263, 0.07952168583869934, -0.027712225914001465, 0.03014964610338211, 0.050246477127075195, 0.06753921508789062, 0.05214874446392059, -0.00357142835855484, -0.05322990193963051, 0.06026063859462738, -0.04581925645470619, -0.0521860234439373, 0.06039731204509735, -0.010731518268585205, -0.031716134399175644, -0.07994601130485535, 0.008895240724086761, -0.06352534145116806, -0.012633726000785828,},
    { 0.06768341362476349, 0.02278604358434677, -0.04855814203619957, -0.06818053871393204, -0.049582723528146744, 0.07512812316417694, 0.07424876093864441, 0.03906865417957306, -0.011191330850124359, 0.0571548193693161, -0.011111214756965637, -0.023401476442813873, -0.0742819681763649, -0.02608819305896759, -0.0482926145195961, -0.07176951318979263, -0.05009639263153076, 0.020009316504001617, 0.05830982327461243, 0.03634355217218399,},
    { -0.10348866134881973, 0.11873511224985123, 0.10624416917562485, 0.061439841985702515, 0.10664362460374832, 0.10157392919063568, -0.038545284420251846, 0.024570263922214508, 0.07800561189651489, -0.020076341927051544, 0.019046401605010033, 0.018549516797065735, 0.015931690111756325, -0.07194855809211731, -0.0941028743982315, 0.0002742958313319832, 0.1159510388970375, -0.0017916618380695581, -0.03613496571779251, 0.002254857448861003,},
    { -0.12229789048433304, 0.15476080775260925, 0.061606090515851974, 0.09018363058567047, 0.11612456291913986, -0.13058947026729584, 0.054557401686906815, 0.0366051122546196, 0.06199154630303383, -0.16701066493988037, -0.13671080768108368, 0.13552729785442352, -0.012375915423035622, -0.04916789010167122, -0.064003124833107, 0.05128565803170204, 0.05227687582373619, 0.0001304114848608151, -0.01894371770322323, -0.09652743488550186,},
    { -0.09145079553127289, 0.0349264033138752, 0.06772635132074356, 0.0866750031709671, 0.17607057094573975, 0.04055692255496979, -0.0593700110912323, 0.006420556455850601, -0.00012000768765574321, -0.1380578875541687, -0.18486499786376953, 0.11415456980466843, 0.1054031178355217, -0.05557524412870407, -0.06541899591684341, 0.0835239440202713, 0.0979008749127388, 0.04725618287920952, -0.040544383227825165, 0.05348525568842888,},
    { -0.11075101047754288, 0.07809434086084366, -0.15892045199871063, -0.2540854811668396, 0.11072906851768494, 0.1334325522184372, -0.028346529230475426, 0.011610516346991062, 0.12916570901870728, -0.05957448482513428, -0.06050312519073486, -0.10067281126976013, -0.23237201571464539, 0.03870358318090439, -0.09567800164222717, 0.00635555712506175, 0.12077216058969498, 0.10126213729381561, -0.09683892875909805, 0.07311748713254929,},
    { -0.17813865840435028, 0.13680364191532135, -0.08437716215848923, -0.2592168152332306, 0.2225758582353592, 0.14369888603687286, 0.0028945025987923145, 0.07957975566387177, 0.16858121752738953, -0.21837204694747925, -0.0068980129435658455, -0.001571902772411704, 0.021222783252596855, -0.05895986407995224, -0.2284822314977646, -0.03285323455929756, -0.005238670855760574, 0.06570686399936676, -0.14833569526672363, 0.18241147696971893,},
    { -0.1959024965763092, 0.3765623867511749, 0.0592055544257164, -0.28281745314598083, 0.3335132598876953, 0.23601795732975006, -0.19118471443653107, 0.30738475918769836, 0.27458104491233826, -0.31024742126464844, -0.08179688453674316, -0.12721510231494904, 0.05341741815209389, -0.12141811847686768, -0.2840029299259186, 0.13734056055545807, 0.10554812848567963, 0.06012779846787453, -0.2921767830848694, 0.3377464711666107,},
    { -0.2842361330986023, 0.31038427352905273, -0.2744500935077667, -0.2381872534751892, 0.16088104248046875, 0.15163640677928925, 0.03846688196063042, 0.3523764908313751, 0.32066887617111206, -0.2630854845046997, -0.019858751446008682, -0.057921167463064194, -0.11177196353673935, 0.10622318089008331, -0.40150973200798035, 0.006070235278457403, 0.07589216530323029, 0.01154416985809803, -0.27838873863220215, 0.24004434049129486,},
    { -0.2600019872188568, 0.2706112861633301, -0.35300034284591675, -0.3019348978996277, 0.17313987016677856, -0.007964816875755787, -0.030867647379636765, 0.21844340860843658, 0.4618585407733917, -0.43574002385139465, -0.11351621150970459, -0.18142595887184143, -0.2332560271024704, 0.11920803040266037, -0.3428194224834442, -0.038115061819553375, 0.03070315718650818, -0.08207422494888306, -0.061025939881801605, 0.17114777863025665,},
    { -0.3041473627090454, 0.44754818081855774, -0.19175393879413605, -0.28951042890548706, 0.24489067494869232, 0.012173092924058437, -0.07300693541765213, 0.23227046430110931, 0.5401464104652405, -0.5466369390487671, -0.23182313144207, -0.22497332096099854, -0.3672672212123871, 0.19692730903625488, -0.4381866455078125, -0.1841299831867218, 0.14904138445854187, -0.011501898989081383, -0.22918565571308136, 0.29132118821144104,},
    { -0.4445379972457886, 0.32110217213630676, -0.17067895829677582, -0.14844463765621185, 0.27474018931388855, 0.02978258952498436, 0.028124533593654633, 0.44258296489715576, 0.537458062171936, -0.5938815474510193, -0.40711259841918945, -0.2043304145336151, -0.44783225655555725, 0.04385344311594963, -0.610548198223114, 0.013963084667921066, 0.17435087263584137, 0.043933458626270294, -0.20519497990608215, 0.38256970047950745,},
    { -0.4762900173664093, 0.389254093170166, -0.14166340231895447, -0.14705805480480194, 0.16162605583667755, 0.1606888324022293, 0.04355928674340248, 0.2979777753353119, 0.5649927854537964, -0.5349168181419373, -0.5230875611305237, -0.06954638659954071, -0.48630911111831665, 0.002059121383354068, -0.6066100001335144, 0.08465253561735153, 0.13211192190647125, 0.006309944204986095, -0.13096313178539276, 0.4090249538421631,},
    { -0.1716679334640503, 0.4066689610481262, -0.14114516973495483, -0.048095278441905975, 0.12864820659160614, 0.21146425604820251, 0.16470035910606384, 0.04829807206988335, 0.45965874195098877, -0.36297836899757385, -0.4017634391784668, -0.2727590501308441, -0.42609938979148865, -0.18046338856220245, -0.5037255883216858, 0.09212817996740341, 0.14250481128692627, 0.21274110674858093, -0.21201762557029724, 0.1409151703119278,},
    { -0.14558690786361694, 0.293124794960022, -0.07071471214294434, -0.04132251441478729, 0.01623927243053913, 0.2629057765007019, 0.2059762328863144, 0.023748774081468582, 0.5250670313835144, -0.34258902072906494, -0.3593822717666626, -0.43822604417800903, -0.44116008281707764, -0.16528292000293732, -0.3489748239517212, -0.0742330253124237, 0.009589394554495811, 0.25707244873046875, -0.1969870775938034, 0.23173704743385315,},
    { -0.03966062143445015, 0.33051562309265137, -0.0101259620860219, -0.02935374714434147, -0.1022479310631752, 0.07274551689624786, 0.21391147375106812, 0.012112835422158241, 0.5230563282966614, -0.2783557176589966, -0.4138828217983246, -0.3810260593891144, -0.4558650553226471, -0.361784428358078, -0.20777690410614014, -0.025375235825777054, -0.08646727353334427, 0.29917800426483154, -0.09741934388875961, 0.15216301381587982,},
    { -0.03582770749926567, 0.4363920986652374, -0.04831833392381668, -0.08049779385328293, 0.01509116031229496, 0.13675612211227417, 0.11576478183269501, -0.11773049831390381, 0.38097020983695984, -0.4087456464767456, -0.3934916853904724, -0.262337327003479, -0.5354384183883667, -0.2288437932729721, -0.1449860781431198, 0.0574004128575325, -0.14547878503799438, 0.3716932535171509, -0.16785308718681335, 0.14875096082687378,},
    { -0.32245853543281555, 0.3958115577697754, -0.0832049772143364, -0.22663943469524384, 0.13205288350582123, 0.10420502722263336, -0.044021375477313995, 0.0706716775894165, 0.29737189412117004, -0.1577996462583542, -0.2326257824897766, -0.162620410323143, -0.3326493799686432, -0.19578765332698822, -0.1319567859172821, -0.1957821249961853, -0.21551953256130219, 0.2659066915512085, -0.25070473551750183, 0.24710223078727722,},
    { -0.2778313457965851, 0.4975818693637848, -0.1552099883556366, -0.3026959300041199, 0.1925555020570755, 0.07642516493797302, -0.21637028455734253, 0.18516744673252106, 0.17007403075695038, -0.33430781960487366, 0.04623181000351906, 0.04598899185657501, -0.38481438159942627, -0.16477499902248383, -0.08312936872243881, -0.12325310707092285, -0.14718195796012878, 0.24431335926055908, -0.2353394329547882, 0.3540094196796417,},
    { -0.32248470187187195, 0.5378022193908691, -0.1023591160774231, -0.449045866727829, 0.2285510003566742, 0.14679263532161713, -0.26232510805130005, 0.1330166608095169, 0.1836257129907608, -0.30646467208862305, 0.06866639107465744, 0.03230198100209236, -0.18100905418395996, -0.015619969926774502, -0.10356656461954117, -0.21089525520801544, -0.26928776502609253, 0.37079834938049316, -0.4675072133541107, 0.48190879821777344,},
    { -0.12369368225336075, 0.32929596304893494, 0.018576478585600853, -0.3214159905910492, 0.23087875545024872, 0.02656237594783306, -0.18095743656158447, 0.03636488690972328, 0.1165657490491867, -0.33849895000457764, 0.006677062250673771, -0.006526151672005653, -0.23299197852611542, -0.05064928159117699, -0.09895207732915878, -0.171657532453537, -0.09998896718025208, 0.36945298314094543, -0.39459457993507385, 0.3561275601387024,},
    { -0.10231221467256546, 0.3451111912727356, -0.03152315691113472, -0.32004547119140625, 0.3840080499649048, 0.27503159642219543, -0.07703087478876114, 0.23073679208755493, 0.24112173914909363, -0.34517282247543335, -0.058816056698560715, -0.3729149401187897, -0.30491673946380615, -0.13092643022537231, -0.23937992751598358, -0.2742675244808197, -0.08662538230419159, 0.37525856494903564, -0.225569948554039, 0.2502211332321167,},
    { -0.14243152737617493, 0.28083473443984985, -0.05309394747018814, -0.3107108771800995, 0.24202321469783783, 0.1518244743347168, -0.21860986948013306, 0.18733590841293335, 0.15862950682640076, -0.23016047477722168, -0.03839927166700363, -0.2688605487346649, -0.307974636554718, -0.035391610115766525, -0.32423073053359985, -0.22832678258419037, 0.0820012018084526, 0.38803014159202576, -0.3456180989742279, 0.21268801391124725,},
    { -0.31691235303878784, 0.17211873829364777, -0.054636452347040176, -0.1741514652967453, 0.2462860345840454, 0.09537570178508759, -0.09449262171983719, 0.15574435889720917, 0.13743408024311066, -0.24782302975654602, 0.03863676264882088, -0.030393270775675774, -0.22806532680988312, 0.030467042699456215, -0.20488587021827698, -0.16928978264331818, 0.16968397796154022, 0.23242872953414917, -0.20255795121192932, 0.25476065278053284,},
    { -0.17589618265628815, 0.050278495997190475, -0.1389024406671524, -0.026147836819291115, 0.07758931070566177, 0.1284017115831375, 0.03976130113005638, 0.21104592084884644, 0.14981195330619812, -0.1728167086839676, -0.2782413065433502, -0.008136396296322346, -0.06554191559553146, -0.032177314162254333, 0.029536383226513863, -0.11241088807582855, 0.07503844797611237, -0.01747257262468338, -0.03082231432199478, 0.054980140179395676,},
    { -0.06658066064119339, 0.0220830999314785, -0.13694679737091064, 0.08955200761556625, -0.058336980640888214, -0.0012737668585032225, 0.10477104783058167, 0.021780770272016525, 0.09715623408555984, 0.0012171798152849078, -0.1181260421872139, 0.0173442754894495, -0.12100350111722946, -0.07562258839607239, 0.0035185657907277346, 0.003907107748091221, 0.08297362178564072, 0.015444145537912846, 0.02364080213010311, 0.06632573157548904,},
    { -0.0317133329808712, 0.02415187656879425, 0.02664797753095627, -0.04382140189409256, -0.04399096965789795, -0.02623741328716278, 0.035042136907577515, -0.0695587769150734, 0.014194265007972717, 0.07852695882320404, 0.08610284328460693, -0.05934512987732887, 0.03960216045379639, 0.001471206545829773, -0.0694834366440773, -0.00525318831205368, -0.011202618479728699, 0.05774739384651184, 0.03175557404756546, -0.014322862029075623,},
    { -0.024012155830860138, 0.04677243530750275, -0.03571932017803192, 0.0048406049609184265, 0.00013943761587142944, 0.04301559925079346, 0.07909253239631653, 0.039961621165275574, -0.017230205237865448, 0.044586434960365295, -0.02290533483028412, -0.06712045520544052, -0.03099052608013153, 0.022478021681308746, 0.036955855786800385, 0.04027324914932251, -0.02101760357618332, -0.012496434152126312, 0.02601289004087448, -0.038235682994127274,},
    { 0.08447007834911346, 0.017635151743888855, 0.040353745222091675, 0.005266740918159485, -0.0546727292239666, -0.016480691730976105, -0.022134743630886078, 0.002237387001514435, 0.04896368086338043, -0.04554116725921631, 0.0072919949889183044, 0.05964718759059906, -0.017785459756851196, -0.0044831782579422, -0.07055450230836868, -0.04642334207892418, 0.0830172598361969, -0.0384407602250576, 0.02937427908182144, -0.027995672076940536,},
    { -0.05353015288710594, -0.004488267004489899, 0.036953918635845184, -0.0004928857088088989, 0.04808945953845978, -0.016715921461582184, -0.04779035598039627, 0.058490410447120667, -0.02346625179052353, -0.016279980540275574, -0.02185291051864624, -0.05028114095330238, -0.042568985372781754, 0.05155228078365326, 0.0836346298456192, 0.08015355467796326, -0.06652363389730453, 0.08540970087051392, -0.034605722874403, -0.025606323033571243,},
    { 0.07130496948957443, -0.10834977775812149, 0.12602941691875458, 0.06752678006887436, -0.1416323184967041, 0.1388285756111145, 0.15377312898635864, 0.02165338210761547, 0.059790629893541336, 0.04495839774608612, -0.12949170172214508, -0.051129892468452454, -0.1103762537240982, 0.08181741833686829, -0.048897381871938705, 0.12332724779844284, 0.07444994151592255, 0.058153342455625534, 0.056433066725730896, 0.00648505100980401,},
    { -0.15559253096580505, 0.07396361976861954, 0.06314636021852493, -0.013599006459116936, 0.1124829575419426, -0.14246508479118347, 0.008552336134016514, -0.06926696002483368, 0.1158967912197113, -0.13350412249565125, -0.13714031875133514, 0.04809241741895676, 0.08650879561901093, -0.03536563366651535, -0.10183601826429367, 0.05064051225781441, 0.05506054684519768, 0.24012693762779236, -0.12910759449005127, -0.08264881372451782,},
    { -0.04463439807295799, 0.0752229392528534, 0.12421414256095886, 0.06364497542381287, 0.14491629600524902, -0.10521117597818375, -0.010093468241393566, -0.10036446154117584, 0.02652166597545147, -0.12169133126735687, -0.008046709932386875, 0.0628562793135643, 0.016122007742524147, 0.05587295442819595, -0.12347156554460526, 0.05088527128100395, 0.07933265715837479, 0.07482431828975677, -0.15434007346630096, -0.07074330002069473,},
    { 0.08573827147483826, 0.09806771576404572, -0.007235771976411343, 0.004558717366307974, 0.16658641397953033, 0.052514541894197464, -0.14714808762073517, 0.041415389627218246, 0.2290574163198471, -0.19410060346126556, -0.21037182211875916, -0.215666264295578, 0.103291355073452, 0.14235566556453705, -0.2109636515378952, -0.14736098051071167, -0.1776648610830307, -0.009414535947144032, 0.133736714720726, 0.03080807439982891,},
    { -0.03239773213863373, 0.19362576305866241, -0.03189807012677193, 0.001183037180453539, 0.2378292679786682, 0.12371167540550232, -0.1321740746498108, 0.13295546174049377, 0.2167518436908722, -0.21675464510917664, -0.11515410244464874, -0.10414426773786545, -0.041468266397714615, 0.08822190761566162, -0.1326284408569336, -0.1997363269329071, -0.020771119743585587, -0.039422061294317245, -0.08571547269821167, 0.2760515511035919,},
    { 0.1142076700925827, 0.06160370260477066, 0.06701038032770157, 0.02616228722035885, 0.21422255039215088, 0.028948253020644188, 0.00624127360060811, 0.009606515988707542, 0.12417019158601761, -0.3302834928035736, -0.1597171574831009, -0.07660200446844101, -0.09354744106531143, 0.13447321951389313, -0.11838223040103912, -0.14367002248764038, -0.24213635921478271, 0.032088249921798706, 0.03974992036819458, 0.10924459248781204,},
    { -0.28294843435287476, -0.0284200981259346, -0.010456113144755363, 0.07384465634822845, 0.20333686470985413, -0.044861722737550735, 0.029101451858878136, 0.1687072366476059, 0.18528780341148376, -0.41834715008735657, -0.16306395828723907, 0.09517564624547958, -0.1931001991033554, 0.4511612355709076, -0.26866474747657776, -0.12712614238262177, -0.13691739737987518, -0.08586093038320541, 0.1301916092634201, 0.043560951948165894,},
    { -0.07458753138780594, 0.24782860279083252, -0.13160483539104462, -0.09098450094461441, 0.030840102583169937, -0.08334794640541077, 0.06926889717578888, 0.27396130561828613, 0.30129262804985046, -0.5048712491989136, -0.1501578837633133, -0.1254904419183731, -0.2524799406528473, 0.47557419538497925, -0.45484039187431335, -0.14261502027511597, -0.11339670419692993, -0.18087390065193176, 0.04459593817591667, 0.18083536624908447,},
    { -0.18627510964870453, 0.3814038932323456, -0.06600707024335861, -0.05874047800898552, 0.1172759011387825, -0.014092438854277134, -0.009483412839472294, 0.24839003384113312, 0.30738404393196106, -0.4716441035270691, -0.12231998145580292, -0.07160540670156479, -0.2259373515844345, 0.4147290289402008, -0.4582747220993042, -0.17083479464054108, -0.19572986662387848, -0.07351846992969513, -0.06519269943237305, 0.2569936215877533,},
    { -0.2820509970188141, 0.30532729625701904, 0.05180942639708519, 0.04996595159173012, 0.3049001693725586, -0.012344990856945515, 0.02017868123948574, 0.3127058148384094, 0.23491241037845612, -0.4194090962409973, -0.38752368092536926, 0.03644542396068573, -0.34648725390434265, 0.4003725051879883, -0.5191271305084229, -0.23663866519927979, -0.2624743580818176, -0.1843079775571823, 0.039492856711149216, 0.21572944521903992,},
    { -0.1394503265619278, 0.34751567244529724, 0.06905823200941086, 0.11534841358661652, 0.23062142729759216, -0.06631249189376831, 0.10039214044809341, 0.06075405329465866, 0.3379650413990021, -0.6536020636558533, -0.45949289202690125, 0.11259406059980392, -0.34561777114868164, 0.4539893567562103, -0.6406987905502319, -0.061608850955963135, -0.0969775915145874, 0.03156795725226402, 0.039298590272665024, 0.25857114791870117,},
    { -0.30201587080955505, 0.43303513526916504, 0.0824880301952362, 0.21601004898548126, 0.00838854257017374, -0.05048854276537895, 0.23510105907917023, 0.0272568017244339, 0.37935158610343933, -0.659791886806488, -0.4553082585334778, 0.17979972064495087, -0.6090089678764343, 0.34651508927345276, -0.6507415175437927, -0.04258927330374718, 0.01402206625789404, 0.005827353335916996, 0.0600828193128109, 0.15600232779979706,},
    { -0.19257515668869019, 0.25306588411331177, 0.1276545524597168, 0.14415250718593597, 0.038120441138744354, 0.012457115575671196, 0.16878099739551544, 0.03896590322256088, 0.2336990237236023, -0.7346736192703247, -0.4052894115447998, 0.11515893787145615, -0.3575875759124756, 0.20092952251434326, -0.5401643514633179, -0.1090574860572815, -0.13898912072181702, 0.15244504809379578, 0.04649081081151962, 0.2652466893196106,},
    { -0.07478156685829163, 0.3061031401157379, 0.1693876087665558, 0.017672596499323845, 0.04985195770859718, -0.013476257212460041, 0.11780343949794769, 0.03461838513612747, 0.20667116343975067, -0.6181066036224365, -0.4359893798828125, 0.225507915019989, -0.42171913385391235, 0.09317280352115631, -0.409719854593277, -0.27682268619537354, -0.2400045543909073, 0.13912735879421234, -0.143879696726799, 0.2566598057746887,},
    { 0.024576306343078613, 0.2670226991176605, 0.19703905284404755, 0.10741334408521652, 0.1428614854812622, -0.03793657198548317, 0.09639012068510056, 0.07785048335790634, 0.09328442811965942, -0.4801228642463684, -0.24804620444774628, 0.05926162004470825, -0.34241142868995667, 0.028790216892957687, -0.3124599754810333, -0.25016385316848755, -0.3182865381240845, 0.21002407371997833, -0.13726834952831268, 0.22861677408218384,},
    { -0.06416476517915726, 0.2006070464849472, 0.030758732929825783, 0.041017189621925354, 0.22010697424411774, 0.022942930459976196, -0.04909861832857132, 0.1356627494096756, -0.04257184639573097, -0.41229432821273804, -0.02518920600414276, 0.13958586752414703, -0.31667643785476685, -0.018925756216049194, -0.26928216218948364, -0.3438587784767151, -0.22895392775535583, 0.2045833170413971, -0.12562750279903412, 0.4020965099334717,},
    { -0.007399549707770348, 0.3468460142612457, 0.0332576185464859, -0.05837706848978996, 0.3168438673019409, 0.004848439246416092, -0.15375547111034393, 0.19324812293052673, 0.04960804432630539, -0.26249536871910095, 0.16320723295211792, 0.2101558893918991, -0.4529307782649994, 0.06087923049926758, -0.11329557001590729, -0.4128802716732025, -0.19411849975585938, 0.14183036983013153, -0.15158532559871674, 0.4783259332180023,},
    { -0.20972687005996704, 0.3772081732749939, -0.09138218313455582, -0.2551018297672272, 0.24256499111652374, -0.024126021191477776, -0.2753205895423889, 0.1386105865240097, -0.009347868151962757, -0.2587660551071167, 0.21104152500629425, 0.2228768914937973, -0.4264430105686188, 0.10782546550035477, -0.07405567914247513, -0.3714808523654938, -0.17873983085155487, 0.3312870264053345, -0.22479605674743652, 0.4469822347164154,},
    { -0.1345091611146927, 0.2805492877960205, -0.02326677367091179, -0.2265804409980774, 0.1891053020954132, 0.11277062445878983, -0.312895268201828, 0.15125666558742523, 0.08317900449037552, -0.2763553857803345, 0.1811307966709137, 0.23030653595924377, -0.21235546469688416, 0.05254507437348366, 0.056594036519527435, -0.2688676118850708, -0.2625078856945038, 0.3096179664134979, -0.1906358003616333, 0.32950282096862793,},
    { -0.15631787478923798, 0.24467819929122925, 0.024316532537341118, -0.15071724355220795, 0.20006278157234192, -0.036299657076597214, -0.27283337712287903, 0.0790950283408165, -0.08062639087438583, -0.3185636103153229, 0.2848690152168274, 0.11572916060686111, -0.21501855552196503, 0.010061806999146938, -0.11093772202730179, -0.30049464106559753, -0.15850041806697845, 0.2591567635536194, -0.2949000597000122, 0.23977741599082947,},
    { -0.13097286224365234, 0.30770444869995117, -0.18223115801811218, -0.42967689037323, 0.013680597767233849, -0.011067238636314869, -0.2135259062051773, 0.08378277719020844, 0.05818595364689827, -0.19531862437725067, 0.39055684208869934, 0.11629641056060791, -0.3260599672794342, -0.06537238508462906, -0.13670380413532257, -0.1427055150270462, -0.11481566727161407, 0.23721559345722198, -0.35804489254951477, 0.312747985124588,},
    { -0.008825856260955334, 0.2762707769870758, -0.04181050509214401, -0.34870487451553345, 0.049455881118774414, 0.08787292242050171, -0.22912901639938354, 0.04583429917693138, -0.03480213135480881, -0.4076350927352905, 0.25697746872901917, 0.031685348600149155, -0.12164276838302612, -0.08069511502981186, -0.08044746518135071, -0.14690619707107544, 0.034789301455020905, 0.03334646672010422, -0.2380179464817047, 0.12647289037704468,},
    { -0.007713784463703632, 0.16987241804599762, -0.01436375267803669, -0.22572700679302216, 0.05741073191165924, 0.042480528354644775, -0.12390010058879852, 0.15004870295524597, -0.012858746573328972, -0.3407634496688843, 0.1433999091386795, 0.03504549339413643, -0.06214103847742081, 0.091575026512146, -0.08091989159584045, -0.15286318957805634, -0.04813912510871887, 0.0005737160099670291, -0.2746953070163727, 0.0502222403883934,},
    { 0.04151212424039841, 0.08348482847213745, -0.05873682722449303, -0.012272974476218224, 0.044512804597616196, 0.0501457080245018, -0.06966903060674667, 0.07333239912986755, -0.016003165394067764, -0.2526123523712158, -0.06639924645423889, -0.05598094314336777, -0.1215653195977211, -0.11159520596265793, -0.05564562976360321, -0.04766843840479851, -0.014014019630849361, 0.028397098183631897, 0.037500012665987015, 0.0964876264333725,},
    { -0.09745684266090393, 0.11842162907123566, -0.12482878565788269, -0.208169087767601, 0.05292797088623047, -0.09641022980213165, -0.08075056225061417, 0.09429509937763214, 0.024118756875395775, 0.0045624361373484135, 0.08128692954778671, 0.12799212336540222, -0.08484349399805069, 0.036942947655916214, -0.06953366100788116, 0.025023989379405975, -0.11156541854143143, -0.025255393236875534, -0.14484818279743195, -0.016354501247406006,},
    { -0.05265281721949577, 0.0354912132024765, -0.03560558706521988, 0.03632587939500809, -0.03740118443965912, -0.04432901740074158, 0.03677619248628616, -0.054578933864831924, -0.07433491945266724, -0.03141301870346069, -0.06263802945613861, -0.05405455455183983, 0.08576968312263489, -0.08267812430858612, -0.041857387870550156, -0.027742378413677216, -0.08408420532941818, -0.07617391645908356, 0.028182022273540497, -0.037072326987981796,},
    { 0.0841720849275589, -0.012153096497058868, -0.061270445585250854, -0.05347318574786186, 0.08269068598747253, 0.047955483198165894, 0.030827902257442474, -0.008353479206562042, -0.06776124238967896, -0.037729986011981964, 0.00934397429227829, 0.02389545738697052, -0.07326420396566391, -0.08106856793165207, 0.003593631088733673, -0.009180709719657898, 0.08016739785671234, -0.06592393666505814, -0.036370035260915756, -0.05253704637289047,},
    { -0.01286944467574358, -0.0021956157870590687, 0.0734189972281456, 0.07750526815652847, 0.054916854947805405, -0.027635835111141205, -0.03925115242600441, -0.08699817210435867, -0.12127328664064407, 0.0018824338912963867, -0.06846798211336136, -0.011828132905066013, -0.023545868694782257, -0.0491778664290905, 0.10568178445100784, -0.04873146116733551, 0.0016981151420623064, 0.051340252161026, 0.12622188031673431, -0.035969872027635574,},
    { 0.12154287844896317, -0.010650641284883022, 0.097897008061409, 0.1582057774066925, -0.11964330822229385, 0.06809815764427185, 0.0055666896514594555, -0.06306571513414383, 0.03767622634768486, -0.060811106115579605, 0.03868304193019867, -0.03784269094467163, 0.07826642692089081, -0.09148535877466202, 0.09035074710845947, 0.137361079454422, -0.021182645112276077, 0.03503115847706795, -0.009837609715759754, -0.011821345426142216,},
    { 0.04653307795524597, -0.029933946207165718, 0.10471243411302567, 0.07766973972320557, 0.09352421015501022, -0.06955971568822861, -0.05056489631533623, -0.13801348209381104, 0.0651806965470314, -0.11204400658607483, -0.1250210851430893, 0.12766198813915253, 0.09061536192893982, 0.13204102218151093, -0.06188403442502022, -0.024061596021056175, 0.06934188306331635, 0.11363270878791809, 0.061217572540044785, -0.0865129828453064,},
    { 0.12424793839454651, -0.21546943485736847, -0.00037116024759598076, 0.07685856521129608, 0.13699589669704437, 0.1531466543674469, 0.08331453055143356, -0.051975589245557785, 0.12810713052749634, 0.16454435884952545, -0.08204591274261475, -0.12428098917007446, 0.07865571975708008, 0.052476804703474045, -0.045255862176418304, -0.17722220718860626, -0.2342745065689087, 0.07004605233669281, 0.15780168771743774, -0.027949267998337746,},
    { 0.15808258950710297, -0.031110282987356186, 0.026177188381552696, 0.14266225695610046, 0.1551245152950287, 0.08799513429403305, -0.027498427778482437, 0.06404544413089752, 0.18049222230911255, -0.09784967452287674, -0.12853612005710602, -0.07456044107675552, 0.03202487900853157, 0.10450144112110138, 0.045626744627952576, -0.1618218570947647, -0.24739323556423187, -0.01508793793618679, 0.2636052072048187, -0.06223904341459274,},
    { 0.07974135875701904, 0.004417724441736937, -0.07874677330255508, 0.1390869915485382, 0.08951382339000702, -0.06842298805713654, 0.1031450629234314, 0.11406340450048447, 0.14591212570667267, 0.0321299247443676, -0.16215160489082336, -0.004839400760829449, 0.04547640308737755, 0.17861297726631165, 0.007469942793250084, -0.10325157642364502, -0.12764176726341248, 0.07485925406217575, 0.24852637946605682, -0.06314215064048767,},
    { 0.012765234336256981, -0.052330031991004944, 0.02781629003584385, 0.056684065610170364, 0.05457882955670357, -0.0703350380063057, 0.012464265339076519, 0.10517556965351105, 0.13156992197036743, -0.028127552941441536, -0.20822735130786896, 0.023645006120204926, -0.05197710543870926, 0.21887202560901642, -0.015504996292293072, -0.23136353492736816, -0.17087869346141815, -0.047753043472766876, 0.17251136898994446, -0.18841972947120667,},
    { 0.15798214077949524, 0.0807105004787445, 0.061234746128320694, 0.17498207092285156, 0.1748298704624176, -0.009539165534079075, 0.05001525953412056, 0.10154975205659866, 0.15224280953407288, 0.02475891262292862, -0.262781023979187, -0.13441219925880432, -0.02658061310648918, 0.2455916404724121, -0.16081392765045166, -0.3933422863483429, -0.13079918920993805, 0.036317504942417145, 0.1992153376340866, -0.08431869745254517,},
    { 0.09372296184301376, 0.21880394220352173, -0.052635278552770615, 0.17283304035663605, 0.0383513979613781, -0.16155782341957092, 0.09947557747364044, 0.27111905813217163, 0.26934492588043213, -0.17373442649841309, -0.297435462474823, -0.016458475962281227, -0.16251777112483978, 0.2903827428817749, -0.2141791582107544, -0.2269168645143509, -0.056880731135606766, -0.219209685921669, 0.24756182730197906, 0.08118071407079697,},
    { 0.0702514499425888, 0.3061351180076599, 0.09280004352331161, 0.1832657754421234, 0.12353504449129105, -0.13864099979400635, -0.029427850618958473, 0.23352810740470886, 0.13249893486499786, -0.20604702830314636, -0.27536821365356445, -0.05274640768766403, -0.0883103460073471, 0.33897000551223755, -0.19541087746620178, -0.2659527659416199, -0.14862163364887238, -0.04803428053855896, 0.15914185345172882, 0.05893205106258392,},
    { 0.012891729362308979, 0.25275537371635437, 0.0701836496591568, 0.1525612622499466, 0.09813235700130463, -0.21669837832450867, 0.04513787850737572, 0.06566669046878815, -0.008286290802061558, -0.236079603433609, -0.2862197756767273, 0.04789333418011665, -0.08879270404577255, 0.3982996344566345, -0.07276284694671631, -0.24790990352630615, -0.10139933973550797, -0.13132719695568085, 0.07118479162454605, -0.052409954369068146,},
    { 0.13505801558494568, 0.36377274990081787, 0.17478695511817932, 0.24692891538143158, -0.0025732209905982018, -0.24384728074073792, 0.24439094960689545, 0.16219960153102875, 0.04967300593852997, -0.36314836144447327, -0.2669517397880554, 0.0021694491151720285, -0.12554997205734253, 0.20480182766914368, -0.03547938913106918, -0.2096535861492157, 0.023361388593912125, -0.07310527563095093, 0.09867404401302338, -0.017982887104153633,},
    { 0.16901279985904694, 0.29830989241600037, 0.17177213728427887, 0.2752843201160431, -0.028761964291334152, -0.16787102818489075, 0.10972602665424347, 0.11234170943498611, 0.02141157165169716, -0.36043161153793335, -0.09678874164819717, 0.064122274518013, -0.1615287810564041, 0.1441134661436081, -0.22727887332439423, -0.24656035006046295, 0.011478929780423641, 0.07414816319942474, 0.08226457238197327, -0.03652375936508179,},
    { 0.08743853121995926, 0.37274208664894104, 0.17896416783332825, 0.3677772879600525, -0.08373191952705383, -0.18193228542804718, 0.1602807492017746, 0.020335979759693146, -0.16846109926700592, -0.44617512822151184, -0.06207968667149544, -0.03588626906275749, -0.16052094101905823, 0.19720900058746338, -0.11785653233528137, -0.2084612101316452, 0.13648153841495514, 0.0572938434779644, 0.05819370970129967, -0.13932986557483673,},
    { 0.11799170821905136, 0.3270934820175171, 0.11546232551336288, 0.23782837390899658, -0.035600654780864716, -0.07735992968082428, 0.1674174815416336, 0.06718572974205017, -0.04851866513490677, -0.4315389394760132, -0.12158297747373581, 0.16306088864803314, -0.19467075169086456, 0.277030885219574, -0.2120535671710968, -0.2931510806083679, 0.1383625864982605, 0.11623825877904892, 0.022009795531630516, -0.11368919163942337,},
    { 0.08622974902391434, 0.466461181640625, 0.0874604657292366, 0.10339820384979248, -0.0047092135064303875, -0.04219353199005127, 0.1390773355960846, 0.12662625312805176, -0.07435887306928635, -0.3688388168811798, 0.01030491292476654, 0.2193789929151535, -0.23964600265026093, 0.20417343080043793, -0.04111529514193535, -0.38072633743286133, -0.0012452398659661412, 0.15785078704357147, -0.009373581036925316, -0.04511979594826698,},
    { 0.10081864893436432, 0.36213237047195435, 0.06822899729013443, -0.08622170984745026, 0.0201319120824337, 0.0730876475572586, 0.13386712968349457, 0.0881325900554657, -0.08927993476390839, -0.25789162516593933, 0.14347361028194427, 0.27643001079559326, -0.3072000741958618, 0.07146439701318741, -0.06473817676305771, -0.3116258382797241, 0.09373831748962402, 0.05892179533839226, -0.13035333156585693, 0.05096862465143204,},
    { -0.006857739295810461, 0.328823447227478, 0.09330234676599503, -0.09984830021858215, 0.08741838485002518, 0.0005041177500970662, -0.0557405948638916, 0.15861545503139496, -0.04305104911327362, -0.2313048541545868, 0.1604737490415573, 0.13118049502372742, -0.13877339661121368, 0.18613746762275696, 0.05039067938923836, -0.39255490899086, -0.0551176480948925, 0.12252391874790192, -0.04033255577087402, 0.09768630564212799,},
    { 0.04502634331583977, 0.1122291088104248, 0.13734276592731476, -0.09920471161603928, 0.1671808958053589, 0.062403835356235504, 0.03257376328110695, 0.12713098526000977, 0.09738194942474365, -0.1184648647904396, 0.14033670723438263, 0.21619682013988495, -0.20389290153980255, -0.0019127180567011237, -0.12858569622039795, -0.2767132818698883, -0.1297808289527893, 0.02178773283958435, -0.1272437572479248, 0.040259573608636856,},
    { 0.09241192787885666, 0.20394504070281982, -0.06965384632349014, -0.10822311788797379, 0.07236766815185547, 0.13353103399276733, -0.04407515376806259, 0.15567335486412048, -0.01981823891401291, -0.28832224011421204, 0.12231383472681046, 0.15203958749771118, -0.2513960897922516, -0.012201943434774876, -0.21238476037979126, -0.2590245008468628, -0.09455077350139618, 0.19020552933216095, -0.28400444984436035, 0.070436492562294,},
    { 0.09296102076768875, 0.21874570846557617, -0.056054968386888504, -0.21875151991844177, 0.0979190394282341, -0.06399133056402206, -0.15875913202762604, -0.01868981309235096, -0.12805737555027008, -0.24389035999774933, 0.21738915145397186, 0.21538275480270386, -0.17465569078922272, 0.05293899029493332, -0.17732422053813934, -0.20962753891944885, 0.02501167729496956, 0.08075732737779617, -0.2719893157482147, -0.06973125785589218,},
    { 0.021715207025408745, 0.19990916550159454, -0.07002082467079163, -0.20712202787399292, 0.17335523664951324, 0.11496644467115402, -0.25279831886291504, 0.0732269212603569, 0.014089967124164104, -0.23203669488430023, 0.1495084911584854, 0.13925647735595703, -0.08488261699676514, 0.025085682049393654, -0.1436339020729065, -0.2097546011209488, -0.07720108330249786, 0.15077146887779236, -0.2754676938056946, -0.0897311270236969,},
    { -0.06469527631998062, 0.0950511246919632, -0.14709369838237762, -0.2607300579547882, 0.0917760506272316, 0.1119871512055397, -0.23440095782279968, 0.1486106812953949, -0.027917100116610527, -0.13872486352920532, 0.15149012207984924, 0.06450450420379639, 0.0008234225679188967, 0.027512308210134506, -0.2816079556941986, -0.04878750815987587, -0.08984685689210892, 0.02509971335530281, -0.3427385091781616, 0.0021003650035709143,},
    { 0.06907397508621216, 0.008381832391023636, -0.16767817735671997, -0.2769274115562439, 0.06988944113254547, -0.04249003157019615, -0.3536761403083801, 0.049247436225414276, -0.08468928933143616, -0.10468042641878128, 0.258888304233551, 0.14864400029182434, 0.07669718563556671, -0.011186204850673676, 0.06896811723709106, -0.1591571718454361, -0.1281384378671646, 0.09964614361524582, -0.1985136717557907, 0.017145361751317978,},
    { -0.02182704024016857, 0.17849723994731903, -0.20087528228759766, -0.060739338397979736, 0.1339142769575119, -0.11339487880468369, -0.3427731692790985, 0.08892186731100082, -0.15088234841823578, -0.15017208456993103, 0.2739217281341553, -0.04678397253155708, -0.07603240758180618, 0.04262153431773186, 0.11406106501817703, -0.12274065613746643, -0.05438151955604553, -0.06933773308992386, 0.06863951683044434, 0.038523051887750626,},
    { 0.14678815007209778, 0.17709781229496002, 0.15115471184253693, 0.03198716416954994, -0.13966789841651917, -0.21252065896987915, -0.1287969946861267, -0.07934705168008804, -0.061616234481334686, -0.06226038932800293, 0.09815337508916855, 0.07591644674539566, -0.03483333811163902, 0.2380824238061905, 0.06670605391263962, 0.15622511506080627, 0.09368522465229034, -0.1224001795053482, -0.10544747859239578, 0.05382714048027992,},
    { 0.06976276636123657, 0.13764607906341553, 0.022478962317109108, 0.060994718223810196, 0.12083360552787781, -0.03041175566613674, -0.14459829032421112, 0.034833166748285294, 0.07174268364906311, -0.09405221045017242, 0.012442253530025482, 0.05334297567605972, -0.07475556433200836, -0.05871455371379852, -0.03560146316885948, 0.0035620087292045355, 0.040104858577251434, -0.11705285310745239, -0.02893087826669216, -0.05436383932828903,},
    { -0.0761498361825943, -0.08020956069231033, -0.041553840041160583, 0.009856246411800385, 0.04839169979095459, -0.015207819640636444, 0.08135963976383209, -0.032985251396894455, -0.074705570936203, 0.06035195291042328, -0.014210529625415802, -0.015556536614894867, -0.05729786306619644, 0.01142025738954544, 0.08014976978302002, -0.06267506629228592, -0.061696186661720276, -0.015594616532325745, 0.07241342961788177, 0.011700324714183807,},
    { -0.08090291172266006, -0.004064872860908508, -0.02771202102303505, 0.007001690566539764, -0.0027364343404769897, 0.08281739056110382, -0.05487780645489693, 0.027717046439647675, -0.0514037162065506, -0.027761470526456833, -0.07526137679815292, -0.011295877397060394, -0.026200566440820694, 0.048364728689193726, 0.027706868946552277, 0.024604052305221558, -0.016789034008979797, -0.05827103555202484, -0.02728615328669548, -0.04930683597922325,},
    { 0.06950560212135315, 0.11460889875888824, 0.00123532023280859, -0.05646388232707977, -0.011391951702535152, -0.059438902884721756, 0.1144915223121643, 0.004641384351998568, 0.1569221466779709, -0.061968255788087845, -0.1685677468776703, -0.10552974045276642, -0.08867994695901871, 0.007170908618718386, -0.04942790046334267, 0.033048901706933975, 0.045982152223587036, 0.1983952522277832, 0.021496117115020752, 0.007208741270005703,},
    { 0.02741856686770916, 0.025783250108361244, 0.0519750751554966, 0.12399683892726898, 0.017222728580236435, -0.10327505320310593, 0.11867973953485489, -0.020103545859456062, -0.002629926661029458, 0.01353897713124752, -0.06810641288757324, 0.04108218848705292, -0.0824124738574028, 0.16675466299057007, -0.046166256070137024, 0.08425760269165039, 0.01808219589293003, -0.051098357886075974, 0.23614412546157837, -0.08751111477613449,},
    { 0.20366351306438446, -0.06736432015895844, 0.0056137931533157825, 0.17492161691188812, 0.05823026970028877, 0.1576114147901535, 0.034498464316129684, -0.11677951365709305, 0.21898674964904785, 0.07684852927923203, -0.17848855257034302, -0.029667949303984642, 0.07219930738210678, 0.12358002364635468, -0.04752146452665329, -0.23982174694538116, -0.16138839721679688, 0.0768859013915062, 0.22460833191871643, -0.24999122321605682,},
    { 0.1256616711616516, -0.18001015484333038, 0.057975124567747116, 0.11085935682058334, 0.08035935461521149, 0.18486584722995758, 0.012590289115905762, -0.09498805552721024, 0.10792018473148346, 0.17909729480743408, -0.17775946855545044, 0.08622284978628159, 0.028435323387384415, 0.1761244535446167, 0.0199366956949234, -0.3692108988761902, -0.17915892601013184, 0.15586651861667633, 0.4089193642139435, -0.034760527312755585,},
    { 0.23656333982944489, -0.17998091876506805, -0.04318371042609215, 0.15459036827087402, 0.09169875830411911, 0.16670051217079163, -0.04499383643269539, -0.021272752434015274, 0.12119341641664505, -0.05689334124326706, -0.046549368649721146, -0.00836797896772623, -0.06855412572622299, 0.056570492684841156, 0.0565287247300148, -0.29878944158554077, -0.19116812944412231, 0.05850721895694733, 0.29532527923583984, -0.06802691519260406,},
    { 0.14020001888275146, -0.1846909075975418, -0.04297678545117378, 0.2324797660112381, -0.06719669699668884, 0.1869083046913147, -0.022451333701610565, 0.08070448040962219, 0.04491296783089638, -0.022251052781939507, -0.1312231868505478, 0.03733006492257118, -0.07469804584980011, 0.15094706416130066, 0.0845446065068245, -0.3323316276073456, -0.1375768482685089, -0.06069767847657204, 0.22546271979808807, 0.09616405516862869,},
    { 0.14148174226284027, -0.07429596781730652, -0.08407457917928696, 0.18238011002540588, 0.11931005865335464, 0.16121229529380798, -0.08782459795475006, 0.19494250416755676, 0.03558334708213806, 0.04233244061470032, -0.015034628100693226, -0.08324071019887924, -0.19047066569328308, 0.18970321118831635, 0.1497819721698761, -0.2452079802751541, -0.11941873282194138, -0.03585138916969299, 0.21422533690929413, 0.19611750543117523,},
    { 0.06925155222415924, 0.1086316853761673, -0.02733010984957218, 0.037056852132081985, 0.055795956403017044, 0.01234154962003231, -0.013662722893059254, 0.21773478388786316, -0.025089457631111145, -0.16071271896362305, -0.049264680594205856, -0.03738606721162796, -0.10079959034919739, 0.2594626247882843, 0.12442225962877274, -0.3484690189361572, -0.09574487060308456, -0.16712240874767303, 0.09987812489271164, 0.1646149903535843,},
    { -0.07612009346485138, 0.09450016170740128, -0.0861445963382721, 0.025608625262975693, 0.15897607803344727, -0.10120535641908646, 0.07854532450437546, 0.15507660806179047, -0.06146515905857086, -0.21138210594654083, -0.01031241100281477, -0.08724652975797653, -0.04008055105805397, 0.3747226595878601, 0.05121777579188347, -0.2550288438796997, 0.06223304569721222, -0.055002499371767044, 0.16888761520385742, 0.08228863030672073,},
    { 0.16199226677417755, 0.16933125257492065, 0.08810970932245255, 0.026566118001937866, 0.018994024023413658, -0.15782184898853302, -0.021928103640675545, 0.0019252155907452106, -0.19953599572181702, -0.21854034066200256, 0.12795346975326538, -0.06352350860834122, 0.08204907923936844, 0.22457857429981232, 0.16487011313438416, -0.09485278278589249, 0.24041792750358582, -0.06719239056110382, 0.04986848682165146, 0.03711538389325142,},
    { 0.13124991953372955, 0.27983880043029785, -0.014741563238203526, 0.01058308593928814, 0.058355361223220825, -0.10858806222677231, 0.081721231341362, 0.02726026624441147, -0.19895265996456146, -0.23437756299972534, 0.057258326560258865, -0.0945473238825798, 0.061342671513557434, 0.1940990388393402, 0.0020542230922728777, -0.10573094338178635, 0.14789457619190216, -0.06483616679906845, 0.06556432694196701, 0.050973039120435715,},
    { 0.06669234484434128, 0.18279016017913818, 0.16763979196548462, 0.17336811125278473, 0.02198168821632862, -0.11245834082365036, 0.10338333249092102, 0.05304410681128502, -0.22105854749679565, -0.41280409693717957, 0.09021086990833282, -0.06679999828338623, 0.14438259601593018, 0.13996076583862305, -0.011951210908591747, -0.10620813071727753, 0.29483047127723694, -0.051971741020679474, -0.032233547419309616, 0.008227827027440071,},
    { 0.0587674044072628, 0.18513619899749756, 0.06645970046520233, 0.16792482137680054, -0.056896671652793884, -0.08070925623178482, 0.13171091675758362, 0.18125231564044952, -0.21111296117305756, -0.2962452471256256, 0.022461064159870148, -0.010663220658898354, 0.12233830988407135, 0.15129932761192322, 0.006542611867189407, -0.15085923671722412, 0.31613126397132874, -0.14609624445438385, 0.09200862795114517, -0.17631787061691284,},
    { 0.026146521791815758, 0.14922425150871277, 0.20972909033298492, 0.13952872157096863, 0.025009559467434883, -0.038945842534303665, 0.15215331315994263, 0.1478412002325058, -0.11623723804950714, -0.2080068439245224, -0.00751136289909482, -0.07281617820262909, 0.13864387571811676, 0.08413106948137283, -0.09676327556371689, -0.22728890180587769, 0.2327691614627838, 0.00989196915179491, 0.0665230005979538, -0.327667772769928,},
    { 0.09368044883012772, 0.22016428411006927, 0.18467523157596588, 0.2468017190694809, -0.10568992048501968, 0.10861677676439285, 0.207449272274971, 0.16986136138439178, -0.047100383788347244, -0.2516337037086487, 0.06798943132162094, 0.006961488630622625, -0.09922730922698975, 0.15823689103126526, -0.12058774381875992, -0.19096045196056366, 0.12038692086935043, 0.024164868518710136, -0.03231644257903099, -0.34141212701797485,},
    { 0.07962203770875931, 0.2967990040779114, 0.11424332857131958, 0.04582550749182701, -0.1123172789812088, 0.09030397981405258, 0.10794204473495483, 0.2793191969394684, -0.02504427172243595, -0.369760125875473, 0.17930302023887634, 0.14053508639335632, -0.09045934677124023, 0.11727128177881241, 0.05572034791111946, -0.1852995902299881, 0.19479191303253174, -0.09049109369516373, -0.06857998669147491, -0.1952068954706192,},
    { -0.07874713838100433, 0.2651975750923157, 0.05173046514391899, 0.04817597568035126, 0.015287586487829685, 0.13105657696723938, 0.13105222582817078, 0.25306063890457153, -0.12998415529727936, -0.34682124853134155, 0.199842631816864, 0.23801715672016144, 0.05913129821419716, 0.13253775238990784, 0.0014679939486086369, -0.23214979469776154, 0.0925687775015831, -0.04809306561946869, -0.09720215201377869, -0.32707053422927856,},
    { 0.056608784943819046, 0.26569730043411255, 0.10084795951843262, -0.01315811276435852, 0.19939187169075012, 0.08848757296800613, -0.007189230527728796, 0.12389037758111954, -0.0625191479921341, -0.24982866644859314, 0.07340796291828156, 0.27121227979660034, -0.0014707561349496245, 0.09333091974258423, -0.19710199534893036, -0.14659236371517181, 0.035306062549352646, 0.03662769868969917, -0.073527492582798, -0.23038247227668762,},
    { 0.07437124103307724, 0.3831738233566284, 0.1549280285835266, -0.07833998650312424, 0.03536669909954071, 0.057357851415872574, -0.1428467333316803, 0.15606126189231873, -0.011465334333479404, -0.23614250123500824, 0.18734562397003174, 0.15911276638507843, -0.04914366081357002, 0.05580705404281616, -0.1253269463777542, -0.025338606908917427, -0.06891144812107086, 0.02263830602169037, -0.29483532905578613, -0.26736006140708923,},
    { 0.18963851034641266, 0.43816059827804565, 0.07610335946083069, -0.06788204610347748, -0.04463156312704086, 0.021579261869192123, 0.01429731585085392, 0.05070827901363373, 0.07840994000434875, -0.15389256179332733, 0.16229330003261566, 0.06645181775093079, -0.12146765738725662, 0.04675886034965515, -0.14825208485126495, 0.015951981768012047, -0.059557463973760605, 0.034874096512794495, -0.30975744128227234, -0.25828367471694946,},
    { 0.14350943267345428, 0.29299095273017883, 0.09174051880836487, -0.009488742798566818, -0.04371325299143791, -0.047974810004234314, 0.019957199692726135, 0.1170039102435112, 0.00925376731902361, -0.04577677324414253, 0.11357171833515167, 0.17646503448486328, -0.06658371537923813, -0.059267524629831314, -0.14430765807628632, -0.004985691513866186, -0.06891774386167526, 0.053346194326877594, -0.2922057509422302, -0.29043328762054443,},
    { 0.0418994314968586, 0.2601478099822998, -0.05124124139547348, -0.14570067822933197, 0.06079297512769699, 0.123075932264328, -0.09756551682949066, 0.11693933606147766, 0.04232822731137276, 0.09337551891803741, 0.2524007558822632, 0.15093810856342316, -0.13413195312023163, -0.01632748730480671, -0.26270148158073425, -0.0030412026681005955, -0.17810526490211487, 0.10633232444524765, -0.2842782437801361, -0.31302887201309204,},
    { 0.058535341173410416, 0.15213161706924438, -0.1142912358045578, -0.14743246138095856, 0.11486627161502838, 0.00651048356667161, -0.1342494636774063, 0.09250162541866302, 0.13303060829639435, 0.04132396727800369, 0.20688432455062866, -0.02269124798476696, -0.0697496309876442, -0.09039634466171265, -0.05101681128144264, -0.12620240449905396, -0.18041236698627472, 0.1386510580778122, -0.3467302620410919, -0.3089939057826996,},
    { 0.13848747313022614, 0.2555917501449585, -0.09075314551591873, -0.11756367981433868, -0.023439284414052963, -0.16952082514762878, -0.11258585005998611, 0.07981923967599869, -0.10244589298963547, -0.007026737555861473, 0.2764279842376709, 0.11691638827323914, -0.23908117413520813, 0.16843703389167786, 0.06706671416759491, 0.01818143203854561, -0.012844356708228588, 0.06441539525985718, -0.11256039887666702, -0.1553391069173813,},
    { 0.01247509103268385, 0.3483279347419739, 0.032712679356336594, -0.06559789925813675, -0.04852743074297905, -0.20604661107063293, -0.1701885461807251, -0.03791016712784767, 0.005119698122143745, -0.13085687160491943, 0.08831655979156494, 0.09031110256910324, -0.18551790714263916, 0.13290947675704956, 0.032270029187202454, 0.08332162350416183, 0.03334933891892433, 0.05827367305755615, -0.18045319616794586, -0.04495507851243019,},
    { 0.0839962512254715, 0.07031857222318649, -0.07808830589056015, -0.14213857054710388, 0.0736326351761818, -0.19835801422595978, -0.09346075356006622, 0.1431402564048767, -0.03671747073531151, -0.09184836596250534, 0.15890415012836456, 0.058403756469488144, -0.0753403753042221, -0.02313452959060669, -0.0074347094632685184, -0.0014060906833037734, 0.022134270519018173, 0.0028251991607248783, -0.047240883111953735, -0.000852869707159698,},
    { 0.08340978622436523, 0.06530389189720154, 0.05402734875679016, -0.06997385621070862, 0.0057524219155311584, 0.007721073925495148, -0.004496939480304718, -0.02556828036904335, -0.024727586656808853, 0.06901867687702179, -0.0650850310921669, -0.0075287893414497375, 0.03925037384033203, 0.06721028685569763, -0.04166293889284134, -0.041692718863487244, -0.004026830196380615, 0.006519243121147156, -0.060363076627254486, 0.027973487973213196,},
    { -0.018458444625139236, -0.09104812890291214, -0.0460733138024807, 0.0886678621172905, 0.14903832972049713, -0.09844895452260971, -0.055137526243925095, -0.007675385568290949, -0.012365360744297504, -0.10051721334457397, -0.1247486025094986, 0.021910008043050766, 0.0043967897072434425, 0.039724886417388916, 0.04841446876525879, 0.003925183787941933, -0.0785948783159256, 0.0004083898675162345, -0.01639592833817005, 0.0005323798395693302,},
    { 0.06028883531689644, -0.10245858132839203, -0.1140923872590065, 0.022463222965598106, 0.057461779564619064, 0.05643566697835922, -0.11450961977243423, -0.10228919237852097, -0.07856826484203339, -0.11871172487735748, -0.00165036681573838, 0.23247802257537842, -0.12571236491203308, 0.17294397950172424, 0.023879673331975937, 0.005047522485256195, -0.12482421845197678, 0.1433115452528, -0.06198839098215103, 0.09570657461881638,},
    { -0.005525454878807068, -0.12125800549983978, 0.0055758594535291195, 0.1276487559080124, -0.10054846853017807, 0.01889423467218876, 0.12394788861274719, -0.05437323823571205, 0.13864822685718536, -0.025529827922582626, -0.07463851571083069, 0.11747528612613678, -0.039431650191545486, 0.12351997196674347, -0.126465305685997, -0.16710340976715088, -0.02056078612804413, 0.0837908387184143, 0.3537125289440155, -0.08397003263235092,},
    { 0.2559850811958313, -0.11431286484003067, 0.0789899155497551, 0.034768689423799515, 0.003963309805840254, -0.029925746843218803, 0.16335225105285645, -0.04157615080475807, 0.02299368754029274, 0.09700631350278854, -0.20235051214694977, 0.009936884045600891, -0.04496606066823006, 0.07789377868175507, -0.09409620612859726, -0.08497010171413422, 0.006791084073483944, 0.12633110582828522, 0.24084042012691498, -0.1266937553882599,},
    { 0.09306667745113373, -0.21494658291339874, 0.052594903856515884, 0.1493709683418274, 0.07980036735534668, 0.05090825632214546, 0.014975551515817642, -0.020095834508538246, -0.023616664111614227, 0.04277073219418526, -0.09020151197910309, 0.1940617710351944, -0.10612387210130692, 0.3022063374519348, 0.15167614817619324, -0.3092478811740875, -0.03285401314496994, 0.04107087850570679, 0.18834659457206726, 0.08058375865221024,},
    { 0.10788434743881226, -0.16678306460380554, -0.07340434193611145, 0.15868979692459106, 0.01390128955245018, 0.07516694813966751, 0.00728302076458931, -0.11412182450294495, 0.03855717554688454, -0.12691235542297363, -0.08211547136306763, 0.11066597700119019, -0.16451537609100342, 0.2247474491596222, -0.002389589324593544, -0.3100607693195343, 0.05531875789165497, 0.03209186717867851, 0.19085413217544556, 0.10412094742059708,},
    { 0.057634007185697556, -0.07235687971115112, -0.17993837594985962, 0.15091145038604736, 0.06061248481273651, 0.02129783108830452, -0.036251019686460495, -0.044802431017160416, -0.10661786049604416, -0.0583857037127018, -0.0016150993760675192, 0.0664256140589714, -0.2874522805213928, 0.2111840546131134, 0.21899038553237915, -0.3388086259365082, 0.05542401596903801, -0.0988641232252121, 0.12816700339317322, 0.13547757267951965,},
    { 0.07749330252408981, -0.05045793205499649, -0.16048581898212433, 0.20659774541854858, 0.0800497904419899, 0.000578546489123255, 0.0120103619992733, -0.032787248492240906, -0.2579469382762909, -0.10353720933198929, -0.06993506848812103, 0.036693084985017776, -0.07374989986419678, 0.3331683278083801, 0.25627797842025757, -0.28485846519470215, -0.008057454600930214, 0.02646047994494438, 0.17313127219676971, 0.03881484642624855,},
    { 0.042894452810287476, -0.03996472433209419, -0.19911213219165802, 0.13676407933235168, -0.019580328837037086, 0.012934808619320393, -0.024385550990700722, 0.011682718060910702, -0.237212136387825, -0.1781182587146759, 0.05881824344396591, -0.08601759374141693, -0.24518024921417236, 0.254671186208725, 0.13012629747390747, -0.28819870948791504, -0.03371071815490723, -0.11923784017562866, 0.1677156686782837, 0.09147438406944275,},
    { 0.03757881373167038, 0.07787137478590012, -0.09063123166561127, 0.049331407994031906, 0.021794922649860382, -0.029675841331481934, 0.038928572088479996, -0.02257738634943962, -0.12672941386699677, -0.02484120987355709, 0.07193803787231445, -0.09075397998094559, -0.055587708950042725, 0.28995153307914734, 0.2215700000524521, -0.18072722852230072, 0.03663065657019615, -0.0854470357298851, 0.05470342934131622, 0.14601507782936096,},
    { 0.06471956521272659, 0.10166845470666885, -0.05158814787864685, 0.03624456748366356, -0.06052350997924805, -0.09473718702793121, 0.11064357310533524, -0.15359951555728912, -0.09854722023010254, -0.21661026775836945, -0.001786978100426495, -0.1356385201215744, 0.016596566885709763, 0.24939994513988495, 0.16972634196281433, -0.025703098624944687, 0.13147304952144623, -0.006328175310045481, -0.01945037767291069, 0.24215418100357056,},
    { 0.1432446837425232, 0.12384600937366486, 0.039425428956747055, 0.009117920882999897, -0.07278034836053848, -0.08708549290895462, 0.1706361025571823, -0.1362069845199585, -0.258274108171463, -0.21098867058753967, 0.18363864719867706, -0.15101027488708496, 0.15313833951950073, 0.3085588216781616, 0.14283117651939392, -0.03387816250324249, 0.2909068465232849, 0.04438534006476402, 0.10007216036319733, 0.20621159672737122,},
    { -0.027002671733498573, 0.034486692398786545, 0.023703433573246002, 0.06852373480796814, -0.024319682270288467, 0.002402261132374406, 0.024569110944867134, -0.0899648666381836, -0.13803979754447937, -0.42510196566581726, 0.06150970607995987, -0.059470951557159424, 0.3722307085990906, 0.30633309483528137, 0.11436093598604202, 0.16699707508087158, 0.21275480091571808, 0.06517365574836731, 0.08541563898324966, 0.13773633539676666,},
    { 0.0395054928958416, 0.09787525981664658, 0.09051299095153809, 0.02252892777323723, 0.06258779764175415, -0.11414145678281784, 0.12406983226537704, 0.006313921418040991, -0.09440692514181137, -0.38573214411735535, 0.06341591477394104, -0.15864555537700653, 0.3782675266265869, 0.36077576875686646, 0.04315868392586708, 0.2112482190132141, 0.2927164137363434, 0.10791366547346115, 0.1350889503955841, 0.19860754907131195,},
    { 0.05641384422779083, 0.008588366210460663, 0.20395387709140778, 0.12312254309654236, 0.0019754418171942234, 0.006491055712103844, 0.1784963607788086, -0.002821926260367036, -0.05343703180551529, -0.48469555377960205, 0.09689823538064957, -0.0686129629611969, 0.32629942893981934, 0.310417503118515, 0.15822970867156982, 0.19443166255950928, 0.25547146797180176, 0.02883383445441723, 0.13033142685890198, 0.004826901946216822,},
    { 0.11648060381412506, -0.01859341934323311, 0.14538070559501648, 0.05488751083612442, 0.003907027188688517, 0.07566714286804199, 0.1548141986131668, -0.00922996923327446, -0.0531989224255085, -0.5589099526405334, 0.1113448515534401, -0.12704187631607056, 0.3555518686771393, 0.2633190453052521, 0.09294851124286652, 0.2698955833911896, 0.20480836927890778, 0.08874616026878357, 0.3049379289150238, 0.11867684870958328,},
    { 0.0737432986497879, -0.15002572536468506, 0.009885994717478752, 0.05416698753833771, 0.05334379896521568, 0.08329713344573975, 0.043454430997371674, -0.022417914122343063, -0.14244596660137177, -0.4000941812992096, 0.2326008528470993, -0.0006708116852678359, 0.3348400294780731, 0.17909836769104004, 0.09086791425943375, 0.26683345437049866, 0.22959928214550018, 0.007354306057095528, 0.11812275648117065, 0.023977823555469513,},
    { -0.027879521250724792, -0.06929010152816772, 0.14243805408477783, -0.016858655959367752, 0.061225246638059616, 0.07267206162214279, 0.0984978899359703, 0.10985881835222244, -0.2071780115365982, -0.20584970712661743, 0.11872586607933044, 0.10010197758674622, 0.16447566449642181, 0.2544059753417969, 0.06246008723974228, 0.08855276554822922, 0.09123579412698746, 0.14537811279296875, 0.07838594913482666, -0.09716688841581345,},
    { 0.03939173370599747, 0.05534560605883598, 0.14117884635925293, -0.013123005628585815, -0.04359884187579155, 0.027785884216427803, 0.13637611269950867, 0.0987698957324028, -0.19865800440311432, -0.09965819865465164, 0.2342022806406021, 0.102532759308815, -0.020341722294688225, 0.07711321115493774, -0.12142954021692276, 0.20190997421741486, 0.10212837904691696, 0.02742268517613411, -0.14355449378490448, -0.09940540045499802,},
    { 0.20251527428627014, 0.1567615419626236, 0.11716243624687195, -0.06256464123725891, 0.11632637679576874, -0.09157882630825043, -0.0552007257938385, -0.0004080135840922594, -0.11793508380651474, -0.07737837731838226, 0.2749902307987213, 0.1046910211443901, -0.08571065217256546, 0.1057671532034874, -0.02406661957502365, 0.15408113598823547, 0.04315006732940674, 0.013827444054186344, -0.13201062381267548, -0.1339808851480484,},
    { 0.14282311499118805, 0.13296200335025787, 0.1612493246793747, -0.029550109058618546, 0.15649443864822388, 0.03199288249015808, -0.07208459079265594, 0.14838223159313202, -0.11505293101072311, -0.06692353636026382, 0.2020241916179657, 0.1326848566532135, -0.09662730991840363, 0.14681392908096313, -0.22405804693698883, 0.0011713893618434668, 0.01934981718659401, 0.074684739112854, -0.17791709303855896, -0.18185095489025116,},
    { 0.05850288271903992, 0.12575320899486542, 0.0005177310085855424, 0.029169276356697083, 0.19273047149181366, -0.006667859852313995, -0.061634037643671036, 0.1939583420753479, -0.058538299053907394, 0.011013077571988106, 0.21873730421066284, 0.1600547879934311, -0.15440063178539276, 0.07951012998819351, -0.23326614499092102, -0.009259818121790886, -0.06897620111703873, -0.008771083317697048, -0.25929805636405945, -0.11527923494577408,},
    { 0.11582966148853302, 0.2824453115463257, 0.06888093054294586, -0.02768363617360592, 0.0589316189289093, 0.02382213994860649, -0.14823465049266815, 0.13521966338157654, -0.09459979087114334, 0.10669649392366409, 0.20435261726379395, 0.17461158335208893, -0.016231553629040718, -0.035358089953660965, -0.07994336634874344, -0.08254977315664291, -0.05914632976055145, -0.11421868205070496, -0.2958701550960541, -0.4530121684074402,},
    { 0.19351884722709656, 0.45781925320625305, -0.051839679479599, -0.1872103065252304, 0.03169219195842743, -0.04038635641336441, -0.2331973761320114, 0.10760814696550369, 0.07284598052501678, 0.14043022692203522, 0.2428749054670334, 0.06360843777656555, -0.2765645384788513, 0.04529283568263054, 0.05148015543818474, -0.15476468205451965, -0.18258368968963623, 0.04101285710930824, -0.36379748582839966, -0.37908294796943665,},
    { 0.16259923577308655, 0.5232377052307129, -0.03677355870604515, -0.2591989040374756, -0.09624382853507996, -0.2320457547903061, -0.5372307896614075, 0.03941449895501137, 0.0583164282143116, -0.06631460785865784, 0.2600099444389343, 0.005213735159486532, -0.4083390235900879, 0.05893561616539955, 0.09971179813146591, -0.12138385325670242, 0.008177760057151318, 0.17447766661643982, -0.17831799387931824, -0.08105455338954926,},
    { 0.10194408148527145, 0.2193644791841507, -0.13100837171077728, -0.12076098471879959, -0.1472134292125702, -0.30863213539123535, -0.2282944917678833, -0.06358969211578369, -0.03487158566713333, 0.13467633724212646, 0.24062184989452362, 0.02972419559955597, -0.12049282342195511, -0.011910459958016872, 0.27989113330841064, 0.051803309470415115, -0.06432832777500153, 0.14234209060668945, 0.023604361340403557, -0.10953005403280258,},
    { -0.014580639079213142, 0.16052335500717163, -0.10487624257802963, -0.19375206530094147, -0.06354713439941406, -0.16098015010356903, -0.1144360601902008, 0.026187406852841377, -0.024168260395526886, 0.051276057958602905, 0.041977040469646454, 0.0972621887922287, -0.05805400013923645, 0.15612298250198364, 0.00887697096914053, 0.027650699019432068, -0.055308181792497635, 0.06013652682304382, -0.06635397672653198, 0.014668936841189861,},
    { 0.016326848417520523, -0.054513365030288696, -0.04117438197135925, 0.06066321209073067, -0.07242745906114578, 0.04561391472816467, 0.018271472305059433, 0.07705187797546387, 0.0418461412191391, -0.04539530351758003, 0.046552255749702454, 0.09815489500761032, -0.07398395985364914, 0.09550853818655014, -0.029499957337975502, 0.03749707341194153, -0.016608182340860367, -0.03846824914216995, -0.05449250340461731, -0.033491164445877075,},
    { -0.047815002501010895, -0.14436155557632446, -0.06843288987874985, 0.04017161205410957, 0.10347411781549454, -0.013953326269984245, 0.05833341181278229, -0.14434772729873657, 0.010567096062004566, -0.050447165966033936, -0.005146239418536425, 0.09507319331169128, -0.03799280524253845, 0.07759572565555573, 0.019096294417977333, -0.15550611913204193, -0.1507798135280609, 0.04831941798329353, 0.1650540679693222, 0.1286894530057907,},
    { -0.12407921254634857, -0.06553191691637039, -0.1754022091627121, 0.026848571375012398, -0.1606244146823883, 0.04141456261277199, 0.024560580030083656, -0.020935460925102234, 0.03631436824798584, 0.12508045136928558, 0.058685190975666046, 0.2621520459651947, -0.08849766105413437, 0.1995551884174347, -0.049994684755802155, -0.021205484867095947, 0.055583156645298004, 0.026362834498286247, 0.11231482774019241, 0.06817956268787384,},
    { -0.10140015184879303, -0.09779348224401474, -0.0017178509151563048, 0.09538699686527252, 0.12392011284828186, 0.14435863494873047, 0.005713828839361668, -0.06466209143400192, 0.11190220713615417, -0.046663593500852585, 0.00847817212343216, 0.17957715690135956, -0.053883690387010574, 0.12779244780540466, -0.005699243396520615, -0.19905582070350647, -0.09718669950962067, 0.12129108607769012, 0.2666209042072296, 0.029116937890648842,},
    { 0.16051903367042542, -0.1967204213142395, -0.056047406047582626, 0.2826991677284241, -0.015994174405932426, 0.06251495331525803, 0.16282030940055847, 0.01851206086575985, 0.026229774579405785, -0.01897224225103855, -0.15197312831878662, -0.04914971441030502, -0.08405493944883347, -0.030921511352062225, 0.12702298164367676, -0.27530595660209656, -0.04904058203101158, 0.0030838558450341225, 0.3257748782634735, -0.14183403551578522,},
    { 0.12899187207221985, -0.11903373897075653, 0.006398341618478298, 0.33418402075767517, 0.019198549911379814, -0.03792564943432808, 0.014543604105710983, -0.09304112941026688, 0.02637317404150963, 0.08563182502985, -0.10083865374326706, 0.1932324469089508, -0.05582595616579056, 0.18888412415981293, 0.058976270258426666, -0.30197229981422424, 0.01938515342772007, -0.16058963537216187, 0.20667153596878052, -0.07318311184644699,},
    { 0.02779175341129303, -0.018187688663601875, -0.05646141618490219, 0.2521074116230011, 0.021087191998958588, 0.03734130039811134, -0.006403469946235418, -0.14715556800365448, -0.03645378723740578, -0.09390635788440704, -0.09405479580163956, 0.08471492677927017, -0.18346820771694183, 0.19244985282421112, 0.18350671231746674, -0.3556915521621704, -0.013262697495520115, 0.0063166068866848946, 0.2597848176956177, -0.023587899282574654,},
    { 0.1620165854692459, -0.01743239536881447, -0.03991251438856125, 0.2747366428375244, -0.11921799182891846, -0.07918936014175415, 0.11314082145690918, -0.0552104189991951, -0.14135584235191345, -0.015103017911314964, -0.03334476053714752, 0.04279547557234764, -0.2909296452999115, 0.14026573300361633, 0.16616275906562805, -0.17346875369548798, 0.017966968938708305, -0.05807129293680191, -0.01425369456410408, 0.06646349281072617,},
    { 0.0964929386973381, -0.022293956950306892, -0.14787723124027252, 0.10928868502378464, -0.02375694364309311, -0.04452548176050186, 0.09365774691104889, -0.04021075367927551, -0.1543484330177307, -0.11791455000638962, 0.06000901758670807, 0.0956757441163063, -0.06853147596120834, 0.32943227887153625, 0.29042357206344604, -0.3165125548839569, -0.015247071161866188, -0.05071204900741577, 0.11250292509794235, 0.09900497645139694,},
    { 0.027864323928952217, 0.0431368388235569, -0.14829792082309723, 0.12432745844125748, 0.09759092330932617, 0.07000547647476196, 0.07243805378675461, -0.20205897092819214, -0.14587897062301636, -0.01779024489223957, 0.05081483721733093, -0.04795777425169945, -0.1294202208518982, 0.2118862271308899, 0.24253948032855988, -0.27559611201286316, 0.05524985492229462, -0.05590277165174484, 0.015283644199371338, 0.1538645476102829,},
    { -0.013696536421775818, 0.10245683789253235, -0.019949771463871002, 0.10055002570152283, -0.015768876299262047, -0.05020822957158089, 0.0520944707095623, -0.14703981578350067, -0.17454572021961212, -0.13018999993801117, 0.17178088426589966, 0.04300055280327797, -0.003930213861167431, 0.27508288621902466, 0.22333137691020966, -0.10417673736810684, 0.14710964262485504, 0.013286995701491833, 0.04159922152757645, 0.1537824124097824,},
    { -0.06791426986455917, 0.10114637017250061, -0.19197148084640503, 0.030446669086813927, -0.04620392248034477, 0.0057863518595695496, 0.1468399316072464, -0.21611227095127106, -0.08962365239858627, -0.11063651740550995, 0.2411767691373825, 0.11182010918855667, -0.02540421299636364, 0.19764602184295654, 0.12225428968667984, 0.06171880662441254, 0.2153325229883194, 0.025404103100299835, 0.04242826998233795, 0.17825105786323547,},
    { 0.04403024539351463, 0.029330233111977577, 0.0072534410282969475, -0.024721698835492134, -0.05619429796934128, 0.04479677975177765, 0.16131405532360077, -0.18093645572662354, -0.1985207051038742, -0.2942524254322052, 0.058862488716840744, 0.04494617134332657, 0.1679178923368454, 0.3492143452167511, 0.030788131058216095, 0.19761234521865845, 0.15419356524944305, 0.1644216626882553, 0.07257016003131866, 0.20491120219230652,},
    { -0.06380534917116165, -0.04477180540561676, 0.06494219601154327, -0.07758954167366028, -0.07371306419372559, -0.045532889664173126, 0.25815778970718384, -0.2270074039697647, -0.13376067578792572, -0.3278452157974243, 0.18475480377674103, -0.024715537205338478, 0.260851114988327, 0.3078196346759796, 0.09868726134300232, 0.25074881315231323, 0.2121582180261612, 0.08370484411716461, 0.14124269783496857, 0.31509047746658325,},
    { -0.05117384344339371, 0.060486823320388794, 0.13987870514392853, -0.13095009326934814, -0.022186635062098503, -0.010159317404031754, 0.29701748490333557, -0.1687368005514145, 0.003926665987819433, -0.4882870316505432, -0.07559744268655777, -0.06787381321191788, 0.4228799641132355, 0.38385525345802307, 0.17247262597084045, 0.335102915763855, 0.2725311815738678, 0.22327062487602234, 0.29793286323547363, 0.24577736854553223,},
    { 0.0639042854309082, -0.17870372533798218, 0.17333674430847168, 0.06041128933429718, 0.09177115559577942, -0.04971644654870033, 0.12404859811067581, -0.25427374243736267, -0.12213757634162903, -0.4373244345188141, -0.047919608652591705, -0.1675073802471161, 0.38084876537323, 0.33387434482574463, 0.23385536670684814, 0.40717414021492004, 0.395150750875473, 0.04902287572622299, 0.18485373258590698, 0.37092992663383484,},
    { 0.07723099738359451, -0.24819722771644592, 0.18470080196857452, -0.05295286700129509, 0.08516958355903625, 0.028932541608810425, 0.16066259145736694, -0.2958434522151947, -0.059992097318172455, -0.44504407048225403, 0.0755305215716362, -0.07641550898551941, 0.3837239742279053, 0.36546650528907776, 0.31025969982147217, 0.44693660736083984, 0.3987886309623718, 0.08791310340166092, 0.20415280759334564, 0.34221383929252625,},
    { -0.03724541515111923, -0.29321786761283875, 0.10028669983148575, 0.007941720075905323, 0.12868089973926544, 0.06813400983810425, 0.07633039355278015, -0.11617657542228699, -0.12150374799966812, -0.11757595092058182, 0.16611917316913605, -0.1081525906920433, 0.2980610728263855, 0.2805071473121643, 0.24756672978401184, 0.3315388560295105, 0.32708990573883057, 0.15113621950149536, 0.19455063343048096, 0.2411256730556488,},
    { 0.004506183322519064, -0.10542242974042892, 0.1413341462612152, 0.131489098072052, 0.14635834097862244, -0.0012069754302501678, 0.14339910447597504, 0.029362251982092857, -0.17576861381530762, 0.06999462842941284, 0.2669869065284729, 0.15026205778121948, 0.1527014523744583, 0.29250389337539673, 0.1657055914402008, 0.21386221051216125, 0.253412127494812, 0.07561192661523819, 0.06324132531881332, 0.11194547265768051,},
    { 0.13535355031490326, -0.11192059516906738, 0.16906453669071198, 0.12847024202346802, 0.023641791194677353, -0.08023291081190109, 0.11579273641109467, -0.07346467673778534, -0.0935983955860138, 0.11705078184604645, 0.28340694308280945, 0.08750800043344498, 0.0936691164970398, 0.19625474512577057, 0.037269141525030136, 0.12632565200328827, 0.15373094379901886, 0.0791555717587471, 0.04013428837060928, -0.017624631524086,},
    { 0.12881100177764893, -0.07743481546640396, 0.1788506656885147, 0.11185819655656815, 0.019633203744888306, -0.049875590950250626, 0.04545389488339424, -0.05948150157928467, -0.164473295211792, 0.04964766278862953, 0.18474124372005463, 0.12487125396728516, -0.1261090487241745, 0.1608428806066513, 0.049729280173778534, 0.10529246926307678, 0.054299987852573395, 0.01955290138721466, -0.0512726753950119, 0.055257998406887054,},
    { 0.17272332310676575, 0.05685563012957573, 0.09892494976520538, 0.06688474863767624, -0.057453472167253494, -0.06936593353748322, 0.08855661749839783, 0.021242737770080566, -0.0692935660481453, 0.14505812525749207, 0.20048904418945312, 0.158986434340477, -0.11949161440134048, 0.035665009170770645, -0.07610977441072464, 0.08934449404478073, 0.11749293655157089, 0.056185878813266754, 0.011758075095713139, 0.0035468193236738443,},
    { 0.041180696338415146, 0.14422404766082764, 0.05157454311847687, 0.011341610923409462, -0.06025069206953049, -0.0626014843583107, 0.08792905509471893, 0.003571213223040104, -0.07350228726863861, 0.20089231431484222, 0.28389790654182434, 0.13012737035751343, -0.21226292848587036, 0.0175950787961483, -0.019618764519691467, 0.1848093420267105, 0.014123712666332722, -0.05761497840285301, -0.13826033473014832, -0.09507998824119568,},
    { 0.015019133687019348, 0.1085631400346756, 0.13902471959590912, 0.17159344255924225, 0.06357744336128235, 0.033317144960165024, -0.1969645470380783, 0.09554827958345413, -0.1908436119556427, 0.20948907732963562, 0.3294967710971832, 0.2147379070520401, -0.1032860279083252, -0.14208373427391052, -0.018166448920965195, 0.03861357644200325, -0.06236177682876587, -0.015545433387160301, -0.1530742049217224, -0.05960801616311073,},
    { 0.017455751076340675, 0.3691740036010742, 0.005739258602261543, 0.046616218984127045, 0.030773885548114777, -0.08736877888441086, -0.2707586884498596, 0.08862265944480896, -0.10525865107774734, 0.16898182034492493, 0.34513017535209656, 0.11926938593387604, -0.16794000566005707, -0.11738638579845428, 0.06376263499259949, -0.010720184072852135, -0.05182395502924919, -0.12874363362789154, -0.3541433811187744, -0.1436239778995514,},
    { 0.024888131767511368, 0.3499605655670166, 0.04401812702417374, -0.22959037125110626, -0.014426231384277344, -0.26051583886146545, -0.506725013256073, 0.11820238828659058, -0.07179024815559387, 0.08695574849843979, 0.4009118676185608, 0.2085811048746109, -0.2375950962305069, 0.06845752149820328, 0.22121137380599976, 0.03139805793762207, -0.03144243359565735, 0.09077583253383636, -0.30100977420806885, -0.028724031522870064,},
    { 0.09286118298768997, 0.2987525761127472, -0.09855736047029495, -0.06658704578876495, -0.17679107189178467, -0.04614390432834625, -0.14675594866275787, 0.08298645168542862, 0.15508536994457245, 0.24602365493774414, 0.2447088360786438, 0.05915069580078125, -0.1642053723335266, 0.18495717644691467, 0.15587905049324036, -0.11731401830911636, -0.22805124521255493, 0.10130395740270615, -0.11935271322727203, -0.26267173886299133,},
    { -0.03492782264947891, 0.14766955375671387, -0.05392143502831459, -0.14971840381622314, 0.10818302631378174, -0.1008252426981926, 0.008215192705392838, -0.06276972591876984, -0.008008471690118313, 0.04064362123608589, 0.029310785233974457, 0.09300017356872559, 0.016727346926927567, -0.003964392468333244, -0.09016739577054977, -0.02912655472755432, -0.023507626727223396, -0.0028089317493140697, -0.14332790672779083, -0.042769655585289,},
    { -0.12122290581464767, 0.12043482065200806, 0.05683590844273567, 0.1297413408756256, 0.024101514369249344, -0.11994781345129013, 0.061086270958185196, 0.10128311067819595, 0.08029621839523315, -0.14044508337974548, -0.0528101846575737, 0.12423410266637802, 0.08196939527988434, 0.03978164494037628, -0.13057680428028107, 0.13351114094257355, 0.10802581906318665, -0.05888909474015236, -0.054068006575107574, -0.13503122329711914,},
    { -0.09350607544183731, 0.027437279000878334, -0.13056887686252594, 0.10468298196792603, -0.028327425941824913, 0.06344912201166153, -0.0009553408017382026, -0.03299209102988243, 0.11037252843379974, -0.12426133453845978, 0.052030377089977264, 0.08830532431602478, -0.22996550798416138, 0.10145468264818192, -0.13907566666603088, -0.023798368871212006, 0.09637285768985748, -0.01460664626210928, 0.22144286334514618, 0.10535524040460587,},
    { -0.0593421533703804, -0.0641082227230072, -0.09734691679477692, 0.1336551457643509, -0.048031244426965714, 0.0799441784620285, -0.027143234387040138, -0.00953030027449131, 0.036381542682647705, 0.20758908987045288, 0.15406492352485657, 0.2873344421386719, -0.019655803218483925, 0.1597771942615509, -0.17212127149105072, -0.045969244092702866, 0.08646681904792786, -0.11044013500213623, 0.06085937097668648, 0.15688259899616241,},
