6.760030984878540039e-03,-4.716489091515541077e-02,5.938872694969177246e-02,5.303454399108886719e-02,-7.228324562311172485e-02,6.745502352714538574e-02,-5.841131508350372314e-02,1.287911087274551392e-02,-1.321532577276229858e-02,1.521670073270797729e-02,6.998936831951141357e-02,-2.323956787586212158e-02,4.610840976238250732e-02,8.568175137042999268e-02,6.637129187583923340e-02,-4.357745870947837830e-02,3.224082291126251221e-02,7.379382848739624023e-03,3.335196524858474731e-02,2.136481553316116333e-02
-3.700899332761764526e-02,-2.561291307210922241e-02,5.049873888492584229e-02,5.315099656581878662e-02,-1.162020862102508545e-02,-8.446164429187774658e-03,1.651778817176818848e-03,1.919811218976974487e-02,-7.294465601444244385e-02,4.645434021949768066e-02,1.697689294815063477e-02,7.681371271610260010e-02,7.927231490612030029e-02,-1.140438020229339600e-02,-1.543603837490081787e-03,1.714295893907546997e-02,6.394830346107482910e-02,-2.835191786289215088e-03,-5.485228821635246277e-02,-6.224942207336425781e-02
-5.647055804729461670e-03,7.415933907032012939e-02,4.270336031913757324e-02,-7.209932059049606323e-02,1.002161204814910889e-02,2.433606982231140137e-02,-7.375799864530563354e-02,3.153239190578460693e-02,-7.414825260639190674e-03,5.677118897438049316e-04,-5.253304913640022278e-02,-4.181790351867675781e-02,3.166161477565765381e-02,1.909266412258148193e-02,-6.505456566810607910e-02,-1.921856403350830078e-02,5.444814264774322510e-02,2.518842369318008423e-02,-2.424460276961326599e-02,5.534060299396514893e-02
1.916804164648056030e-02,3.020684421062469482e-02,2.013001590967178345e-02,-5.562938749790191650e-03,-4.464679583907127380e-02,5.118863284587860107e-02,-6.144314259290695190e-02,-1.773133128881454468e-02,7.761120796203613281e-02,2.547226101160049438e-02,7.983951270580291748e-02,5.488236248493194580e-02,6.554193794727325439e-02,-8.088188618421554565e-02,-4.795438423752784729e-02,-3.225221112370491028e-02,-7.479581981897354126e-02,3.393463790416717529e-02,-3.085105121135711670e-02,6.647488474845886230e-02
-8.382476866245269775e-03,5.609472095966339111e-02,4.248410463333129883e-02,6.299594044685363770e-02,4.535950720310211182e-03,8.094266057014465332e-02,2.171583473682403564e-03,8.887626230716705322e-03,4.738242924213409424e-02,-2.797313779592514038e-02,2.039704471826553345e-02,2.543766051530838013e-02,6.981456279754638672e-02,7.891525328159332275e-02,5.293230712413787842e-02,-1.989749819040298462e-02,-7.516560703516006470e-02,7.266299426555633545e-02,-1.823159307241439819e-02,-2.738822624087333679e-02
-6.681923568248748779e-02,1.967003941535949707e-02,-3.964922204613685608e-02,6.886141002178192139e-02,-2.443357557058334351e-02,-7.010801881551742554e-02,6.985828280448913574e-03,-1.647239178419113159e-02,2.932979166507720947e-02,-1.742918789386749268e-02,3.088721632957458496e-02,-7.057073712348937988e-02,-5.230622366070747375e-02,4.828895628452301025e-02,5.807951092720031738e-04,-7.970917969942092896e-02,-2.529536187648773193e-02,6.050609052181243896e-02,6.966456770896911621e-02,8.498623967170715332e-03
-6.709025800228118896e-02,-5.711657553911209106e-02,1.947641372680664062e-02,6.042239069938659668e-02,-8.176583051681518555e-02,-6.673752516508102417e-02,6.806127727031707764e-03,-1.104186475276947021e-02,2.946185320615768433e-02,-6.224478781223297119e-02,-7.815569639205932617e-03,4.981233179569244385e-02,6.589986383914947510e-03,2.191585302352905273e-02,-7.712955772876739502e-02,-7.941285520792007446e-02,5.502139031887054443e-02,4.578685760498046875e-02,6.668509542942047119e-02,5.422684550285339355e-02
-6.626820564270019531e-02,2.546812593936920166e-02,-6.354896724224090576e-02,3.754504024982452393e-03,-8.072288334369659424e-02,-7.179319858551025391e-02,7.797604799270629883e-02,-3.247782215476036072e-02,-4.385388270020484924e-02,-3.116145730018615723e-02,-6.880392879247665405e-02,6.530542671680450439e-02,-3.577340394258499146e-02,6.487759947776794434e-02,6.205654144287109375e-02,-1.012494415044784546e-02,5.717636644840240479e-02,-4.940979555249214172e-02,-6.618663668632507324e-02,6.572574377059936523e-02
4.079872369766235352e-02,4.625499248504638672e-02,-5.436057224869728088e-02,-2.542260661721229553e-02,-4.548430070281028748e-02,-8.611349016427993774e-02,-7.043723016977310181e-02,-7.232569903135299683e-02,3.893789649009704590e-02,-1.847974210977554321e-02,-5.496636033058166504e-03,-2.061425149440765381e-02,-4.580111056566238403e-02,3.386922180652618408e-02,4.545000195503234863e-02,-8.602097630500793457e-02,-1.938401907682418823e-02,3.327557444572448730e-02,-6.728767603635787964e-02,6.983521580696105957e-02
7.721637189388275146e-02,3.826305270195007324e-03,8.743450045585632324e-03,-3.720883652567863464e-02,3.644624352455139160e-02,5.745337903499603271e-02,8.384197950363159180e-02,8.609767258167266846e-02,-3.310862183570861816e-02,7.512703537940979004e-02,1.901472359895706177e-02,2.123345434665679932e-02,-6.888037919998168945e-02,-5.876507610082626343e-02,-7.757511734962463379e-02,-5.910676717758178711e-02,-7.224592566490173340e-02,2.499924600124359131e-02,3.299587965011596680e-02,2.782774716615676880e-02
6.964179873466491699e-02,-3.469951450824737549e-03,-5.998789519071578979e-02,-8.144572377204895020e-03,-5.951990932226181030e-02,1.045464724302291870e-02,-7.893890142440795898e-04,-5.938397347927093506e-02,3.999535739421844482e-02,4.376471042633056641e-04,7.769840955734252930e-02,-6.323695182800292969e-02,7.823683321475982666e-02,-2.430124208331108093e-02,3.987282514572143555e-03,5.550193786621093750e-02,6.371517479419708252e-02,-2.980434894561767578e-02,2.463335543870925903e-02,7.366296648979187012e-02
-6.809364259243011475e-02,2.143305540084838867e-02,2.949283272027969360e-02,9.542725980281829834e-03,-6.953968107700347900e-02,5.861581861972808838e-02,1.138433814048767090e-03,1.989325881004333496e-02,1.739295572042465210e-02,-8.221513777971267700e-02,7.720510661602020264e-02,-7.629282027482986450e-02,6.433533132076263428e-02,-5.727938935160636902e-02,-6.625994294881820679e-02,1.342695206403732300e-02,7.817415893077850342e-02,-2.157530933618545532e-02,-1.760923862457275391e-02,8.597075939178466797e-02
-7.193222641944885254e-02,5.781271308660507202e-02,-4.402603209018707275e-02,-4.563499987125396729e-02,6.609424948692321777e-02,4.199080914258956909e-02,2.716979198157787323e-02,1.091523468494415283e-01,-2.344248257577419281e-02,3.577301651239395142e-02,-8.126870542764663696e-02,-7.539733499288558960e-02,1.677202992141246796e-02,-2.659546211361885071e-02,2.342250011861324310e-02,2.381853573024272919e-02,-4.979407042264938354e-02,1.357211917638778687e-02,2.816860750317573547e-02,3.175637871026992798e-02
-1.103718578815460205e-01,1.369698196649551392e-01,-8.802485466003417969e-02,1.427224427461624146e-01,-4.489720240235328674e-02,9.154089540243148804e-02,7.923003286123275757e-02,6.898507941514253616e-03,2.680137753486633301e-02,-3.671658039093017578e-02,-7.978440076112747192e-02,5.097828805446624756e-02,-9.522426128387451172e-02,9.761399775743484497e-02,4.175079613924026489e-02,3.169811517000198364e-02,5.892024561762809753e-02,7.560760527849197388e-02,-1.214614808559417725e-01,6.252389401197433472e-02
-1.248862128704786301e-02,1.574492268264293671e-02,-2.682953514158725739e-02,1.167883723974227905e-01,-8.071371167898178101e-02,-6.174487248063087463e-02,5.376558378338813782e-02,-6.247997283935546875e-02,4.066320881247520447e-02,8.370615541934967041e-02,2.959933504462242126e-02,3.353822231292724609e-02,9.694891981780529022e-03,7.179609034210443497e-03,-1.258042920380830765e-02,1.154307648539543152e-02,6.457469612360000610e-02,-6.608868390321731567e-02,4.140280652791261673e-03,-1.274171024560928345e-01
-4.476750269532203674e-02,-4.106607288122177124e-02,2.691954374313354492e-02,7.712532579898834229e-02,-4.071659594774246216e-02,9.257369674742221832e-03,-8.349378593266010284e-03,-4.748979955911636353e-02,4.946183040738105774e-02,1.514139492064714432e-02,-7.675599306821823120e-02,1.285394281148910522e-02,-4.364016279578208923e-02,-4.234088212251663208e-02,4.779176041483879089e-02,-5.479945801198482513e-03,2.501620911061763763e-02,-4.218702763319015503e-02,-5.714380741119384766e-02,-3.315260633826255798e-02
-6.881980597972869873e-02,-3.571490943431854248e-02,-3.641751036047935486e-02,-2.135316282510757446e-02,4.969048500061035156e-02,-3.429702669382095337e-02,6.438319385051727295e-02,6.390734016895294189e-02,-6.339107453823089600e-02,-1.494321972131729126e-02,5.496701598167419434e-02,3.431191295385360718e-02,5.705323815345764160e-02,-2.186792343854904175e-02,-7.177758961915969849e-02,6.950303912162780762e-03,-3.511632233858108521e-02,-8.180759847164154053e-03,7.886466383934020996e-02,-7.113847136497497559e-02
3.841167688369750977e-02,2.257649600505828857e-02,-6.074421107769012451e-02,-6.125465035438537598e-03,-6.529565155506134033e-02,-8.147390186786651611e-02,1.233576238155364990e-02,-6.781020015478134155e-02,-6.565554440021514893e-02,2.836287021636962891e-04,-2.236657589673995972e-02,5.628900229930877686e-02,-3.970380499958992004e-02,-6.193341314792633057e-02,-5.610544607043266296e-02,3.414233028888702393e-02,7.892146706581115723e-03,1.992316544055938721e-02,3.547742962837219238e-03,-1.022540777921676636e-02
-7.513217628002166748e-02,2.307652682065963745e-02,-8.319026976823806763e-02,-7.581789046525955200e-02,2.878324687480926514e-02,-1.968570798635482788e-02,3.910604119300842285e-02,6.209589540958404541e-02,3.436338901519775391e-02,-1.413680613040924072e-03,6.982311606407165527e-04,2.122031152248382568e-02,8.633193373680114746e-02,-4.591385275125503540e-02,-8.174210786819458008e-02,-3.963324055075645447e-02,7.507435977458953857e-02,3.653441369533538818e-02,6.244933605194091797e-02,5.587548017501831055e-03
-2.650353685021400452e-02,-3.008427098393440247e-02,-9.937249124050140381e-03,6.249579787254333496e-02,6.531840562820434570e-02,-5.397828668355941772e-02,-5.170073732733726501e-02,-4.245428368449211121e-02,-2.866107225418090820e-02,-2.150225639343261719e-02,2.343945205211639404e-02,-1.945647597312927246e-02,-1.603215932846069336e-04,-1.462645083665847778e-02,-1.772694289684295654e-03,-8.509609848260879517e-02,-4.619618877768516541e-02,-5.281140655279159546e-02,2.696530520915985107e-02,-8.044672757387161255e-02
-7.228051126003265381e-02,-8.188642561435699463e-02,-2.118470519781112671e-02,-8.308339118957519531e-02,-6.365202367305755615e-03,-6.860480457544326782e-02,2.366434782743453979e-02,-1.504854857921600342e-02,-1.783013343811035156e-02,1.617190986871719360e-02,8.688457310199737549e-03,-2.294734865427017212e-02,6.786012649536132812e-02,1.044972240924835205e-02,3.952234983444213867e-02,-6.785386800765991211e-02,6.504862010478973389e-02,-1.452740281820297241e-02,6.004734337329864502e-02,-2.334549278020858765e-02
-4.473055899143218994e-02,2.218078076839447021e-02,8.323994278907775879e-02,-8.323039114475250244e-02,7.441622018814086914e-02,-4.180192202329635620e-02,-2.893271669745445251e-02,-2.423004060983657837e-02,6.600140035152435303e-02,2.751901745796203613e-03,2.009380608797073364e-02,-2.876862511038780212e-02,5.501079559326171875e-02,-4.626378417015075684e-02,-7.762360572814941406e-02,-4.554161801934242249e-02,1.741021871566772461e-02,-5.833731591701507568e-02,5.994389951229095459e-02,4.803493618965148926e-03
1.201557368040084839e-02,1.565185934305191040e-02,8.460998535156250000e-02,-9.782612323760986328e-06,-1.318640261888504028e-02,-1.789458096027374268e-02,1.400361955165863037e-02,3.736559301614761353e-02,5.895502865314483643e-03,3.433577716350555420e-03,-6.887757778167724609e-02,-1.820389181375503540e-02,-6.352886557579040527e-03,-2.652668580412864685e-02,5.630335211753845215e-02,-6.794234365224838257e-02,1.475402712821960449e-02,2.923192083835601807e-02,-6.003759801387786865e-03,3.942954540252685547e-02
6.553083658218383789e-02,2.853092551231384277e-02,-6.726907193660736084e-02,-8.421196788549423218e-02,-1.750735193490982056e-02,7.536648213863372803e-02,-3.572455048561096191e-02,6.073926389217376709e-02,-1.141696423292160034e-02,-3.602498769760131836e-02,-5.153662338852882385e-02,6.577087938785552979e-02,6.412650644779205322e-02,-4.539810493588447571e-02,7.532627880573272705e-02,-6.757486611604690552e-02,4.392693936824798584e-02,1.388265937566757202e-02,-7.695287466049194336e-03,2.561915665864944458e-02
4.396085441112518311e-02,9.925514459609985352e-04,8.110611140727996826e-02,-5.504257977008819580e-03,4.019172489643096924e-02,2.429977804422378540e-02,-7.371318340301513672e-02,5.961601436138153076e-02,-1.890721172094345093e-02,-3.084437549114227295e-02,-3.431490436196327209e-02,5.939581990242004395e-02,-6.299554556608200073e-02,4.677407443523406982e-02,3.466532379388809204e-02,-2.313195168972015381e-02,-2.285619080066680908e-02,7.416604459285736084e-02,7.289858162403106689e-02,1.291490346193313599e-02
6.462790071964263916e-02,-5.209004506468772888e-02,-7.666196674108505249e-02,1.235064864158630371e-02,-6.356420367956161499e-02,-6.765103340148925781e-02,2.856317907571792603e-02,-5.308675765991210938e-02,-3.981434181332588196e-02,-5.448674783110618591e-02,-3.336249291896820068e-02,-1.377051323652267456e-02,9.264983236789703369e-03,-7.138554006814956665e-02,-6.018254905939102173e-02,2.204097062349319458e-02,7.339012622833251953e-02,-3.936548903584480286e-02,7.757736742496490479e-02,8.218105137348175049e-02
4.086659848690032959e-02,2.972190082073211670e-02,-6.691446900367736816e-02,-6.641258299350738525e-02,1.102083921432495117e-02,-3.643761202692985535e-02,-2.840156108140945435e-02,-3.800515085458755493e-02,8.452910184860229492e-02,1.814931631088256836e-02,-2.631308138370513916e-02,-3.872933238744735718e-02,-6.593905389308929443e-02,-4.888797178864479065e-02,6.010290980339050293e-02,2.451664209365844727e-02,2.841130644083023071e-02,1.962792128324508667e-02,-6.472675502300262451e-02,7.831729948520660400e-02
4.855321347713470459e-02,5.766746401786804199e-02,3.179182112216949463e-02,-1.928840577602386475e-02,-9.237632155418395996e-03,7.956430315971374512e-02,3.196924179792404175e-02,4.600900411605834961e-02,1.334363967180252075e-02,-6.364598870277404785e-02,3.529188781976699829e-02,5.879636108875274658e-02,-8.463202416896820068e-02,-7.720817625522613525e-02,8.232802152633666992e-02,1.552051305770874023e-02,-7.448343932628631592e-02,-2.806724235415458679e-02,4.523518681526184082e-02,-2.472851052880287170e-02
2.141927182674407959e-02,4.681460559368133545e-02,6.749244034290313721e-02,3.680655360221862793e-02,6.163372099399566650e-02,8.222511410713195801e-02,6.778107583522796631e-02,2.018558233976364136e-02,6.551967561244964600e-02,-1.320576667785644531e-02,4.226714372634887695e-03,7.886362075805664062e-02,2.259000390768051147e-02,3.308862447738647461e-02,4.959203302860260010e-02,7.143346965312957764e-02,5.987317860126495361e-02,-6.845224648714065552e-02,-2.032046765089035034e-02,5.698603391647338867e-02
-5.059138312935829163e-02,-3.202324360609054565e-02,-4.088960960507392883e-02,7.561814785003662109e-02,-8.509956300258636475e-02,2.222683280706405640e-02,-5.433589965105056763e-02,7.085183262825012207e-02,-5.366860330104827881e-02,-1.009480655193328857e-02,-8.443912118673324585e-02,2.541453391313552856e-02,-8.328355103731155396e-02,8.125467598438262939e-02,-6.890258193016052246e-02,-6.666803359985351562e-02,-4.154388979077339172e-02,1.798118650913238525e-02,6.862282752990722656e-04,-8.637443184852600098e-03
2.979553490877151489e-02,-8.168968558311462402e-02,-2.074262499809265137e-02,9.214811027050018311e-03,-6.434725224971771240e-02,-7.096695899963378906e-02,7.809056341648101807e-02,4.428635537624359131e-02,8.246204257011413574e-02,-9.151771664619445801e-03,-7.898898422718048096e-02,-5.210909619927406311e-02,-4.670090973377227783e-03,-5.296826735138893127e-02,7.208576798439025879e-02,-8.268481492996215820e-02,7.240787148475646973e-03,-4.621295258402824402e-02,-5.315147340297698975e-02,-8.321376889944076538e-02
4.527968168258666992e-02,-7.249087095260620117e-03,6.860676407814025879e-02,3.441157937049865723e-02,6.387758255004882812e-02,7.929185032844543457e-02,-4.533219709992408752e-02,1.111568510532379150e-02,-6.462120264768600464e-02,-1.583526283502578735e-02,-7.349677383899688721e-02,7.680356502532958984e-04,-8.340667188167572021e-02,-5.874064937233924866e-02,-2.142228186130523682e-02,5.255226790904998779e-02,2.512484788894653320e-02,-3.391218557953834534e-02,-1.704443246126174927e-02,6.257295608520507812e-03
-3.548980131745338440e-02,2.438276261091232300e-02,2.310923486948013306e-02,-1.501922309398651123e-01,9.897225350141525269e-02,9.409035742282867432e-02,-9.486151486635208130e-02,-2.099940925836563110e-02,9.069120883941650391e-02,2.844738960266113281e-02,-9.660392254590988159e-02,3.404449671506881714e-02,-1.065429896116256714e-01,7.138584554195404053e-02,-7.616975158452987671e-02,-7.855646312236785889e-02,1.090907007455825806e-01,1.220483258366584778e-01,-9.052371233701705933e-02,1.389854103326797485e-01
-1.381255537271499634e-01,6.698884069919586182e-02,-8.135135471820831299e-02,-8.616844564676284790e-02,1.499614864587783813e-01,1.354094892740249634e-01,-3.708033636212348938e-02,-3.391035273671150208e-02,1.348191057331860065e-03,-6.586992181837558746e-03,-7.329642772674560547e-02,1.006428897380828857e-02,-8.225837349891662598e-02,1.562209799885749817e-02,-7.450430095195770264e-02,-2.221902459859848022e-02,1.456970423460006714e-01,1.114523634314537048e-01,-2.001274749636650085e-02,1.392107009887695312e-01
-3.785898536443710327e-02,1.089686006307601929e-01,7.231031358242034912e-02,-4.834475740790367126e-02,6.945290416479110718e-02,3.973078727722167969e-02,-1.021369323134422302e-01,1.287484765052795410e-01,1.219515427947044373e-01,-1.655583679676055908e-01,-1.638700067996978760e-01,-1.410378795117139816e-02,-1.275244951248168945e-01,-8.199009299278259277e-02,-2.596498467028141022e-02,-6.116661801934242249e-02,6.708221882581710815e-02,9.327527135610580444e-02,-4.213774204254150391e-02,9.356123954057693481e-02
-1.731109321117401123e-01,1.988568305969238281e-01,3.013983927667140961e-02,-2.105303555727005005e-01,1.881739050149917603e-01,2.514218389987945557e-01,-1.009702757000923157e-01,8.289171010255813599e-02,1.837442070245742798e-01,-8.884054422378540039e-02,-1.777195483446121216e-01,-1.356468200683593750e-01,-2.996249496936798096e-02,-5.117559432983398438e-02,-1.833755820989608765e-01,2.700121840462088585e-03,3.707751631736755371e-02,-1.241201534867286682e-02,-1.828669607639312744e-01,2.063031345605850220e-01
-8.579572290182113647e-02,9.888578951358795166e-02,-2.839493937790393829e-02,-2.751197218894958496e-01,2.421083897352218628e-01,2.038439363241195679e-01,2.409602142870426178e-02,1.526580303907394409e-01,1.670783311128616333e-01,-2.034769654273986816e-01,-1.053463593125343323e-01,-1.675384193658828735e-01,-2.743402309715747833e-02,8.050945401191711426e-02,-2.037273347377777100e-01,1.117134764790534973e-01,1.668289862573146820e-02,1.077850311994552612e-01,-1.088890954852104187e-01,2.510059177875518799e-01
-8.734312653541564941e-02,1.772673279047012329e-01,-5.649839714169502258e-02,-1.810160577297210693e-01,2.301566451787948608e-01,1.814687103033065796e-01,-5.395542457699775696e-02,1.574946194887161255e-01,1.567104011774063110e-01,-2.118891626596450806e-01,-3.558391332626342773e-02,-1.699930727481842041e-01,-1.013814210891723633e-01,8.721855282783508301e-02,-2.308052480220794678e-01,7.576856017112731934e-02,-4.361294955015182495e-02,1.014785543084144592e-01,-2.148072272539138794e-01,2.320706248283386230e-01
-1.191215440630912781e-01,1.829923838376998901e-01,4.565478488802909851e-02,-2.774393856525421143e-01,2.827724218368530273e-01,1.674433350563049316e-01,-9.783628582954406738e-02,2.708263993263244629e-01,2.541086971759796143e-01,-2.175897955894470215e-01,-2.041782289743423462e-01,-1.891312748193740845e-01,-1.894975304603576660e-01,6.610881537199020386e-02,-1.278054416179656982e-01,1.137640550732612610e-01,3.541943803429603577e-02,1.343590468168258667e-01,-2.834675610065460205e-01,3.080640733242034912e-01
-2.336980700492858887e-01,2.719522118568420410e-01,3.244272619485855103e-02,-1.490881741046905518e-01,2.467963397502899170e-01,1.270739138126373291e-01,-1.680554002523422241e-01,2.151546478271484375e-01,2.385270744562149048e-01,-2.993948757648468018e-01,-2.930659353733062744e-01,5.842126160860061646e-02,-1.046327278017997742e-01,-4.352805763483047485e-02,-3.018977940082550049e-01,1.172935366630554199e-01,1.905305534601211548e-01,1.313635706901550293e-01,-2.483960241079330444e-01,1.790804266929626465e-01
-2.040439844131469727e-01,2.171696871519088745e-01,6.945522129535675049e-02,-6.504867970943450928e-02,3.030517995357513428e-01,1.230355575680732727e-01,-9.294725209474563599e-02,1.507119834423065186e-01,2.579353451728820801e-01,-2.123714536428451538e-01,-2.982172667980194092e-01,-9.439273923635482788e-02,-1.886603534221649170e-01,2.525401674211025238e-02,-1.766357421875000000e-01,2.047367952764034271e-02,3.180346786975860596e-01,9.050071239471435547e-02,-3.258289992809295654e-01,1.380544900894165039e-01
-2.639857828617095947e-01,1.940816342830657959e-01,-2.424199320375919342e-02,-1.432933360338211060e-01,3.241661489009857178e-01,2.006254047155380249e-01,6.370806694030761719e-02,1.450711488723754883e-01,2.035693824291229248e-01,-1.171026155352592468e-01,-1.823831647634506226e-01,-6.400674581527709961e-02,-4.728260636329650879e-02,-1.551826745271682739e-01,-2.898899316787719727e-01,1.011708378791809082e-01,2.374292761087417603e-01,4.800410941243171692e-02,-3.579092025756835938e-01,1.613297015428543091e-01
9.593044966459274292e-02,8.973181992769241333e-02,8.766719698905944824e-02,-5.331163853406906128e-02,-1.147933602333068848e-01,9.982760250568389893e-02,9.066678583621978760e-02,-1.239706650376319885e-01,2.265745848417282104e-01,-3.830600529909133911e-02,-2.133309468626976013e-02,-2.264258563518524170e-01,-8.846151828765869141e-02,-1.759774237871170044e-01,1.406571920961141586e-02,9.544813632965087891e-02,-5.785232782363891602e-02,3.002811968326568604e-01,-1.226278021931648254e-01,-4.438662156462669373e-02
-1.051653325557708740e-01,1.584162414073944092e-01,2.017099410295486450e-01,-2.020934410393238068e-02,-1.312333047389984131e-01,-2.619173750281333923e-02,2.009963616728782654e-03,-1.670921593904495239e-01,3.275302052497863770e-01,-1.644356548786163330e-01,-1.619671434164047241e-01,-2.752553224563598633e-01,-7.971602678298950195e-02,-1.199785172939300537e-01,-1.547683030366897583e-01,2.047080993652343750e-01,1.642429083585739136e-01,9.644136577844619751e-02,-1.581026762723922729e-01,6.342587620019912720e-02
-1.770079135894775391e-01,2.613202333450317383e-01,3.378587961196899414e-02,8.835940621793270111e-03,1.675253175199031830e-02,-1.122559234499931335e-01,9.994726628065109253e-02,6.356846541166305542e-02,3.300175666809082031e-01,-2.480390369892120361e-01,-1.502055525779724121e-01,-2.703493237495422363e-01,-1.850887089967727661e-01,-2.091581672430038452e-01,-2.038428187370300293e-02,1.147003024816513062e-01,2.094392776489257812e-01,-4.497984051704406738e-02,-1.051086708903312683e-01,1.528660207986831665e-02
-1.288132518529891968e-01,3.530350625514984131e-01,7.817742228507995605e-02,-1.662134379148483276e-01,1.883494704961776733e-01,2.576139941811561584e-02,8.148087561130523682e-02,2.104498744010925293e-01,3.595447838306427002e-01,-2.221092432737350464e-01,-1.539152413606643677e-01,-3.801064193248748779e-01,-1.004353091120719910e-01,-1.690411418676376343e-01,-1.845864802598953247e-01,1.193825826048851013e-01,2.324892282485961914e-01,1.006587687879800797e-02,-2.193660587072372437e-01,2.662321925163269043e-01
-6.211239099502563477e-02,2.855417430400848389e-01,7.498709112405776978e-02,-2.173529416322708130e-01,2.295496612787246704e-01,1.232387945055961609e-01,-3.742734342813491821e-02,1.333923190832138062e-01,3.528399467468261719e-01,-1.555392593145370483e-01,-1.156078279018402100e-01,-2.111228853464126587e-01,-2.997203171253204346e-02,4.356051795184612274e-03,-2.941937744617462158e-01,-1.269972920417785645e-01,9.987240284681320190e-02,2.590448260307312012e-01,-2.947798669338226318e-01,3.337818086147308350e-01
-1.110192388296127319e-01,1.994372904300689697e-01,2.644993364810943604e-01,-1.673844903707504272e-01,2.826116979122161865e-01,2.578658461570739746e-01,-2.054475545883178711e-01,2.568315565586090088e-01,1.858378052711486816e-01,-2.530532181262969971e-01,-1.287587434053421021e-01,-1.400246322154998779e-01,-7.001505047082901001e-02,-2.398532442748546600e-02,-1.267061233520507812e-01,-5.989249423146247864e-02,5.775506794452667236e-02,1.939001232385635376e-01,-2.557442188262939453e-01,3.003363907337188721e-01
-1.605594158172607422e-01,1.414947509765625000e-01,2.152553796768188477e-01,-2.259039729833602905e-01,2.940609753131866455e-01,2.076396793127059937e-01,-2.548683993518352509e-02,7.136757671833038330e-02,2.276793718338012695e-01,-2.512695491313934326e-01,-2.714293003082275391e-01,-2.242541015148162842e-01,-1.758585423231124878e-01,-4.916753992438316345e-02,-1.397933661937713623e-01,-8.582247048616409302e-02,1.493689715862274170e-01,2.272218614816665649e-01,-1.705117076635360718e-01,2.867453992366790771e-01
-1.976297646760940552e-01,1.963824778795242310e-01,1.404546797275543213e-01,-1.246649920940399170e-01,1.925033628940582275e-01,1.688090264797210693e-01,-7.062527537345886230e-02,1.953657567501068115e-01,2.827933728694915771e-01,-2.400856018066406250e-01,-1.622099578380584717e-01,-3.203792870044708252e-02,-2.618339061737060547e-01,-5.264302715659141541e-02,-2.485968321561813354e-01,-2.613825164735317230e-02,9.575572609901428223e-02,3.239740431308746338e-01,-1.997312605381011963e-01,1.849009543657302856e-01
-6.803607940673828125e-02,4.577219486236572266e-02,1.229104399681091309e-01,-1.766280680894851685e-01,2.170057147741317749e-01,1.282218545675277710e-01,-1.027274280786514282e-01,8.366915583610534668e-02,2.053903937339782715e-01,-1.540891081094741821e-01,-1.951626837253570557e-01,-7.893277704715728760e-02,-6.225293502211570740e-02,-5.220847576856613159e-02,-1.683832108974456787e-01,-3.803609311580657959e-02,6.919147074222564697e-02,1.714086234569549561e-01,-1.223685368895530701e-01,5.467048659920692444e-02
-1.062437966465950012e-01,8.305272459983825684e-02,-1.582778990268707275e-03,-3.613560646772384644e-02,1.757128387689590454e-01,-5.978393834084272385e-03,-3.081175312399864197e-02,4.991133138537406921e-02,6.863766908645629883e-02,-1.325116157531738281e-01,-1.890821009874343872e-01,8.417889475822448730e-02,-1.642645448446273804e-01,5.955263972282409668e-02,-5.135940015316009521e-02,-4.339573904871940613e-02,1.607008874416351318e-01,9.675642102956771851e-02,-1.314832270145416260e-01,4.475850611925125122e-02
-3.470118343830108643e-02,1.054524630308151245e-02,-7.320400327444076538e-02,-7.585951685905456543e-02,-3.874576836824417114e-02,6.564016640186309814e-02,-1.594424247741699219e-05,-2.571744099259376526e-02,5.012366175651550293e-02,3.588600456714630127e-02,-4.085791110992431641e-02,-1.424328237771987915e-02,7.574671506881713867e-02,-7.723705470561981201e-02,1.105725020170211792e-02,-1.974789053201675415e-02,2.414333075284957886e-02,-4.865751788020133972e-02,-3.333991765975952148e-02,5.280281603336334229e-02
3.236126899719238281e-02,-7.299591600894927979e-02,6.421162188053131104e-02,-1.571699976921081543e-02,-6.530151516199111938e-02,1.012481749057769775e-02,-6.881552189588546753e-02,-2.214117348194122314e-02,-7.849679887294769287e-02,-3.667922690510749817e-02,5.878588557243347168e-02,6.429944932460784912e-02,-6.021428853273391724e-02,-3.928623348474502563e-02,2.693187445402145386e-02,-5.625483021140098572e-02,-6.464023143053054810e-02,-7.732604444026947021e-02,2.543644607067108154e-02,-8.168130367994308472e-02
1.081211119890213013e-02,1.221747696399688721e-02,-3.810520470142364502e-02,6.470184028148651123e-02,3.934660553932189941e-02,4.961714148521423340e-03,5.118180811405181885e-02,-4.521185159683227539e-02,-7.265591621398925781e-02,-6.215363740921020508e-03,8.042971789836883545e-02,5.145609378814697266e-02,3.146203607320785522e-02,-1.817367970943450928e-03,-8.445359766483306885e-03,4.580907523632049561e-03,7.095873355865478516e-03,4.440350830554962158e-02,3.767760843038558960e-02,8.237187564373016357e-02
-4.419235885143280029e-02,-8.515492081642150879e-03,-7.366576790809631348e-02,-7.890466600656509399e-02,3.947998583316802979e-02,-2.588392049074172974e-02,-3.667346015572547913e-02,-3.166783601045608521e-02,-2.004826813936233521e-02,2.400510013103485107e-03,7.872997224330902100e-02,4.688474535942077637e-02,6.844349205493927002e-02,-1.153104752302169800e-02,1.067191362380981445e-02,5.884540081024169922e-02,-2.728615328669548035e-02,-7.119401544332504272e-02,-1.911050081253051758e-02,4.510407149791717529e-02
7.852265238761901855e-02,-5.311721935868263245e-02,7.952168583869934082e-02,-2.771222591400146484e-02,3.014964610338211060e-02,5.024647712707519531e-02,6.753921508789062500e-02,5.214874446392059326e-02,-3.571428358554840088e-03,-5.322990193963050842e-02,6.026063859462738037e-02,-4.581925645470619202e-02,-5.218602344393730164e-02,6.039731204509735107e-02,-1.073151826858520508e-02,-3.171613439917564392e-02,-7.994601130485534668e-02,8.895240724086761475e-03,-6.352534145116806030e-02,-1.263372600078582764e-02
6.768341362476348877e-02,2.278604358434677124e-02,-4.855814203619956970e-02,-6.818053871393203735e-02,-4.958272352814674377e-02,7.512812316417694092e-02,7.424876093864440918e-02,3.906865417957305908e-02,-1.119133085012435913e-02,5.715481936931610107e-02,-1.111121475696563721e-02,-2.340147644281387329e-02,-7.428196817636489868e-02,-2.608819305896759033e-02,-4.829261451959609985e-02,-7.176951318979263306e-02,-5.009639263153076172e-02,2.000931650400161743e-02,5.830982327461242676e-02,3.634355217218399048e-02
-1.034886613488197327e-01,1.187351122498512268e-01,1.062441691756248474e-01,6.143984198570251465e-02,1.066436246037483215e-01,1.015739291906356812e-01,-3.854528442025184631e-02,2.457026392221450806e-02,7.800561189651489258e-02,-2.007634192705154419e-02,1.904640160501003265e-02,1.854951679706573486e-02,1.593169011175632477e-02,-7.194855809211730957e-02,-9.410287439823150635e-02,2.742958313319832087e-04,1.159510388970375061e-01,-1.791661838069558144e-03,-3.613496571779251099e-02,2.254857448861002922e-03
-1.222978904843330383e-01,1.547608077526092529e-01,6.160609051585197449e-02,9.018363058567047119e-02,1.161245629191398621e-01,-1.305894702672958374e-01,5.455740168690681458e-02,3.660511225461959839e-02,6.199154630303382874e-02,-1.670106649398803711e-01,-1.367108076810836792e-01,1.355272978544235229e-01,-1.237591542303562164e-02,-4.916789010167121887e-02,-6.400312483310699463e-02,5.128565803170204163e-02,5.227687582373619080e-02,1.304114848608151078e-04,-1.894371770322322845e-02,-9.652743488550186157e-02
-9.145079553127288818e-02,3.492640331387519836e-02,6.772635132074356079e-02,8.667500317096710205e-02,1.760705709457397461e-01,4.055692255496978760e-02,-5.937001109123229980e-02,6.420556455850601196e-03,-1.200076876557432115e-04,-1.380578875541687012e-01,-1.848649978637695312e-01,1.141545698046684265e-01,1.054031178355216980e-01,-5.557524412870407104e-02,-6.541899591684341431e-02,8.352394402027130127e-02,9.790087491273880005e-02,4.725618287920951843e-02,-4.054438322782516479e-02,5.348525568842887878e-02
-1.107510104775428772e-01,7.809434086084365845e-02,-1.589204519987106323e-01,-2.540854811668395996e-01,1.107290685176849365e-01,1.334325522184371948e-01,-2.834652923047542572e-02,1.161051634699106216e-02,1.291657090187072754e-01,-5.957448482513427734e-02,-6.050312519073486328e-02,-1.006728112697601318e-01,-2.323720157146453857e-01,3.870358318090438843e-02,-9.567800164222717285e-02,6.355557125061750412e-03,1.207721605896949768e-01,1.012621372938156128e-01,-9.683892875909805298e-02,7.311748713254928589e-02
-1.781386584043502808e-01,1.368036419153213501e-01,-8.437716215848922729e-02,-2.592168152332305908e-01,2.225758582353591919e-01,1.436988860368728638e-01,2.894502598792314529e-03,7.957975566387176514e-02,1.685812175273895264e-01,-2.183720469474792480e-01,-6.898012943565845490e-03,-1.571902772411704063e-03,2.122278325259685516e-02,-5.895986407995223999e-02,-2.284822314977645874e-01,-3.285323455929756165e-02,-5.238670855760574341e-03,6.570686399936676025e-02,-1.483356952667236328e-01,1.824114769697189331e-01
-1.959024965763092041e-01,3.765623867511749268e-01,5.920555442571640015e-02,-2.828174531459808350e-01,3.335132598876953125e-01,2.360179573297500610e-01,-1.911847144365310669e-01,3.073847591876983643e-01,2.745810449123382568e-01,-3.102474212646484375e-01,-8.179688453674316406e-02,-1.272151023149490356e-01,5.341741815209388733e-02,-1.214181184768676758e-01,-2.840029299259185791e-01,1.373405605554580688e-01,1.055481284856796265e-01,6.012779846787452698e-02,-2.921767830848693848e-01,3.377464711666107178e-01
-2.842361330986022949e-01,3.103842735290527344e-01,-2.744500935077667236e-01,-2.381872534751892090e-01,1.608810424804687500e-01,1.516364067792892456e-01,3.846688196063041687e-02,3.523764908313751221e-01,3.206688761711120605e-01,-2.630854845046997070e-01,-1.985875144600868225e-02,-5.792116746306419373e-02,-1.117719635367393494e-01,1.062231808900833130e-01,-4.015097320079803467e-01,6.070235278457403183e-03,7.589216530323028564e-02,1.154416985809803009e-02,-2.783887386322021484e-01,2.400443404912948608e-01
-2.600019872188568115e-01,2.706112861633300781e-01,-3.530003428459167480e-01,-3.019348978996276855e-01,1.731398701667785645e-01,-7.964816875755786896e-03,-3.086764737963676453e-02,2.184434086084365845e-01,4.618585407733917236e-01,-4.357400238513946533e-01,-1.135162115097045898e-01,-1.814259588718414307e-01,-2.332560271024703979e-01,1.192080304026603699e-01,-3.428194224834442139e-01,-3.811506181955337524e-02,3.070315718650817871e-02,-8.207422494888305664e-02,-6.102593988180160522e-02,1.711477786302566528e-01
-3.041473627090454102e-01,4.475481808185577393e-01,-1.917539387941360474e-01,-2.895104289054870605e-01,2.448906749486923218e-01,1.217309292405843735e-02,-7.300693541765213013e-02,2.322704643011093140e-01,5.401464104652404785e-01,-5.466369390487670898e-01,-2.318231314420700073e-01,-2.249733209609985352e-01,-3.672672212123870850e-01,1.969273090362548828e-01,-4.381866455078125000e-01,-1.841299831867218018e-01,1.490413844585418701e-01,-1.150189898908138275e-02,-2.291856557130813599e-01,2.913211882114410400e-01
-4.445379972457885742e-01,3.211021721363067627e-01,-1.706789582967758179e-01,-1.484446376562118530e-01,2.747401893138885498e-01,2.978258952498435974e-02,2.812453359365463257e-02,4.425829648971557617e-01,5.374580621719360352e-01,-5.938815474510192871e-01,-4.071125984191894531e-01,-2.043304145336151123e-01,-4.478322565555572510e-01,4.385344311594963074e-02,-6.105481982231140137e-01,1.396308466792106628e-02,1.743508726358413696e-01,4.393345862627029419e-02,-2.051949799060821533e-01,3.825697004795074463e-01
-4.762900173664093018e-01,3.892540931701660156e-01,-1.416634023189544678e-01,-1.470580548048019409e-01,1.616260558366775513e-01,1.606888324022293091e-01,4.355928674340248108e-02,2.979777753353118896e-01,5.649927854537963867e-01,-5.349168181419372559e-01,-5.230875611305236816e-01,-6.954638659954071045e-02,-4.863091111183166504e-01,2.059121383354067802e-03,-6.066100001335144043e-01,8.465253561735153198e-02,1.321119219064712524e-01,6.309944204986095428e-03,-1.309631317853927612e-01,4.090249538421630859e-01
-1.716679334640502930e-01,4.066689610481262207e-01,-1.411451697349548340e-01,-4.809527844190597534e-02,1.286482065916061401e-01,2.114642560482025146e-01,1.647003591060638428e-01,4.829807206988334656e-02,4.596587419509887695e-01,-3.629783689975738525e-01,-4.017634391784667969e-01,-2.727590501308441162e-01,-4.260993897914886475e-01,-1.804633885622024536e-01,-5.037255883216857910e-01,9.212817996740341187e-02,1.425048112869262695e-01,2.127411067485809326e-01,-2.120176255702972412e-01,1.409151703119277954e-01
-1.455869078636169434e-01,2.931247949600219727e-01,-7.071471214294433594e-02,-4.132251441478729248e-02,1.623927243053913116e-02,2.629057765007019043e-01,2.059762328863143921e-01,2.374877408146858215e-02,5.250670313835144043e-01,-3.425890207290649414e-01,-3.593822717666625977e-01,-4.382260441780090332e-01,-4.411600828170776367e-01,-1.652829200029373169e-01,-3.489748239517211914e-01,-7.423302531242370605e-02,9.589394554495811462e-03,2.570724487304687500e-01,-1.969870775938034058e-01,2.317370474338531494e-01
-3.966062143445014954e-02,3.305156230926513672e-01,-1.012596208602190018e-02,-2.935374714434146881e-02,-1.022479310631752014e-01,7.274551689624786377e-02,2.139114737510681152e-01,1.211283542215824127e-02,5.230563282966613770e-01,-2.783557176589965820e-01,-4.138828217983245850e-01,-3.810260593891143799e-01,-4.558650553226470947e-01,-3.617844283580780029e-01,-2.077769041061401367e-01,-2.537523582577705383e-02,-8.646727353334426880e-02,2.991780042648315430e-01,-9.741934388875961304e-02,1.521630138158798218e-01
-3.582770749926567078e-02,4.363920986652374268e-01,-4.831833392381668091e-02,-8.049779385328292847e-02,1.509116031229496002e-02,1.367561221122741699e-01,1.157647818326950073e-01,-1.177304983139038086e-01,3.809702098369598389e-01,-4.087456464767456055e-01,-3.934916853904724121e-01,-2.623373270034790039e-01,-5.354384183883666992e-01,-2.288437932729721069e-01,-1.449860781431198120e-01,5.740041285753250122e-02,-1.454787850379943848e-01,3.716932535171508789e-01,-1.678530871868133545e-01,1.487509608268737793e-01
-3.224585354328155518e-01,3.958115577697753906e-01,-8.320497721433639526e-02,-2.266394346952438354e-01,1.320528835058212280e-01,1.042050272226333618e-01,-4.402137547731399536e-02,7.067167758941650391e-02,2.973718941211700439e-01,-1.577996462583541870e-01,-2.326257824897766113e-01,-1.626204103231430054e-01,-3.326493799686431885e-01,-1.957876533269882202e-01,-1.319567859172821045e-01,-1.957821249961853027e-01,-2.155195325613021851e-01,2.659066915512084961e-01,-2.507047355175018311e-01,2.471022307872772217e-01
-2.778313457965850830e-01,4.975818693637847900e-01,-1.552099883556365967e-01,-3.026959300041198730e-01,1.925555020570755005e-01,7.642516493797302246e-02,-2.163702845573425293e-01,1.851674467325210571e-01,1.700740307569503784e-01,-3.343078196048736572e-01,4.623181000351905823e-02,4.598899185657501221e-02,-3.848143815994262695e-01,-1.647749990224838257e-01,-8.312936872243881226e-02,-1.232531070709228516e-01,-1.471819579601287842e-01,2.443133592605590820e-01,-2.353394329547882080e-01,3.540094196796417236e-01
-3.224847018718719482e-01,5.378022193908691406e-01,-1.023591160774230957e-01,-4.490458667278289795e-01,2.285510003566741943e-01,1.467926353216171265e-01,-2.623251080513000488e-01,1.330166608095169067e-01,1.836257129907608032e-01,-3.064646720886230469e-01,6.866639107465744019e-02,3.230198100209236145e-02,-1.810090541839599609e-01,-1.561996992677450180e-02,-1.035665646195411682e-01,-2.108952552080154419e-01,-2.692877650260925293e-01,3.707983493804931641e-01,-4.675072133541107178e-01,4.819087982177734375e-01
-1.236936822533607483e-01,3.292959630489349365e-01,1.857647858560085297e-02,-3.214159905910491943e-01,2.308787554502487183e-01,2.656237594783306122e-02,-1.809574365615844727e-01,3.636488690972328186e-02,1.165657490491867065e-01,-3.384989500045776367e-01,6.677062250673770905e-03,-6.526151672005653381e-03,-2.329919785261154175e-01,-5.064928159117698669e-02,-9.895207732915878296e-02,-1.716575324535369873e-01,-9.998896718025207520e-02,3.694529831409454346e-01,-3.945945799350738525e-01,3.561275601387023926e-01
-1.023122146725654602e-01,3.451111912727355957e-01,-3.152315691113471985e-02,-3.200454711914062500e-01,3.840080499649047852e-01,2.750315964221954346e-01,-7.703087478876113892e-02,2.307367920875549316e-01,2.411217391490936279e-01,-3.451728224754333496e-01,-5.881605669856071472e-02,-3.729149401187896729e-01,-3.049167394638061523e-01,-1.309264302253723145e-01,-2.393799275159835815e-01,-2.742675244808197021e-01,-8.662538230419158936e-02,3.752585649490356445e-01,-2.255699485540390015e-01,2.502211332321166992e-01
-1.424315273761749268e-01,2.808347344398498535e-01,-5.309394747018814087e-02,-3.107108771800994873e-01,2.420232146978378296e-01,1.518244743347167969e-01,-2.186098694801330566e-01,1.873359084129333496e-01,1.586295068264007568e-01,-2.301604747772216797e-01,-3.839927166700363159e-02,-2.688605487346649170e-01,-3.079746365547180176e-01,-3.539161011576652527e-02,-3.242307305335998535e-01,-2.283267825841903687e-01,8.200120180845260620e-02,3.880301415920257568e-01,-3.456180989742279053e-01,2.126880139112472534e-01
-3.169123530387878418e-01,1.721187382936477661e-01,-5.463645234704017639e-02,-1.741514652967453003e-01,2.462860345840454102e-01,9.537570178508758545e-02,-9.449262171983718872e-02,1.557443588972091675e-01,1.374340802431106567e-01,-2.478230297565460205e-01,3.863676264882087708e-02,-3.039327077567577362e-02,-2.280653268098831177e-01,3.046704269945621490e-02,-2.048858702182769775e-01,-1.692897826433181763e-01,1.696839779615402222e-01,2.324287295341491699e-01,-2.025579512119293213e-01,2.547606527805328369e-01
-1.758961826562881470e-01,5.027849599719047546e-02,-1.389024406671524048e-01,-2.614783681929111481e-02,7.758931070566177368e-02,1.284017115831375122e-01,3.976130113005638123e-02,2.110459208488464355e-01,1.498119533061981201e-01,-1.728167086839675903e-01,-2.782413065433502197e-01,-8.136396296322345734e-03,-6.554191559553146362e-02,-3.217731416225433350e-02,2.953638322651386261e-02,-1.124108880758285522e-01,7.503844797611236572e-02,-1.747257262468338013e-02,-3.082231432199478149e-02,5.498014017939567566e-02
-6.658066064119338989e-02,2.208309993147850037e-02,-1.369467973709106445e-01,8.955200761556625366e-02,-5.833698064088821411e-02,-1.273766858503222466e-03,1.047710478305816650e-01,2.178077027201652527e-02,9.715623408555984497e-02,1.217179815284907818e-03,-1.181260421872138977e-01,1.734427548944950104e-02,-1.210035011172294617e-01,-7.562258839607238770e-02,3.518565790727734566e-03,3.907107748091220856e-03,8.297362178564071655e-02,1.544414553791284561e-02,2.364080213010311127e-02,6.632573157548904419e-02
-3.171333298087120056e-02,2.415187656879425049e-02,2.664797753095626831e-02,-4.382140189409255981e-02,-4.399096965789794922e-02,-2.623741328716278076e-02,3.504213690757751465e-02,-6.955877691507339478e-02,1.419426500797271729e-02,7.852695882320404053e-02,8.610284328460693359e-02,-5.934512987732887268e-02,3.960216045379638672e-02,1.471206545829772949e-03,-6.948343664407730103e-02,-5.253188312053680420e-03,-1.120261847972869873e-02,5.774739384651184082e-02,3.175557404756546021e-02,-1.432286202907562256e-02
-2.401215583086013794e-02,4.677243530750274658e-02,-3.571932017803192139e-02,4.840604960918426514e-03,1.394376158714294434e-04,4.301559925079345703e-02,7.909253239631652832e-02,3.996162116527557373e-02,-1.723020523786544800e-02,4.458643496036529541e-02,-2.290533483028411865e-02,-6.712045520544052124e-02,-3.099052608013153076e-02,2.247802168130874634e-02,3.695585578680038452e-02,4.027324914932250977e-02,-2.101760357618331909e-02,-1.249643415212631226e-02,2.601289004087448120e-02,-3.823568299412727356e-02
8.447007834911346436e-02,1.763515174388885498e-02,4.035374522209167480e-02,5.266740918159484863e-03,-5.467272922396659851e-02,-1.648069173097610474e-02,-2.213474363088607788e-02,2.237387001514434814e-03,4.896368086338043213e-02,-4.554116725921630859e-02,7.291994988918304443e-03,5.964718759059906006e-02,-1.778545975685119629e-02,-4.483178257942199707e-03,-7.055450230836868286e-02,-4.642334207892417908e-02,8.301725983619689941e-02,-3.844076022505760193e-02,2.937427908182144165e-02,-2.799567207694053650e-02
-5.353015288710594177e-02,-4.488267004489898682e-03,3.695391863584518433e-02,-4.928857088088989258e-04,4.808945953845977783e-02,-1.671592146158218384e-02,-4.779035598039627075e-02,5.849041044712066650e-02,-2.346625179052352905e-02,-1.627998054027557373e-02,-2.185291051864624023e-02,-5.028114095330238342e-02,-4.256898537278175354e-02,5.155228078365325928e-02,8.363462984561920166e-02,8.015355467796325684e-02,-6.652363389730453491e-02,8.540970087051391602e-02,-3.460572287440299988e-02,-2.560632303357124329e-02
7.130496948957443237e-02,-1.083497777581214905e-01,1.260294169187545776e-01,6.752678006887435913e-02,-1.416323184967041016e-01,1.388285756111145020e-01,1.537731289863586426e-01,2.165338210761547089e-02,5.979062989354133606e-02,4.495839774608612061e-02,-1.294917017221450806e-01,-5.112989246845245361e-02,-1.103762537240982056e-01,8.181741833686828613e-02,-4.889738187193870544e-02,1.233272477984428406e-01,7.444994151592254639e-02,5.815334245562553406e-02,5.643306672573089600e-02,6.485051009804010391e-03
-1.555925309658050537e-01,7.396361976861953735e-02,6.314636021852493286e-02,-1.359900645911693573e-02,1.124829575419425964e-01,-1.424650847911834717e-01,8.552336134016513824e-03,-6.926696002483367920e-02,1.158967912197113037e-01,-1.335041224956512451e-01,-1.371403187513351440e-01,4.809241741895675659e-02,8.650879561901092529e-02,-3.536563366651535034e-02,-1.018360182642936707e-01,5.064051225781440735e-02,5.506054684519767761e-02,2.401269376277923584e-01,-1.291075944900512695e-01,-8.264881372451782227e-02
-4.463439807295799255e-02,7.522293925285339355e-02,1.242141425609588623e-01,6.364497542381286621e-02,1.449162960052490234e-01,-1.052111759781837463e-01,-1.009346824139356613e-02,-1.003644615411758423e-01,2.652166597545146942e-02,-1.216913312673568726e-01,-8.046709932386875153e-03,6.285627931356430054e-02,1.612200774252414703e-02,5.587295442819595337e-02,-1.234715655446052551e-01,5.088527128100395203e-02,7.933265715837478638e-02,7.482431828975677490e-02,-1.543400734663009644e-01,-7.074330002069473267e-02
8.573827147483825684e-02,9.806771576404571533e-02,-7.235771976411342621e-03,4.558717366307973862e-03,1.665864139795303345e-01,5.251454189419746399e-02,-1.471480876207351685e-01,4.141538962721824646e-02,2.290574163198471069e-01,-1.941006034612655640e-01,-2.103718221187591553e-01,-2.156662642955780029e-01,1.032913550734519958e-01,1.423556655645370483e-01,-2.109636515378952026e-01,-1.473609805107116699e-01,-1.776648610830307007e-01,-9.414535947144031525e-03,1.337367147207260132e-01,3.080807439982891083e-02
-3.239773213863372803e-02,1.936257630586624146e-01,-3.189807012677192688e-02,1.183037180453538895e-03,2.378292679786682129e-01,1.237116754055023193e-01,-1.321740746498107910e-01,1.329554617404937744e-01,2.167518436908721924e-01,-2.167546451091766357e-01,-1.151541024446487427e-01,-1.041442677378654480e-01,-4.146826639771461487e-02,8.822190761566162109e-02,-1.326284408569335938e-01,-1.997363269329071045e-01,-2.077111974358558655e-02,-3.942206129431724548e-02,-8.571547269821166992e-02,2.760515511035919189e-01
1.142076700925827026e-01,6.160370260477066040e-02,6.701038032770156860e-02,2.616228722035884857e-02,2.142225503921508789e-01,2.894825302064418793e-02,6.241273600608110428e-03,9.606515988707542419e-03,1.241701915860176086e-01,-3.302834928035736084e-01,-1.597171574831008911e-01,-7.660200446844100952e-02,-9.354744106531143188e-02,1.344732195138931274e-01,-1.183822304010391235e-01,-1.436700224876403809e-01,-2.421363592147827148e-01,3.208824992179870605e-02,3.974992036819458008e-02,1.092445924878120422e-01
-2.829484343528747559e-01,-2.842009812593460083e-02,-1.045611314475536346e-02,7.384465634822845459e-02,2.033368647098541260e-01,-4.486172273755073547e-02,2.910145185887813568e-02,1.687072366476058960e-01,1.852878034114837646e-01,-4.183471500873565674e-01,-1.630639582872390747e-01,9.517564624547958374e-02,-1.931001991033554077e-01,4.511612355709075928e-01,-2.686647474765777588e-01,-1.271261423826217651e-01,-1.369173973798751831e-01,-8.586093038320541382e-02,1.301916092634201050e-01,4.356095194816589355e-02
-7.458753138780593872e-02,2.478286027908325195e-01,-1.316048353910446167e-01,-9.098450094461441040e-02,3.084010258316993713e-02,-8.334794640541076660e-02,6.926889717578887939e-02,2.739613056182861328e-01,3.012926280498504639e-01,-5.048712491989135742e-01,-1.501578837633132935e-01,-1.254904419183731079e-01,-2.524799406528472900e-01,4.755741953849792480e-01,-4.548403918743133545e-01,-1.426150202751159668e-01,-1.133967041969299316e-01,-1.808739006519317627e-01,4.459593817591667175e-02,1.808353662490844727e-01
-1.862751096487045288e-01,3.814038932323455811e-01,-6.600707024335861206e-02,-5.874047800898551941e-02,1.172759011387825012e-01,-1.409243885427713394e-02,-9.483412839472293854e-03,2.483900338411331177e-01,3.073840439319610596e-01,-4.716441035270690918e-01,-1.223199814558029175e-01,-7.160540670156478882e-02,-2.259373515844345093e-01,4.147290289402008057e-01,-4.582747220993041992e-01,-1.708347946405410767e-01,-1.957298666238784790e-01,-7.351846992969512939e-02,-6.519269943237304688e-02,2.569936215877532959e-01
-2.820509970188140869e-01,3.053272962570190430e-01,5.180942639708518982e-02,4.996595159173011780e-02,3.049001693725585938e-01,-1.234499085694551468e-02,2.017868123948574066e-02,3.127058148384094238e-01,2.349124103784561157e-01,-4.194090962409973145e-01,-3.875236809253692627e-01,3.644542396068572998e-02,-3.464872539043426514e-01,4.003725051879882812e-01,-5.191271305084228516e-01,-2.366386651992797852e-01,-2.624743580818176270e-01,-1.843079775571823120e-01,3.949285671114921570e-02,2.157294452190399170e-01
-1.394503265619277954e-01,3.475156724452972412e-01,6.905823200941085815e-02,1.153484135866165161e-01,2.306214272975921631e-01,-6.631249189376831055e-02,1.003921404480934143e-01,6.075405329465866089e-02,3.379650413990020752e-01,-6.536020636558532715e-01,-4.594928920269012451e-01,1.125940605998039246e-01,-3.456177711486816406e-01,4.539893567562103271e-01,-6.406987905502319336e-01,-6.160885095596313477e-02,-9.697759151458740234e-02,3.156795725226402283e-02,3.929859027266502380e-02,2.585711479187011719e-01
-3.020158708095550537e-01,4.330351352691650391e-01,8.248803019523620605e-02,2.160100489854812622e-01,8.388542570173740387e-03,-5.048854276537895203e-02,2.351010590791702271e-01,2.725680172443389893e-02,3.793515861034393311e-01,-6.597918868064880371e-01,-4.553082585334777832e-01,1.797997206449508667e-01,-6.090089678764343262e-01,3.465150892734527588e-01,-6.507415175437927246e-01,-4.258927330374717712e-02,1.402206625789403915e-02,5.827353335916996002e-03,6.008281931281089783e-02,1.560023277997970581e-01
-1.925751566886901855e-01,2.530658841133117676e-01,1.276545524597167969e-01,1.441525071859359741e-01,3.812044113874435425e-02,1.245711557567119598e-02,1.687809973955154419e-01,3.896590322256088257e-02,2.336990237236022949e-01,-7.346736192703247070e-01,-4.052894115447998047e-01,1.151589378714561462e-01,-3.575875759124755859e-01,2.009295225143432617e-01,-5.401643514633178711e-01,-1.090574860572814941e-01,-1.389891207218170166e-01,1.524450480937957764e-01,4.649081081151962280e-02,2.652466893196105957e-01
-7.478156685829162598e-02,3.061031401157379150e-01,1.693876087665557861e-01,1.767259649932384491e-02,4.985195770859718323e-02,-1.347625721246004105e-02,1.178034394979476929e-01,3.461838513612747192e-02,2.066711634397506714e-01,-6.181066036224365234e-01,-4.359893798828125000e-01,2.255079150199890137e-01,-4.217191338539123535e-01,9.317280352115631104e-02,-4.097198545932769775e-01,-2.768226861953735352e-01,-2.400045543909072876e-01,1.391273587942123413e-01,-1.438796967267990112e-01,2.566598057746887207e-01
2.457630634307861328e-02,2.670226991176605225e-01,1.970390528440475464e-01,1.074133440852165222e-01,1.428614854812622070e-01,-3.793657198548316956e-02,9.639012068510055542e-02,7.785048335790634155e-02,9.328442811965942383e-02,-4.801228642463684082e-01,-2.480462044477462769e-01,5.926162004470825195e-02,-3.424114286899566650e-01,2.879021689295768738e-02,-3.124599754810333252e-01,-2.501638531684875488e-01,-3.182865381240844727e-01,2.100240737199783325e-01,-1.372683495283126831e-01,2.286167740821838379e-01
-6.416476517915725708e-02,2.006070464849472046e-01,3.075873292982578278e-02,4.101718962192535400e-02,2.201069742441177368e-01,2.294293045997619629e-02,-4.909861832857131958e-02,1.356627494096755981e-01,-4.257184639573097229e-02,-4.122943282127380371e-01,-2.518920600414276123e-02,1.395858675241470337e-01,-3.166764378547668457e-01,-1.892575621604919434e-02,-2.692821621894836426e-01,-3.438587784767150879e-01,-2.289539277553558350e-01,2.045833170413970947e-01,-1.256275027990341187e-01,4.020965099334716797e-01
-7.399549707770347595e-03,3.468460142612457275e-01,3.325761854648590088e-02,-5.837706848978996277e-02,3.168438673019409180e-01,4.848439246416091919e-03,-1.537554711103439331e-01,1.932481229305267334e-01,4.960804432630538940e-02,-2.624953687191009521e-01,1.632072329521179199e-01,2.101558893918991089e-01,-4.529307782649993896e-01,6.087923049926757812e-02,-1.132955700159072876e-01,-4.128802716732025146e-01,-1.941184997558593750e-01,1.418303698301315308e-01,-1.515853255987167358e-01,4.783259332180023193e-01
-2.097268700599670410e-01,3.772081732749938965e-01,-9.138218313455581665e-02,-2.551018297672271729e-01,2.425649911165237427e-01,-2.412602119147777557e-02,-2.753205895423889160e-01,1.386105865240097046e-01,-9.347868151962757111e-03,-2.587660551071166992e-01,2.110415250062942505e-01,2.228768914937973022e-01,-4.264430105686187744e-01,1.078254655003547668e-01,-7.405567914247512817e-02,-3.714808523654937744e-01,-1.787398308515548706e-01,3.312870264053344727e-01,-2.247960567474365234e-01,4.469822347164154053e-01
-1.345091611146926880e-01,2.805492877960205078e-01,-2.326677367091178894e-02,-2.265804409980773926e-01,1.891053020954132080e-01,1.127706244587898254e-01,-3.128952682018280029e-01,1.512566655874252319e-01,8.317900449037551880e-02,-2.763553857803344727e-01,1.811307966709136963e-01,2.303065359592437744e-01,-2.123554646968841553e-01,5.254507437348365784e-02,5.659403651952743530e-02,-2.688676118850708008e-01,-2.625078856945037842e-01,3.096179664134979248e-01,-1.906358003616333008e-01,3.295028209686279297e-01
-1.563178747892379761e-01,2.446781992912292480e-01,2.431653253734111786e-02,-1.507172435522079468e-01,2.000627815723419189e-01,-3.629965707659721375e-02,-2.728333771228790283e-01,7.909502834081649780e-02,-8.062639087438583374e-02,-3.185636103153228760e-01,2.848690152168273926e-01,1.157291606068611145e-01,-2.150185555219650269e-01,1.006180699914693832e-02,-1.109377220273017883e-01,-3.004946410655975342e-01,-1.585004180669784546e-01,2.591567635536193848e-01,-2.949000597000122070e-01,2.397774159908294678e-01
-1.309728622436523438e-01,3.077044486999511719e-01,-1.822311580181121826e-01,-4.296768903732299805e-01,1.368059776723384857e-02,-1.106723863631486893e-02,-2.135259062051773071e-01,8.378277719020843506e-02,5.818595364689826965e-02,-1.953186243772506714e-01,3.905568420886993408e-01,1.162964105606079102e-01,-3.260599672794342041e-01,-6.537238508462905884e-02,-1.367038041353225708e-01,-1.427055150270462036e-01,-1.148156672716140747e-01,2.372155934572219849e-01,-3.580448925495147705e-01,3.127479851245880127e-01
-8.825856260955333710e-03,2.762707769870758057e-01,-4.181050509214401245e-02,-3.487048745155334473e-01,4.945588111877441406e-02,8.787292242050170898e-02,-2.291290163993835449e-01,4.583429917693138123e-02,-3.480213135480880737e-02,-4.076350927352905273e-01,2.569774687290191650e-01,3.168534860014915466e-02,-1.216427683830261230e-01,-8.069511502981185913e-02,-8.044746518135070801e-02,-1.469061970710754395e-01,3.478930145502090454e-02,3.334646672010421753e-02,-2.380179464817047119e-01,1.264728903770446777e-01
-7.713784463703632355e-03,1.698724180459976196e-01,-1.436375267803668976e-02,-2.257270067930221558e-01,5.741073191165924072e-02,4.248052835464477539e-02,-1.239001005887985229e-01,1.500487029552459717e-01,-1.285874657332897186e-02,-3.407634496688842773e-01,1.433999091386795044e-01,3.504549339413642883e-02,-6.214103847742080688e-02,9.157502651214599609e-02,-8.091989159584045410e-02,-1.528631895780563354e-01,-4.813912510871887207e-02,5.737160099670290947e-04,-2.746953070163726807e-01,5.022224038839340210e-02
4.151212424039840698e-02,8.348482847213745117e-02,-5.873682722449302673e-02,-1.227297447621822357e-02,4.451280459761619568e-02,5.014570802450180054e-02,-6.966903060674667358e-02,7.333239912986755371e-02,-1.600316539406776428e-02,-2.526123523712158203e-01,-6.639924645423889160e-02,-5.598094314336776733e-02,-1.215653195977210999e-01,-1.115952059626579285e-01,-5.564562976360321045e-02,-4.766843840479850769e-02,-1.401401963084936142e-02,2.839709818363189697e-02,3.750001266598701477e-02,9.648762643337249756e-02
-9.745684266090393066e-02,1.184216290712356567e-01,-1.248287856578826904e-01,-2.081690877676010132e-01,5.292797088623046875e-02,-9.641022980213165283e-02,-8.075056225061416626e-02,9.429509937763214111e-02,2.411875687539577484e-02,4.562436137348413467e-03,8.128692954778671265e-02,1.279921233654022217e-01,-8.484349399805068970e-02,3.694294765591621399e-02,-6.953366100788116455e-02,2.502398937940597534e-02,-1.115654185414314270e-01,-2.525539323687553406e-02,-1.448481827974319458e-01,-1.635450124740600586e-02
-5.265281721949577332e-02,3.549121320247650146e-02,-3.560558706521987915e-02,3.632587939500808716e-02,-3.740118443965911865e-02,-4.432901740074157715e-02,3.677619248628616333e-02,-5.457893386483192444e-02,-7.433491945266723633e-02,-3.141301870346069336e-02,-6.263802945613861084e-02,-5.405455455183982849e-02,8.576968312263488770e-02,-8.267812430858612061e-02,-4.185738787055015564e-02,-2.774237841367721558e-02,-8.408420532941818237e-02,-7.617391645908355713e-02,2.818202227354049683e-02,-3.707232698798179626e-02
8.417208492755889893e-02,-1.215309649705886841e-02,-6.127044558525085449e-02,-5.347318574786186218e-02,8.269068598747253418e-02,4.795548319816589355e-02,3.082790225744247437e-02,-8.353479206562042236e-03,-6.776124238967895508e-02,-3.772998601198196411e-02,9.343974292278289795e-03,2.389545738697052002e-02,-7.326420396566390991e-02,-8.106856793165206909e-02,3.593631088733673096e-03,-9.180709719657897949e-03,8.016739785671234131e-02,-6.592393666505813599e-02,-3.637003526091575623e-02,-5.253704637289047241e-02
-1.286944467574357986e-02,-2.195615787059068680e-03,7.341899722814559937e-02,7.750526815652847290e-02,5.491685494780540466e-02,-2.763583511114120483e-02,-3.925115242600440979e-02,-8.699817210435867310e-02,-1.212732866406440735e-01,1.882433891296386719e-03,-6.846798211336135864e-02,-1.182813290506601334e-02,-2.354586869478225708e-02,-4.917786642909049988e-02,1.056817844510078430e-01,-4.873146116733551025e-02,1.698115142062306404e-03,5.134025216102600098e-02,1.262218803167343140e-01,-3.596987202763557434e-02
1.215428784489631653e-01,-1.065064128488302231e-02,9.789700806140899658e-02,1.582057774066925049e-01,-1.196433082222938538e-01,6.809815764427185059e-02,5.566689651459455490e-03,-6.306571513414382935e-02,3.767622634768486023e-02,-6.081110611557960510e-02,3.868304193019866943e-02,-3.784269094467163086e-02,7.826642692089080811e-02,-9.148535877466201782e-02,9.035074710845947266e-02,1.373610794544219971e-01,-2.118264511227607727e-02,3.503115847706794739e-02,-9.837609715759754181e-03,-1.182134542614221573e-02
4.653307795524597168e-02,-2.993394620716571808e-02,1.047124341130256653e-01,7.766973972320556641e-02,9.352421015501022339e-02,-6.955971568822860718e-02,-5.056489631533622742e-02,-1.380134820938110352e-01,6.518069654703140259e-02,-1.120440065860748291e-01,-1.250210851430892944e-01,1.276619881391525269e-01,9.061536192893981934e-02,1.320410221815109253e-01,-6.188403442502021790e-02,-2.406159602105617523e-02,6.934188306331634521e-02,1.136327087879180908e-01,6.121757254004478455e-02,-8.651298284530639648e-02
1.242479383945465088e-01,-2.154694348573684692e-01,-3.711602475959807634e-04,7.685856521129608154e-02,1.369958966970443726e-01,1.531466543674468994e-01,8.331453055143356323e-02,-5.197558924555778503e-02,1.281071305274963379e-01,1.645443588495254517e-01,-8.204591274261474609e-02,-1.242809891700744629e-01,7.865571975708007812e-02,5.247680470347404480e-02,-4.525586217641830444e-02,-1.772222071886062622e-01,-2.342745065689086914e-01,7.004605233669281006e-02,1.578016877174377441e-01,-2.794926799833774567e-02
1.580825895071029663e-01,-3.111028298735618591e-02,2.617718838155269623e-02,1.426622569561004639e-01,1.551245152950286865e-01,8.799513429403305054e-02,-2.749842777848243713e-02,6.404544413089752197e-02,1.804922223091125488e-01,-9.784967452287673950e-02,-1.285361200571060181e-01,-7.456044107675552368e-02,3.202487900853157043e-02,1.045014411211013794e-01,4.562674462795257568e-02,-1.618218570947647095e-01,-2.473932355642318726e-01,-1.508793793618679047e-02,2.636052072048187256e-01,-6.223904341459274292e-02
7.974135875701904297e-02,4.417724441736936569e-03,-7.874677330255508423e-02,1.390869915485382080e-01,8.951382339000701904e-02,-6.842298805713653564e-02,1.031450629234313965e-01,1.140634045004844666e-01,1.459121257066726685e-01,3.212992474436759949e-02,-1.621516048908233643e-01,-4.839400760829448700e-03,4.547640308737754822e-02,1.786129772663116455e-01,7.469942793250083923e-03,-1.032515764236450195e-01,-1.276417672634124756e-01,7.485925406217575073e-02,2.485263794660568237e-01,-6.314215064048767090e-02
1.276523433625698090e-02,-5.233003199100494385e-02,2.781629003584384918e-02,5.668406561017036438e-02,5.457882955670356750e-02,-7.033503800630569458e-02,1.246426533907651901e-02,1.051755696535110474e-01,1.315699219703674316e-01,-2.812755294144153595e-02,-2.082273513078689575e-01,2.364500612020492554e-02,-5.197710543870925903e-02,2.188720256090164185e-01,-1.550499629229307175e-02,-2.313635349273681641e-01,-1.708786934614181519e-01,-4.775304347276687622e-02,1.725113689899444580e-01,-1.884197294712066650e-01
1.579821407794952393e-01,8.071050047874450684e-02,6.123474612832069397e-02,1.749820709228515625e-01,1.748298704624176025e-01,-9.539165534079074860e-03,5.001525953412055969e-02,1.015497520565986633e-01,1.522428095340728760e-01,2.475891262292861938e-02,-2.627810239791870117e-01,-1.344121992588043213e-01,-2.658061310648918152e-02,2.455916404724121094e-01,-1.608139276504516602e-01,-3.933422863483428955e-01,-1.307991892099380493e-01,3.631750494241714478e-02,1.992153376340866089e-01,-8.431869745254516602e-02
9.372296184301376343e-02,2.188039422035217285e-01,-5.263527855277061462e-02,1.728330403566360474e-01,3.835139796137809753e-02,-1.615578234195709229e-01,9.947557747364044189e-02,2.711190581321716309e-01,2.693449258804321289e-01,-1.737344264984130859e-01,-2.974354624748229980e-01,-1.645847596228122711e-02,-1.625177711248397827e-01,2.903827428817749023e-01,-2.141791582107543945e-01,-2.269168645143508911e-01,-5.688073113560676575e-02,-2.192096859216690063e-01,2.475618273019790649e-01,8.118071407079696655e-02
7.025144994258880615e-02,3.061351180076599121e-01,9.280004352331161499e-02,1.832657754421234131e-01,1.235350444912910461e-01,-1.386409997940063477e-01,-2.942785061895847321e-02,2.335281074047088623e-01,1.324989348649978638e-01,-2.060470283031463623e-01,-2.753682136535644531e-01,-5.274640768766403198e-02,-8.831034600734710693e-02,3.389700055122375488e-01,-1.954108774662017822e-01,-2.659527659416198730e-01,-1.486216336488723755e-01,-4.803428053855895996e-02,1.591418534517288208e-01,5.893205106258392334e-02
1.289172936230897903e-02,2.527553737163543701e-01,7.018364965915679932e-02,1.525612622499465942e-01,9.813235700130462646e-02,-2.166983783245086670e-01,4.513787850737571716e-02,6.566669046878814697e-02,-8.286290802061557770e-03,-2.360796034336090088e-01,-2.862197756767272949e-01,4.789333418011665344e-02,-8.879270404577255249e-02,3.982996344566345215e-01,-7.276284694671630859e-02,-2.479099035263061523e-01,-1.013993397355079651e-01,-1.313271969556808472e-01,7.118479162454605103e-02,-5.240995436906814575e-02
1.350580155849456787e-01,3.637727499008178711e-01,1.747869551181793213e-01,2.469289153814315796e-01,-2.573220990598201752e-03,-2.438472807407379150e-01,2.443909496068954468e-01,1.621996015310287476e-01,4.967300593852996826e-02,-3.631483614444732666e-01,-2.669517397880554199e-01,2.169449115172028542e-03,-1.255499720573425293e-01,2.048018276691436768e-01,-3.547938913106918335e-02,-2.096535861492156982e-01,2.336138859391212463e-02,-7.310527563095092773e-02,9.867404401302337646e-02,-1.798288710415363312e-02
1.690127998590469360e-01,2.983098924160003662e-01,1.717721372842788696e-01,2.752843201160430908e-01,-2.876196429133415222e-02,-1.678710281848907471e-01,1.097260266542434692e-01,1.123417094349861145e-01,2.141157165169715881e-02,-3.604316115379333496e-01,-9.678874164819717407e-02,6.412227451801300049e-02,-1.615287810564041138e-01,1.441134661436080933e-01,-2.272788733243942261e-01,-2.465603500604629517e-01,1.147892978042364120e-02,7.414816319942474365e-02,8.226457238197326660e-02,-3.652375936508178711e-02
8.743853121995925903e-02,3.727420866489410400e-01,1.789641678333282471e-01,3.677772879600524902e-01,-8.373191952705383301e-02,-1.819322854280471802e-01,1.602807492017745972e-01,2.033597975969314575e-02,-1.684610992670059204e-01,-4.461751282215118408e-01,-6.207968667149543762e-02,-3.588626906275749207e-02,-1.605209410190582275e-01,1.972090005874633789e-01,-1.178565323352813721e-01,-2.084612101316452026e-01,1.364815384149551392e-01,5.729384347796440125e-02,5.819370970129966736e-02,-1.393298655748367310e-01
1.179917082190513611e-01,3.270934820175170898e-01,1.154623255133628845e-01,2.378283739089965820e-01,-3.560065478086471558e-02,-7.735992968082427979e-02,1.674174815416336060e-01,6.718572974205017090e-02,-4.851866513490676880e-02,-4.315389394760131836e-01,-1.215829774737358093e-01,1.630608886480331421e-01,-1.946707516908645630e-01,2.770308852195739746e-01,-2.120535671710968018e-01,-2.931510806083679199e-01,1.383625864982604980e-01,1.162382587790489197e-01,2.200979553163051605e-02,-1.136891916394233704e-01
8.622974902391433716e-02,4.664611816406250000e-01,8.746046572923660278e-02,1.033982038497924805e-01,-4.709213506430387497e-03,-4.219353199005126953e-02,1.390773355960845947e-01,1.266262531280517578e-01,-7.435887306928634644e-02,-3.688388168811798096e-01,1.030491292476654053e-02,2.193789929151535034e-01,-2.396460026502609253e-01,2.041734308004379272e-01,-4.111529514193534851e-02,-3.807263374328613281e-01,-1.245239865966141224e-03,1.578507870435714722e-01,-9.373581036925315857e-03,-4.511979594826698303e-02
1.008186489343643188e-01,3.621323704719543457e-01,6.822899729013442993e-02,-8.622170984745025635e-02,2.013191208243370056e-02,7.308764755725860596e-02,1.338671296834945679e-01,8.813259005546569824e-02,-8.927993476390838623e-02,-2.578916251659393311e-01,1.434736102819442749e-01,2.764300107955932617e-01,-3.072000741958618164e-01,7.146439701318740845e-02,-6.473817676305770874e-02,-3.116258382797241211e-01,9.373831748962402344e-02,5.892179533839225769e-02,-1.303533315658569336e-01,5.096862465143203735e-02
-6.857739295810461044e-03,3.288234472274780273e-01,9.330234676599502563e-02,-9.984830021858215332e-02,8.741838485002517700e-02,5.041177500970661640e-04,-5.574059486389160156e-02,1.586154550313949585e-01,-4.305104911327362061e-02,-2.313048541545867920e-01,1.604737490415573120e-01,1.311804950237274170e-01,-1.387733966112136841e-01,1.861374676227569580e-01,5.039067938923835754e-02,-3.925549089908599854e-01,-5.511764809489250183e-02,1.225239187479019165e-01,-4.033255577087402344e-02,9.768630564212799072e-02
4.502634331583976746e-02,1.122291088104248047e-01,1.373427659273147583e-01,-9.920471161603927612e-02,1.671808958053588867e-01,6.240383535623550415e-02,3.257376328110694885e-02,1.271309852600097656e-01,9.738194942474365234e-02,-1.184648647904396057e-01,1.403367072343826294e-01,2.161968201398849487e-01,-2.038929015398025513e-01,-1.912718056701123714e-03,-1.285856962203979492e-01,-2.767132818698883057e-01,-1.297808289527893066e-01,2.178773283958435059e-02,-1.272437572479248047e-01,4.025957360863685608e-02
9.241192787885665894e-02,2.039450407028198242e-01,-6.965384632349014282e-02,-1.082231178879737854e-01,7.236766815185546875e-02,1.335310339927673340e-01,-4.407515376806259155e-02,1.556733548641204834e-01,-1.981823891401290894e-02,-2.883222401142120361e-01,1.223138347268104553e-01,1.520395874977111816e-01,-2.513960897922515869e-01,-1.220194343477487564e-02,-2.123847603797912598e-01,-2.590245008468627930e-01,-9.455077350139617920e-02,1.902055293321609497e-01,-2.840044498443603516e-01,7.043649256229400635e-02
9.296102076768875122e-02,2.187457084655761719e-01,-5.605496838688850403e-02,-2.187515199184417725e-01,9.791903942823410034e-02,-6.399133056402206421e-02,-1.587591320276260376e-01,-1.868981309235095978e-02,-1.280573755502700806e-01,-2.438903599977493286e-01,2.173891514539718628e-01,2.153827548027038574e-01,-1.746556907892227173e-01,5.293899029493331909e-02,-1.773242205381393433e-01,-2.096275389194488525e-01,2.501167729496955872e-02,8.075732737779617310e-02,-2.719893157482147217e-01,-6.973125785589218140e-02
2.171520702540874481e-02,1.999091655015945435e-01,-7.002082467079162598e-02,-2.071220278739929199e-01,1.733552366495132446e-01,1.149664446711540222e-01,-2.527983188629150391e-01,7.322692126035690308e-02,1.408996712416410446e-02,-2.320366948843002319e-01,1.495084911584854126e-01,1.392564773559570312e-01,-8.488261699676513672e-02,2.508568204939365387e-02,-1.436339020729064941e-01,-2.097546011209487915e-01,-7.720108330249786377e-02,1.507714688777923584e-01,-2.754676938056945801e-01,-8.973112702369689941e-02
-6.469527631998062134e-02,9.505112469196319580e-02,-1.470936983823776245e-01,-2.607300579547882080e-01,9.177605062723159790e-02,1.119871512055397034e-01,-2.344009578227996826e-01,1.486106812953948975e-01,-2.791710011661052704e-02,-1.387248635292053223e-01,1.514901220798492432e-01,6.450450420379638672e-02,8.234225679188966751e-04,2.751230821013450623e-02,-2.816079556941986084e-01,-4.878750815987586975e-02,-8.984685689210891724e-02,2.509971335530281067e-02,-3.427385091781616211e-01,2.100365003570914268e-03
6.907397508621215820e-02,8.381832391023635864e-03,-1.676781773567199707e-01,-2.769274115562438965e-01,6.988944113254547119e-02,-4.249003157019615173e-02,-3.536761403083801270e-01,4.924743622541427612e-02,-8.468928933143615723e-02,-1.046804264187812805e-01,2.588883042335510254e-01,1.486440002918243408e-01,7.669718563556671143e-02,-1.118620485067367554e-02,6.896811723709106445e-02,-1.591571718454360962e-01,-1.281384378671646118e-01,9.964614361524581909e-02,-1.985136717557907104e-01,1.714536175131797791e-02
-2.182704024016857147e-02,1.784972399473190308e-01,-2.008752822875976562e-01,-6.073933839797973633e-02,1.339142769575119019e-01,-1.133948788046836853e-01,-3.427731692790985107e-01,8.892186731100082397e-02,-1.508823484182357788e-01,-1.501720845699310303e-01,2.739217281341552734e-01,-4.678397253155708313e-02,-7.603240758180618286e-02,4.262153431773185730e-02,1.140610650181770325e-01,-1.227406561374664307e-01,-5.438151955604553223e-02,-6.933773308992385864e-02,6.863951683044433594e-02,3.852305188775062561e-02
1.467881500720977783e-01,1.770978122949600220e-01,1.511547118425369263e-01,3.198716416954994202e-02,-1.396678984165191650e-01,-2.125206589698791504e-01,-1.287969946861267090e-01,-7.934705168008804321e-02,-6.161623448133468628e-02,-6.226038932800292969e-02,9.815337508916854858e-02,7.591644674539566040e-02,-3.483333811163902283e-02,2.380824238061904907e-01,6.670605391263961792e-02,1.562251150608062744e-01,9.368522465229034424e-02,-1.224001795053482056e-01,-1.054474785923957825e-01,5.382714048027992249e-02
6.976276636123657227e-02,1.376460790634155273e-01,2.247896231710910797e-02,6.099471822381019592e-02,1.208336055278778076e-01,-3.041175566613674164e-02,-1.445982903242111206e-01,3.483316674828529358e-02,7.174268364906311035e-02,-9.405221045017242432e-02,1.244225353002548218e-02,5.334297567605972290e-02,-7.475556433200836182e-02,-5.871455371379852295e-02,-3.560146316885948181e-02,3.562008729204535484e-03,4.010485857725143433e-02,-1.170528531074523926e-01,-2.893087826669216156e-02,-5.436383932828903198e-02
-7.614983618259429932e-02,-8.020956069231033325e-02,-4.155384004116058350e-02,9.856246411800384521e-03,4.839169979095458984e-02,-1.520781964063644409e-02,8.135963976383209229e-02,-3.298525139689445496e-02,-7.470557093620300293e-02,6.035195291042327881e-02,-1.421052962541580200e-02,-1.555653661489486694e-02,-5.729786306619644165e-02,1.142025738954544067e-02,8.014976978302001953e-02,-6.267506629228591919e-02,-6.169618666172027588e-02,-1.559461653232574463e-02,7.241342961788177490e-02,1.170032471418380737e-02
-8.090291172266006470e-02,-4.064872860908508301e-03,-2.771202102303504944e-02,7.001690566539764404e-03,-2.736434340476989746e-03,8.281739056110382080e-02,-5.487780645489692688e-02,2.771704643964767456e-02,-5.140371620655059814e-02,-2.776147052645683289e-02,-7.526137679815292358e-02,-1.129587739706039429e-02,-2.620056644082069397e-02,4.836472868919372559e-02,2.770686894655227661e-02,2.460405230522155762e-02,-1.678903400897979736e-02,-5.827103555202484131e-02,-2.728615328669548035e-02,-4.930683597922325134e-02
6.950560212135314941e-02,1.146088987588882446e-01,1.235320232808589935e-03,-5.646388232707977295e-02,-1.139195170253515244e-02,-5.943890288472175598e-02,1.144915223121643066e-01,4.641384351998567581e-03,1.569221466779708862e-01,-6.196825578808784485e-02,-1.685677468776702881e-01,-1.055297404527664185e-01,-8.867994695901870728e-02,7.170908618718385696e-03,-4.942790046334266663e-02,3.304890170693397522e-02,4.598215222358703613e-02,1.983952522277832031e-01,2.149611711502075195e-02,7.208741270005702972e-03
2.741856686770915985e-02,2.578325010836124420e-02,5.197507515549659729e-02,1.239968389272689819e-01,1.722272858023643494e-02,-1.032750532031059265e-01,1.186797395348548889e-01,-2.010354585945606232e-02,-2.629926661029458046e-03,1.353897713124752045e-02,-6.810641288757324219e-02,4.108218848705291748e-02,-8.241247385740280151e-02,1.667546629905700684e-01,-4.616625607013702393e-02,8.425760269165039062e-02,1.808219589293003082e-02,-5.109835788607597351e-02,2.361441254615783691e-01,-8.751111477613449097e-02
2.036635130643844604e-01,-6.736432015895843506e-02,5.613793153315782547e-03,1.749216169118881226e-01,5.823026970028877258e-02,1.576114147901535034e-01,3.449846431612968445e-02,-1.167795136570930481e-01,2.189867496490478516e-01,7.684852927923202515e-02,-1.784885525703430176e-01,-2.966794930398464203e-02,7.219930738210678101e-02,1.235800236463546753e-01,-4.752146452665328979e-02,-2.398217469453811646e-01,-1.613883972167968750e-01,7.688590139150619507e-02,2.246083319187164307e-01,-2.499912232160568237e-01
1.256616711616516113e-01,-1.800101548433303833e-01,5.797512456774711609e-02,1.108593568205833435e-01,8.035935461521148682e-02,1.848658472299575806e-01,1.259028911590576172e-02,-9.498805552721023560e-02,1.079201847314834595e-01,1.790972948074340820e-01,-1.777594685554504395e-01,8.622284978628158569e-02,2.843532338738441467e-02,1.761244535446166992e-01,1.993669569492340088e-02,-3.692108988761901855e-01,-1.791589260101318359e-01,1.558665186166763306e-01,4.089193642139434814e-01,-3.476052731275558472e-02
2.365633398294448853e-01,-1.799809187650680542e-01,-4.318371042609214783e-02,1.545903682708740234e-01,9.169875830411911011e-02,1.667005121707916260e-01,-4.499383643269538879e-02,-2.127275243401527405e-02,1.211934164166450500e-01,-5.689334124326705933e-02,-4.654936864972114563e-02,-8.367978967726230621e-03,-6.855412572622299194e-02,5.657049268484115601e-02,5.652872473001480103e-02,-2.987894415855407715e-01,-1.911681294441223145e-01,5.850721895694732666e-02,2.953252792358398438e-01,-6.802691519260406494e-02
1.402000188827514648e-01,-1.846909075975418091e-01,-4.297678545117378235e-02,2.324797660112380981e-01,-6.719669699668884277e-02,1.869083046913146973e-01,-2.245133370161056519e-02,8.070448040962219238e-02,4.491296783089637756e-02,-2.225105278193950653e-02,-1.312231868505477905e-01,3.733006492257118225e-02,-7.469804584980010986e-02,1.509470641613006592e-01,8.454460650682449341e-02,-3.323316276073455811e-01,-1.375768482685089111e-01,-6.069767847657203674e-02,2.254627197980880737e-01,9.616405516862869263e-02
1.414817422628402710e-01,-7.429596781730651855e-02,-8.407457917928695679e-02,1.823801100254058838e-01,1.193100586533546448e-01,1.612122952938079834e-01,-8.782459795475006104e-02,1.949425041675567627e-01,3.558334708213806152e-02,4.233244061470031738e-02,-1.503462810069322586e-02,-8.324071019887924194e-02,-1.904706656932830811e-01,1.897032111883163452e-01,1.497819721698760986e-01,-2.452079802751541138e-01,-1.194187328219413757e-01,-3.585138916969299316e-02,2.142253369092941284e-01,1.961175054311752319e-01
6.925155222415924072e-02,1.086316853761672974e-01,-2.733010984957218170e-02,3.705685213208198547e-02,5.579595640301704407e-02,1.234154962003231049e-02,-1.366272289305925369e-02,2.177347838878631592e-01,-2.508945763111114502e-02,-1.607127189636230469e-01,-4.926468059420585632e-02,-3.738606721162796021e-02,-1.007995903491973877e-01,2.594626247882843018e-01,1.244222596287727356e-01,-3.484690189361572266e-01,-9.574487060308456421e-02,-1.671224087476730347e-01,9.987812489271163940e-02,1.646149903535842896e-01
-7.612009346485137939e-02,9.450016170740127563e-02,-8.614459633827209473e-02,2.560862526297569275e-02,1.589760780334472656e-01,-1.012053564190864563e-01,7.854532450437545776e-02,1.550766080617904663e-01,-6.146515905857086182e-02,-2.113821059465408325e-01,-1.031241100281476974e-02,-8.724652975797653198e-02,-4.008055105805397034e-02,3.747226595878601074e-01,5.121777579188346863e-02,-2.550288438796997070e-01,6.223304569721221924e-02,-5.500249937176704407e-02,1.688876152038574219e-01,8.228863030672073364e-02
1.619922667741775513e-01,1.693312525749206543e-01,8.810970932245254517e-02,2.656611800193786621e-02,1.899402402341365814e-02,-1.578218489885330200e-01,-2.192810364067554474e-02,1.925215590745210648e-03,-1.995359957218170166e-01,-2.185403406620025635e-01,1.279534697532653809e-01,-6.352350860834121704e-02,8.204907923936843872e-02,2.245785742998123169e-01,1.648701131343841553e-01,-9.485278278589248657e-02,2.404179275035858154e-01,-6.719239056110382080e-02,4.986848682165145874e-02,3.711538389325141907e-02
1.312499195337295532e-01,2.798388004302978516e-01,-1.474156323820352554e-02,1.058308593928813934e-02,5.835536122322082520e-02,-1.085880622267723083e-01,8.172123134136199951e-02,2.726026624441146851e-02,-1.989526599645614624e-01,-2.343775629997253418e-01,5.725832656025886536e-02,-9.454732388257980347e-02,6.134267151355743408e-02,1.940990388393402100e-01,2.054223092272877693e-03,-1.057309433817863464e-01,1.478945761919021606e-01,-6.483616679906845093e-02,6.556432694196701050e-02,5.097303912043571472e-02
6.669234484434127808e-02,1.827901601791381836e-01,1.676397919654846191e-01,1.733681112527847290e-01,2.198168821632862091e-02,-1.124583408236503601e-01,1.033833324909210205e-01,5.304410681128501892e-02,-2.210585474967956543e-01,-4.128040969371795654e-01,9.021086990833282471e-02,-6.679999828338623047e-02,1.443825960159301758e-01,1.399607658386230469e-01,-1.195121090859174728e-02,-1.062081307172775269e-01,2.948304712772369385e-01,-5.197174102067947388e-02,-3.223354741930961609e-02,8.227827027440071106e-03
5.876740440726280212e-02,1.851361989974975586e-01,6.645970046520233154e-02,1.679248213768005371e-01,-5.689667165279388428e-02,-8.070925623178482056e-02,1.317109167575836182e-01,1.812523156404495239e-01,-2.111129611730575562e-01,-2.962452471256256104e-01,2.246106415987014771e-02,-1.066322065889835358e-02,1.223383098840713501e-01,1.512993276119232178e-01,6.542611867189407349e-03,-1.508592367172241211e-01,3.161312639713287354e-01,-1.460962444543838501e-01,9.200862795114517212e-02,-1.763178706169128418e-01
2.614652179181575775e-02,1.492242515087127686e-01,2.097290903329849243e-01,1.395287215709686279e-01,2.500955946743488312e-02,-3.894584253430366516e-02,1.521533131599426270e-01,1.478412002325057983e-01,-1.162372380495071411e-01,-2.080068439245223999e-01,-7.511362899094820023e-03,-7.281617820262908936e-02,1.386438757181167603e-01,8.413106948137283325e-02,-9.676327556371688843e-02,-2.272889018058776855e-01,2.327691614627838135e-01,9.891969151794910431e-03,6.652300059795379639e-02,-3.276677727699279785e-01
9.368044883012771606e-02,2.201642841100692749e-01,1.846752315759658813e-01,2.468017190694808960e-01,-1.056899204850196838e-01,1.086167767643928528e-01,2.074492722749710083e-01,1.698613613843917847e-01,-4.710038378834724426e-02,-2.516337037086486816e-01,6.798943132162094116e-02,6.961488630622625351e-03,-9.922730922698974609e-02,1.582368910312652588e-01,-1.205877438187599182e-01,-1.909604519605636597e-01,1.203869208693504333e-01,2.416486851871013641e-02,-3.231644257903099060e-02,-3.414121270179748535e-01
7.962203770875930786e-02,2.967990040779113770e-01,1.142433285713195801e-01,4.582550749182701111e-02,-1.123172789812088013e-01,9.030397981405258179e-02,1.079420447349548340e-01,2.793191969394683838e-01,-2.504427172243595123e-02,-3.697601258754730225e-01,1.793030202388763428e-01,1.405350863933563232e-01,-9.045934677124023438e-02,1.172712817788124084e-01,5.572034791111946106e-02,-1.852995902299880981e-01,1.947919130325317383e-01,-9.049109369516372681e-02,-6.857998669147491455e-02,-1.952068954706192017e-01
-7.874713838100433350e-02,2.651975750923156738e-01,5.173046514391899109e-02,4.817597568035125732e-02,1.528758648782968521e-02,1.310565769672393799e-01,1.310522258281707764e-01,2.530606389045715332e-01,-1.299841552972793579e-01,-3.468212485313415527e-01,1.998426318168640137e-01,2.380171567201614380e-01,5.913129821419715881e-02,1.325377523899078369e-01,1.467993948608636856e-03,-2.321497946977615356e-01,9.256877750158309937e-02,-4.809306561946868896e-02,-9.720215201377868652e-02,-3.270705342292785645e-01
5.660878494381904602e-02,2.656973004341125488e-01,1.008479595184326172e-01,-1.315811276435852051e-02,1.993918716907501221e-01,8.848757296800613403e-02,-7.189230527728796005e-03,1.238903775811195374e-01,-6.251914799213409424e-02,-2.498286664485931396e-01,7.340796291828155518e-02,2.712122797966003418e-01,-1.470756134949624538e-03,9.333091974258422852e-02,-1.971019953489303589e-01,-1.465923637151718140e-01,3.530606254935264587e-02,3.662769868969917297e-02,-7.352749258279800415e-02,-2.303824722766876221e-01
7.437124103307723999e-02,3.831738233566284180e-01,1.549280285835266113e-01,-7.833998650312423706e-02,3.536669909954071045e-02,5.735785141587257385e-02,-1.428467333316802979e-01,1.560612618923187256e-01,-1.146533433347940445e-02,-2.361425012350082397e-01,1.873456239700317383e-01,1.591127663850784302e-01,-4.914366081357002258e-02,5.580705404281616211e-02,-1.253269463777542114e-01,-2.533860690891742706e-02,-6.891144812107086182e-02,2.263830602169036865e-02,-2.948353290557861328e-01,-2.673600614070892334e-01
1.896385103464126587e-01,4.381605982780456543e-01,7.610335946083068848e-02,-6.788204610347747803e-02,-4.463156312704086304e-02,2.157926186919212341e-02,1.429731585085391998e-02,5.070827901363372803e-02,7.840994000434875488e-02,-1.538925617933273315e-01,1.622933000326156616e-01,6.645181775093078613e-02,-1.214676573872566223e-01,4.675886034965515137e-02,-1.482520848512649536e-01,1.595198176801204681e-02,-5.955746397376060486e-02,3.487409651279449463e-02,-3.097574412822723389e-01,-2.582836747169494629e-01
1.435094326734542847e-01,2.929909527301788330e-01,9.174051880836486816e-02,-9.488742798566818237e-03,-4.371325299143791199e-02,-4.797481000423431396e-02,1.995719969272613525e-02,1.170039102435112000e-01,9.253767319023609161e-03,-4.577677324414253235e-02,1.135717183351516724e-01,1.764650344848632812e-01,-6.658371537923812866e-02,-5.926752462983131409e-02,-1.443076580762863159e-01,-4.985691513866186142e-03,-6.891774386167526245e-02,5.334619432687759399e-02,-2.922057509422302246e-01,-2.904332876205444336e-01
4.189943149685859680e-02,2.601478099822998047e-01,-5.124124139547348022e-02,-1.457006782293319702e-01,6.079297512769699097e-02,1.230759322643280029e-01,-9.756551682949066162e-02,1.169393360614776611e-01,4.232822731137275696e-02,9.337551891803741455e-02,2.524007558822631836e-01,1.509381085634231567e-01,-1.341319531202316284e-01,-1.632748730480670929e-02,-2.627014815807342529e-01,-3.041202668100595474e-03,-1.781052649021148682e-01,1.063323244452476501e-01,-2.842782437801361084e-01,-3.130288720130920410e-01
5.853534117341041565e-02,1.521316170692443848e-01,-1.142912358045578003e-01,-1.474324613809585571e-01,1.148662716150283813e-01,6.510483566671609879e-03,-1.342494636774063110e-01,9.250162541866302490e-02,1.330306082963943481e-01,4.132396727800369263e-02,2.068843245506286621e-01,-2.269124798476696014e-02,-6.974963098764419556e-02,-9.039634466171264648e-02,-5.101681128144264221e-02,-1.262024044990539551e-01,-1.804123669862747192e-01,1.386510580778121948e-01,-3.467302620410919189e-01,-3.089939057826995850e-01
1.384874731302261353e-01,2.555917501449584961e-01,-9.075314551591873169e-02,-1.175636798143386841e-01,-2.343928441405296326e-02,-1.695208251476287842e-01,-1.125858500599861145e-01,7.981923967599868774e-02,-1.024458929896354675e-01,-7.026737555861473083e-03,2.764279842376708984e-01,1.169163882732391357e-01,-2.390811741352081299e-01,1.684370338916778564e-01,6.706671416759490967e-02,1.818143203854560852e-02,-1.284435670822858810e-02,6.441539525985717773e-02,-1.125603988766670227e-01,-1.553391069173812866e-01
1.247509103268384933e-02,3.483279347419738770e-01,3.271267935633659363e-02,-6.559789925813674927e-02,-4.852743074297904968e-02,-2.060466110706329346e-01,-1.701885461807250977e-01,-3.791016712784767151e-02,5.119698122143745422e-03,-1.308568716049194336e-01,8.831655979156494141e-02,9.031110256910324097e-02,-1.855179071426391602e-01,1.329094767570495605e-01,3.227002918720245361e-02,8.332162350416183472e-02,3.334933891892433167e-02,5.827367305755615234e-02,-1.804531961679458618e-01,-4.495507851243019104e-02
8.399625122547149658e-02,7.031857222318649292e-02,-7.808830589056015015e-02,-1.421385705471038818e-01,7.363263517618179321e-02,-1.983580142259597778e-01,-9.346075356006622314e-02,1.431402564048767090e-01,-3.671747073531150818e-02,-9.184836596250534058e-02,1.589041501283645630e-01,5.840375646948814392e-02,-7.534037530422210693e-02,-2.313452959060668945e-02,-7.434709463268518448e-03,-1.406090683303773403e-03,2.213427051901817322e-02,2.825199160724878311e-03,-4.724088311195373535e-02,-8.528697071596980095e-04
8.340978622436523438e-02,6.530389189720153809e-02,5.402734875679016113e-02,-6.997385621070861816e-02,5.752421915531158447e-03,7.721073925495147705e-03,-4.496939480304718018e-03,-2.556828036904335022e-02,-2.472758665680885315e-02,6.901867687702178955e-02,-6.508503109216690063e-02,-7.528789341449737549e-03,3.925037384033203125e-02,6.721028685569763184e-02,-4.166293889284133911e-02,-4.169271886348724365e-02,-4.026830196380615234e-03,6.519243121147155762e-03,-6.036307662725448608e-02,2.797348797321319580e-02
-1.845844462513923645e-02,-9.104812890291213989e-02,-4.607331380248069763e-02,8.866786211729049683e-02,1.490383297204971313e-01,-9.844895452260971069e-02,-5.513752624392509460e-02,-7.675385568290948868e-03,-1.236536074429750443e-02,-1.005172133445739746e-01,-1.247486025094985962e-01,2.191000804305076599e-02,4.396789707243442535e-03,3.972488641738891602e-02,4.841446876525878906e-02,3.925183787941932678e-03,-7.859487831592559814e-02,4.083898675162345171e-04,-1.639592833817005157e-02,5.323798395693302155e-04
6.028883531689643860e-02,-1.024585813283920288e-01,-1.140923872590065002e-01,2.246322296559810638e-02,5.746177956461906433e-02,5.643566697835922241e-02,-1.145096197724342346e-01,-1.022891923785209656e-01,-7.856826484203338623e-02,-1.187117248773574829e-01,-1.650366815738379955e-03,2.324780225753784180e-01,-1.257123649120330811e-01,1.729439795017242432e-01,2.387967333197593689e-02,5.047522485256195068e-03,-1.248242184519767761e-01,1.433115452527999878e-01,-6.198839098215103149e-02,9.570657461881637573e-02
-5.525454878807067871e-03,-1.212580054998397827e-01,5.575859453529119492e-03,1.276487559080123901e-01,-1.005484685301780701e-01,1.889423467218875885e-02,1.239478886127471924e-01,-5.437323823571205139e-02,1.386482268571853638e-01,-2.552982792258262634e-02,-7.463851571083068848e-02,1.174752861261367798e-01,-3.943165019154548645e-02,1.235199719667434692e-01,-1.264653056859970093e-01,-1.671034097671508789e-01,-2.056078612804412842e-02,8.379083871841430664e-02,3.537125289440155029e-01,-8.397003263235092163e-02
2.559850811958312988e-01,-1.143128648400306702e-01,7.898991554975509644e-02,3.476868942379951477e-02,3.963309805840253830e-03,-2.992574684321880341e-02,1.633522510528564453e-01,-4.157615080475807190e-02,2.299368754029273987e-02,9.700631350278854370e-02,-2.023505121469497681e-01,9.936884045600891113e-03,-4.496606066823005676e-02,7.789377868175506592e-02,-9.409620612859725952e-02,-8.497010171413421631e-02,6.791084073483943939e-03,1.263311058282852173e-01,2.408404201269149780e-01,-1.266937553882598877e-01
9.306667745113372803e-02,-2.149465829133987427e-01,5.259490385651588440e-02,1.493709683418273926e-01,7.980036735534667969e-02,5.090825632214546204e-02,1.497555151581764221e-02,-2.009583450853824615e-02,-2.361666411161422729e-02,4.277073219418525696e-02,-9.020151197910308838e-02,1.940617710351943970e-01,-1.061238721013069153e-01,3.022063374519348145e-01,1.516761481761932373e-01,-3.092478811740875244e-01,-3.285401314496994019e-02,4.107087850570678711e-02,1.883465945720672607e-01,8.058375865221023560e-02
1.078843474388122559e-01,-1.667830646038055420e-01,-7.340434193611145020e-02,1.586897969245910645e-01,1.390128955245018005e-02,7.516694813966751099e-02,7.283020764589309692e-03,-1.141218245029449463e-01,3.855717554688453674e-02,-1.269123554229736328e-01,-8.211547136306762695e-02,1.106659770011901855e-01,-1.645153760910034180e-01,2.247474491596221924e-01,-2.389589324593544006e-03,-3.100607693195343018e-01,5.531875789165496826e-02,3.209186717867851257e-02,1.908541321754455566e-01,1.041209474205970764e-01
5.763400718569755554e-02,-7.235687971115112305e-02,-1.799383759498596191e-01,1.509114503860473633e-01,6.061248481273651123e-02,2.129783108830451965e-02,-3.625101968646049500e-02,-4.480243101716041565e-02,-1.066178604960441589e-01,-5.838570371270179749e-02,-1.615099376067519188e-03,6.642561405897140503e-02,-2.874522805213928223e-01,2.111840546131134033e-01,2.189903855323791504e-01,-3.388086259365081787e-01,5.542401596903800964e-02,-9.886412322521209717e-02,1.281670033931732178e-01,1.354775726795196533e-01
7.749330252408981323e-02,-5.045793205499649048e-02,-1.604858189821243286e-01,2.065977454185485840e-01,8.004979044198989868e-02,5.785464891232550144e-04,1.201036199927330017e-02,-3.278724849224090576e-02,-2.579469382762908936e-01,-1.035372093319892883e-01,-6.993506848812103271e-02,3.669308498501777649e-02,-7.374989986419677734e-02,3.331683278083801270e-01,2.562779784202575684e-01,-2.848584651947021484e-01,-8.057454600930213928e-03,2.646047994494438171e-02,1.731312721967697144e-01,3.881484642624855042e-02
4.289445281028747559e-02,-3.996472433209419250e-02,-1.991121321916580200e-01,1.367640793323516846e-01,-1.958032883703708649e-02,1.293480861932039261e-02,-2.438555099070072174e-02,1.168271806091070175e-02,-2.372121363878250122e-01,-1.781182587146759033e-01,5.881824344396591187e-02,-8.601759374141693115e-02,-2.451802492141723633e-01,2.546711862087249756e-01,1.301262974739074707e-01,-2.881987094879150391e-01,-3.371071815490722656e-02,-1.192378401756286621e-01,1.677156686782836914e-01,9.147438406944274902e-02
3.757881373167037964e-02,7.787137478590011597e-02,-9.063123166561126709e-02,4.933140799403190613e-02,2.179492264986038208e-02,-2.967584133148193359e-02,3.892857208847999573e-02,-2.257738634943962097e-02,-1.267294138669967651e-01,-2.484120987355709076e-02,7.193803787231445312e-02,-9.075397998094558716e-02,-5.558770895004272461e-02,2.899515330791473389e-01,2.215700000524520874e-01,-1.807272285223007202e-01,3.663065657019615173e-02,-8.544703572988510132e-02,5.470342934131622314e-02,1.460150778293609619e-01
6.471956521272659302e-02,1.016684547066688538e-01,-5.158814787864685059e-02,3.624456748366355896e-02,-6.052350997924804688e-02,-9.473718702793121338e-02,1.106435731053352356e-01,-1.535995155572891235e-01,-9.854722023010253906e-02,-2.166102677583694458e-01,-1.786978100426495075e-03,-1.356385201215744019e-01,1.659656688570976257e-02,2.493999451398849487e-01,1.697263419628143311e-01,-2.570309862494468689e-02,1.314730495214462280e-01,-6.328175310045480728e-03,-1.945037767291069031e-02,2.421541810035705566e-01
1.432446837425231934e-01,1.238460093736648560e-01,3.942542895674705505e-02,9.117920882999897003e-03,-7.278034836053848267e-02,-8.708549290895462036e-02,1.706361025571823120e-01,-1.362069845199584961e-01,-2.582741081714630127e-01,-2.109886705875396729e-01,1.836386471986770630e-01,-1.510102748870849609e-01,1.531383395195007324e-01,3.085588216781616211e-01,1.428311765193939209e-01,-3.387816250324249268e-02,2.909068465232849121e-01,4.438534006476402283e-02,1.000721603631973267e-01,2.062115967273712158e-01
-2.700267173349857330e-02,3.448669239878654480e-02,2.370343357324600220e-02,6.852373480796813965e-02,-2.431968227028846741e-02,2.402261132374405861e-03,2.456911094486713409e-02,-8.996486663818359375e-02,-1.380397975444793701e-01,-4.251019656658172607e-01,6.150970607995986938e-02,-5.947095155715942383e-02,3.722307085990905762e-01,3.063330948352813721e-01,1.143609359860420227e-01,1.669970750808715820e-01,2.127548009157180786e-01,6.517365574836730957e-02,8.541563898324966431e-02,1.377363353967666626e-01
3.950549289584159851e-02,9.787525981664657593e-02,9.051299095153808594e-02,2.252892777323722839e-02,6.258779764175415039e-02,-1.141414567828178406e-01,1.240698322653770447e-01,6.313921418040990829e-03,-9.440692514181137085e-02,-3.857321441173553467e-01,6.341591477394104004e-02,-1.586455553770065308e-01,3.782675266265869141e-01,3.607757687568664551e-01,4.315868392586708069e-02,2.112482190132141113e-01,2.927164137363433838e-01,1.079136654734611511e-01,1.350889503955841064e-01,1.986075490713119507e-01
5.641384422779083252e-02,8.588366210460662842e-03,2.039538770914077759e-01,1.231225430965423584e-01,1.975441817194223404e-03,6.491055712103843689e-03,1.784963607788085938e-01,-2.821926260367035866e-03,-5.343703180551528931e-02,-4.846955537796020508e-01,9.689823538064956665e-02,-6.861296296119689941e-02,3.262994289398193359e-01,3.104175031185150146e-01,1.582297086715698242e-01,1.944316625595092773e-01,2.554714679718017578e-01,2.883383445441722870e-02,1.303314268589019775e-01,4.826901946216821671e-03
1.164806038141250610e-01,-1.859341934323310852e-02,1.453807055950164795e-01,5.488751083612442017e-02,3.907027188688516617e-03,7.566714286804199219e-02,1.548141986131668091e-01,-9.229969233274459839e-03,-5.319892242550849915e-02,-5.589099526405334473e-01,1.113448515534400940e-01,-1.270418763160705566e-01,3.555518686771392822e-01,2.633190453052520752e-01,9.294851124286651611e-02,2.698955833911895752e-01,2.048083692789077759e-01,8.874616026878356934e-02,3.049379289150238037e-01,1.186768487095832825e-01
7.374329864978790283e-02,-1.500257253646850586e-01,9.885994717478752136e-03,5.416698753833770752e-02,5.334379896521568298e-02,8.329713344573974609e-02,4.345443099737167358e-02,-2.241791412234306335e-02,-1.424459666013717651e-01,-4.000941812992095947e-01,2.326008528470993042e-01,-6.708116852678358555e-04,3.348400294780731201e-01,1.790983676910400391e-01,9.086791425943374634e-02,2.668334543704986572e-01,2.295992821455001831e-01,7.354306057095527649e-03,1.181227564811706543e-01,2.397782355546951294e-02
-2.787952125072479248e-02,-6.929010152816772461e-02,1.424380540847778320e-01,-1.685865595936775208e-02,6.122524663805961609e-02,7.267206162214279175e-02,9.849788993597030640e-02,1.098588183522224426e-01,-2.071780115365982056e-01,-2.058497071266174316e-01,1.187258660793304443e-01,1.001019775867462158e-01,1.644756644964218140e-01,2.544059753417968750e-01,6.246008723974227905e-02,8.855276554822921753e-02,9.123579412698745728e-02,1.453781127929687500e-01,7.838594913482666016e-02,-9.716688841581344604e-02
3.939173370599746704e-02,5.534560605883598328e-02,1.411788463592529297e-01,-1.312300562858581543e-02,-4.359884187579154968e-02,2.778588421642780304e-02,1.363761126995086670e-01,9.876989573240280151e-02,-1.986580044031143188e-01,-9.965819865465164185e-02,2.342022806406021118e-01,1.025327593088150024e-01,-2.034172229468822479e-02,7.711321115493774414e-02,-1.214295402169227600e-01,2.019099742174148560e-01,1.021283790469169617e-01,2.742268517613410950e-02,-1.435544937849044800e-01,-9.940540045499801636e-02
2.025152742862701416e-01,1.567615419626235962e-01,1.171624362468719482e-01,-6.256464123725891113e-02,1.163263767957687378e-01,-9.157882630825042725e-02,-5.520072579383850098e-02,-4.080135840922594070e-04,-1.179350838065147400e-01,-7.737837731838226318e-02,2.749902307987213135e-01,1.046910211443901062e-01,-8.571065217256546021e-02,1.057671532034873962e-01,-2.406661957502365112e-02,1.540811359882354736e-01,4.315006732940673828e-02,1.382744405418634415e-02,-1.320106238126754761e-01,-1.339808851480484009e-01
1.428231149911880493e-01,1.329620033502578735e-01,1.612493246793746948e-01,-2.955010905861854553e-02,1.564944386482238770e-01,3.199288249015808105e-02,-7.208459079265594482e-02,1.483822315931320190e-01,-1.150529310107231140e-01,-6.692353636026382446e-02,2.020241916179656982e-01,1.326848566532135010e-01,-9.662730991840362549e-02,1.468139290809631348e-01,-2.240580469369888306e-01,1.171389361843466759e-03,1.934981718659400940e-02,7.468473911285400391e-02,-1.779170930385589600e-01,-1.818509548902511597e-01
5.850288271903991699e-02,1.257532089948654175e-01,5.177310085855424404e-04,2.916927635669708252e-02,1.927304714918136597e-01,-6.667859852313995361e-03,-6.163403764367103577e-02,1.939583420753479004e-01,-5.853829905390739441e-02,1.101307757198810577e-02,2.187373042106628418e-01,1.600547879934310913e-01,-1.544006317853927612e-01,7.951012998819351196e-02,-2.332661449909210205e-01,-9.259818121790885925e-03,-6.897620111703872681e-02,-8.771083317697048187e-03,-2.592980563640594482e-01,-1.152792349457740784e-01
1.158296614885330200e-01,2.824453115463256836e-01,6.888093054294586182e-02,-2.768363617360591888e-02,5.893161892890930176e-02,2.382213994860649109e-02,-1.482346504926681519e-01,1.352196633815765381e-01,-9.459979087114334106e-02,1.066964939236640930e-01,2.043526172637939453e-01,1.746115833520889282e-01,-1.623155362904071808e-02,-3.535808995366096497e-02,-7.994336634874343872e-02,-8.254977315664291382e-02,-5.914632976055145264e-02,-1.142186820507049561e-01,-2.958701550960540771e-01,-4.530121684074401855e-01
1.935188472270965576e-01,4.578192532062530518e-01,-5.183967947959899902e-02,-1.872103065252304077e-01,3.169219195842742920e-02,-4.038635641336441040e-02,-2.331973761320114136e-01,1.076081469655036926e-01,7.284598052501678467e-02,1.404302269220352173e-01,2.428749054670333862e-01,6.360843777656555176e-02,-2.765645384788513184e-01,4.529283568263053894e-02,5.148015543818473816e-02,-1.547646820545196533e-01,-1.825836896896362305e-01,4.101285710930824280e-02,-3.637974858283996582e-01,-3.790829479694366455e-01
1.625992357730865479e-01,5.232377052307128906e-01,-3.677355870604515076e-02,-2.591989040374755859e-01,-9.624382853507995605e-02,-2.320457547903060913e-01,-5.372307896614074707e-01,3.941449895501136780e-02,5.831642821431159973e-02,-6.631460785865783691e-02,2.600099444389343262e-01,5.213735159486532211e-03,-4.083390235900878906e-01,5.893561616539955139e-02,9.971179813146591187e-02,-1.213838532567024231e-01,8.177760057151317596e-03,1.744776666164398193e-01,-1.783179938793182373e-01,-8.105455338954925537e-02
1.019440814852714539e-01,2.193644791841506958e-01,-1.310083717107772827e-01,-1.207609847187995911e-01,-1.472134292125701904e-01,-3.086321353912353516e-01,-2.282944917678833008e-01,-6.358969211578369141e-02,-3.487158566713333130e-02,1.346763372421264648e-01,2.406218498945236206e-01,2.972419559955596924e-02,-1.204928234219551086e-01,-1.191045995801687241e-02,2.798911333084106445e-01,5.180330947041511536e-02,-6.432832777500152588e-02,1.423420906066894531e-01,2.360436134040355682e-02,-1.095300540328025818e-01
